booster[0]:
0:[f7271<1.41255128] yes=1,no=2,missing=1
	1:[f222<2.32707191] yes=3,no=4,missing=3
		3:[f3245<4.85355186] yes=7,no=8,missing=7
			7:[f9259<0.27232489] yes=15,no=16,missing=15
				15:leaf=-0.0154646104
				16:leaf=-0.0102174236
			8:[f3209<2.37034035] yes=17,no=18,missing=17
				17:leaf=0.00172303757
				18:leaf=-0.00613851752
		4:[f9253<0.104144841] yes=9,no=10,missing=9
			9:[f5889<1.80236483] yes=19,no=20,missing=19
				19:leaf=-0.0103023816
				20:leaf=-0.00279452046
			10:[f1198<7.69241714] yes=21,no=22,missing=21
				21:leaf=-0.00532888295
				22:leaf=0.00166970084
	2:[f7271<2.43198729] yes=5,no=6,missing=5
		5:[f222<2.8616538] yes=11,no=12,missing=11
			11:[f1243<15.1928511] yes=23,no=24,missing=23
				23:leaf=-0.00112272077
				24:leaf=0.00468179304
			12:[f9253<0.168916389] yes=25,no=26,missing=25
				25:leaf=0.000781758921
				26:leaf=0.00829902478
		6:[f9273<2.11209202] yes=13,no=14,missing=13
			13:[f430<1.16623092] yes=27,no=28,missing=27
				27:leaf=0.00664692186
				28:leaf=0.0129822111
			14:[f436<0.105897568] yes=29,no=30,missing=29
				29:leaf=0.0034573304
				30:leaf=0.0158889759
booster[1]:
0:[f7271<1.41178036] yes=1,no=2,missing=1
	1:[f222<2.32707191] yes=3,no=4,missing=3
		3:[f3245<4.85355186] yes=7,no=8,missing=7
			7:[f9295<0.211561978] yes=15,no=16,missing=15
				15:leaf=-0.0146847973
				16:leaf=-0.00759108597
			8:[f3209<2.37034035] yes=17,no=18,missing=17
				17:leaf=0.0017080073
				18:leaf=-0.00609288318
		4:[f9253<0.104144841] yes=9,no=10,missing=9
			9:[f5889<1.80236483] yes=19,no=20,missing=19
				19:leaf=-0.0102023799
				20:leaf=-0.00275382027
			10:[f1198<7.69241714] yes=21,no=22,missing=21
				21:leaf=-0.00527484342
				22:leaf=0.00164997217
	2:[f7271<2.43198729] yes=5,no=6,missing=5
		5:[f222<2.8616538] yes=11,no=12,missing=11
			11:[f1243<15.1928511] yes=23,no=24,missing=23
				23:leaf=-0.00111604994
				24:leaf=0.00464354595
			12:[f9253<0.168916389] yes=25,no=26,missing=25
				25:leaf=0.000741442898
				26:leaf=0.00821832009
		6:[f9273<2.11209202] yes=13,no=14,missing=13
			13:[f430<1.16623092] yes=27,no=28,missing=27
				27:leaf=0.00658333488
				28:leaf=0.0128619503
			14:[f436<0.105897568] yes=29,no=30,missing=29
				29:leaf=0.0034378937
				30:leaf=0.0157352164
booster[2]:
0:[f7271<1.41255128] yes=1,no=2,missing=1
	1:[f222<2.38425565] yes=3,no=4,missing=3
		3:[f5247<1.9554081] yes=7,no=8,missing=7
			7:[f9253<0.137205452] yes=15,no=16,missing=15
				15:leaf=-0.0149957594
				16:leaf=-0.0094288066
			8:[f3245<7.15078068] yes=17,no=18,missing=17
				17:leaf=-0.00629932573
				18:leaf=0.000666684937
		4:[f9253<0.104144841] yes=9,no=10,missing=9
			9:[f5889<1.86660469] yes=19,no=20,missing=19
				19:leaf=-0.00961706135
				20:leaf=-0.00239979196
			10:[f1198<7.69241714] yes=21,no=22,missing=21
				21:leaf=-0.00488988636
				22:leaf=0.00186563574
	2:[f7271<2.43198729] yes=5,no=6,missing=5
		5:[f222<2.8616538] yes=11,no=12,missing=11
			11:[f1243<15.1928511] yes=23,no=24,missing=23
				23:leaf=-0.00110079383
				24:leaf=0.00459379563
			12:[f9253<0.168916389] yes=25,no=26,missing=25
				25:leaf=0.00076900766
				26:leaf=0.00814035535
		6:[f9273<2.11209202] yes=13,no=14,missing=13
			13:[f430<1.16623092] yes=27,no=28,missing=27
				27:leaf=0.00652049156
				28:leaf=0.0127437906
			14:[f436<0.105897568] yes=29,no=30,missing=29
				29:leaf=0.00341857783
				30:leaf=0.0155848358
booster[3]:
0:[f7271<1.41178036] yes=1,no=2,missing=1
	1:[f222<2.32707191] yes=3,no=4,missing=3
		3:[f3245<4.85355186] yes=7,no=8,missing=7
			7:[f9253<0.137205452] yes=15,no=16,missing=15
				15:leaf=-0.0149203846
				16:leaf=-0.00962378737
			8:[f3209<2.37034035] yes=17,no=18,missing=17
				17:leaf=0.00172354281
				18:leaf=-0.00598348305
		4:[f9253<0.104144841] yes=9,no=10,missing=9
			9:[f5889<1.80236483] yes=19,no=20,missing=19
				19:leaf=-0.010006343
				20:leaf=-0.00270152767
			10:[f1198<7.69241714] yes=21,no=22,missing=21
				21:leaf=-0.00517067825
				22:leaf=0.00162131479
	2:[f7271<2.43198729] yes=5,no=6,missing=5
		5:[f222<2.8616538] yes=11,no=12,missing=11
			11:[f1243<15.1928511] yes=23,no=24,missing=23
				23:leaf=-0.00109426666
				24:leaf=0.00455652317
			12:[f9253<0.168916389] yes=25,no=26,missing=25
				25:leaf=0.000728812476
				26:leaf=0.00806172844
		6:[f9273<2.11209202] yes=13,no=14,missing=13
			13:[f430<1.16623092] yes=27,no=28,missing=27
				27:leaf=0.00645838026
				28:leaf=0.0126276659
			14:[f436<0.105897568] yes=29,no=30,missing=29
				29:leaf=0.00339938048
				30:leaf=0.0154377064
booster[4]:
0:[f7271<1.41255128] yes=1,no=2,missing=1
	1:[f222<2.38425565] yes=3,no=4,missing=3
		3:[f5247<1.9554081] yes=7,no=8,missing=7
			7:[f9253<0.104930118] yes=15,no=16,missing=15
				15:leaf=-0.0152206235
				16:leaf=-0.0102545405
			8:[f3245<7.15078068] yes=17,no=18,missing=17
				17:leaf=-0.00618512975
				18:leaf=0.000689584762
		4:[f9253<0.104144841] yes=9,no=10,missing=9
			9:[f5889<1.86660469] yes=19,no=20,missing=19
				19:leaf=-0.00943039171
				20:leaf=-0.00235558255
			10:[f1198<7.69241714] yes=21,no=22,missing=21
				21:leaf=-0.00479416968
				22:leaf=0.0018317264
	2:[f7271<2.43198729] yes=5,no=6,missing=5
		5:[f222<2.8616538] yes=11,no=12,missing=11
			11:[f1243<15.1928511] yes=23,no=24,missing=23
				23:leaf=-0.00107929739
				24:leaf=0.00450763013
			12:[f6764<0.109167159] yes=25,no=26,missing=25
				25:leaf=0.00830632541
				26:leaf=0.00183424482
		6:[f9273<2.11209202] yes=13,no=14,missing=13
			13:[f430<1.16623092] yes=27,no=28,missing=27
				27:leaf=0.00639698561
				28:leaf=0.0125135165
			14:[f436<0.105897568] yes=29,no=30,missing=29
				29:leaf=0.00338030211
				30:leaf=0.0152937155
booster[5]:
0:[f7271<1.41178036] yes=1,no=2,missing=1
	1:[f222<2.32707191] yes=3,no=4,missing=3
		3:[f3245<4.85355186] yes=7,no=8,missing=7
			7:[f9295<0.212866947] yes=15,no=16,missing=15
				15:leaf=-0.0141371489
				16:leaf=-0.00715879723
			8:[f3209<2.37034035] yes=17,no=18,missing=17
				17:leaf=0.001737857
				18:leaf=-0.00587697187
		4:[f9253<0.104144841] yes=9,no=10,missing=9
			9:[f5889<1.80236483] yes=19,no=20,missing=19
				19:leaf=-0.00981552061
				20:leaf=-0.00265019084
			10:[f1198<7.69241714] yes=21,no=22,missing=21
				21:leaf=-0.00506957527
				22:leaf=0.00159296684
	2:[f7271<2.43198729] yes=5,no=6,missing=5
		5:[f222<2.8616538] yes=11,no=12,missing=11
			11:[f1243<15.1928511] yes=23,no=24,missing=23
				23:leaf=-0.00107289525
				24:leaf=0.00447130296
			12:[f9253<0.168916389] yes=25,no=26,missing=25
				25:leaf=0.000682294427
				26:leaf=0.00791705679
		6:[f9273<2.11209202] yes=13,no=14,missing=13
			13:[f430<1.16623092] yes=27,no=28,missing=27
				27:leaf=0.00633629598
				28:leaf=0.0124012828
			14:[f1226<3.12680387] yes=29,no=30,missing=29
				29:leaf=0.00230445806
				30:leaf=0.015098433
booster[6]:
0:[f7271<1.41255128] yes=1,no=2,missing=1
	1:[f222<2.38425565] yes=3,no=4,missing=3
		3:[f5247<1.9554081] yes=7,no=8,missing=7
			7:[f9253<0.104930118] yes=15,no=16,missing=15
				15:leaf=-0.0149494438
				16:leaf=-0.0100450618
			8:[f3245<7.15078068] yes=17,no=18,missing=17
				17:leaf=-0.00607307954
				18:leaf=0.000711633649
		4:[f9253<0.104144841] yes=9,no=10,missing=9
			9:[f5159<4.52433491] yes=19,no=20,missing=19
				19:leaf=-0.00929262955
				20:leaf=-0.00248080073
			10:[f1198<7.69241714] yes=21,no=22,missing=21
				21:leaf=-0.00470054056
				22:leaf=0.00179843209
	2:[f7271<2.43198729] yes=5,no=6,missing=5
		5:[f222<2.8616538] yes=11,no=12,missing=11
			11:[f1243<15.1928511] yes=23,no=24,missing=23
				23:leaf=-0.0010582211
				24:leaf=0.00442324346
			12:[f6764<0.109167159] yes=25,no=26,missing=25
				25:leaf=0.00815971754
				26:leaf=0.00177170394
		6:[f8438<0.0657462031] yes=13,no=14,missing=13
			13:[f1265<22.9138412] yes=27,no=28,missing=27
				27:leaf=0.00372658297
				28:leaf=0.00972050615
			14:[f1226<3.12482882] yes=29,no=30,missing=29
				29:leaf=0.00292911311
				30:leaf=0.0140986489
booster[7]:
0:[f7271<1.41178036] yes=1,no=2,missing=1
	1:[f5249<0.446062267] yes=3,no=4,missing=3
		3:[f2824<2.43599987] yes=7,no=8,missing=7
			7:[f430<0.871375442] yes=15,no=16,missing=15
				15:leaf=-0.0148020983
				16:leaf=-0.00902312994
			8:[f6214<0.0452145562] yes=17,no=18,missing=17
				17:leaf=-2.03033578e-05
				18:leaf=-0.00780869834
		4:[f222<2.47484875] yes=9,no=10,missing=9
			9:[f3245<6.5849781] yes=19,no=20,missing=19
				19:leaf=-0.0097075412
				20:leaf=0.0012796364
			10:[f2486<0.305075675] yes=21,no=22,missing=21
				21:leaf=0.00100870477
				22:leaf=-0.00627040444
	2:[f7271<2.43198729] yes=5,no=6,missing=5
		5:[f222<2.8616538] yes=11,no=12,missing=11
			11:[f1243<15.1928511] yes=23,no=24,missing=23
				23:leaf=-0.00105194759
				24:leaf=0.00438784156
			12:[f9253<0.168916389] yes=25,no=26,missing=25
				25:leaf=0.000637026329
				26:leaf=0.00777585665
		6:[f9273<2.11209202] yes=13,no=14,missing=13
			13:[f430<1.16623092] yes=27,no=28,missing=27
				27:leaf=0.00618809089
				28:leaf=0.0121808099
			14:[f436<0.105897568] yes=29,no=30,missing=29
				29:leaf=0.00325457589
				30:leaf=0.0148988636
booster[8]:
0:[f7271<1.41255128] yes=1,no=2,missing=1
	1:[f5249<0.446062267] yes=3,no=4,missing=3
		3:[f2824<2.43599987] yes=7,no=8,missing=7
			7:[f430<0.871375442] yes=15,no=16,missing=15
				15:leaf=-0.0146665387
				16:leaf=-0.00893958937
			8:[f6214<0.0452145562] yes=17,no=18,missing=17
				17:leaf=-2.01669918e-05
				18:leaf=-0.00774068804
		4:[f222<2.47484875] yes=9,no=10,missing=9
			9:[f3245<6.5849781] yes=19,no=20,missing=19
				19:leaf=-0.00961221661
				20:leaf=0.00128255645
			10:[f2486<0.306065381] yes=21,no=22,missing=21
				21:leaf=0.000992083922
				22:leaf=-0.00621953234
	2:[f7271<2.43198729] yes=5,no=6,missing=5
		5:[f222<2.8574419] yes=11,no=12,missing=11
			11:[f1243<15.1928511] yes=23,no=24,missing=23
				23:leaf=-0.0010504158
				24:leaf=0.00432814518
			12:[f6764<0.109167159] yes=25,no=26,missing=25
				25:leaf=0.0080159558
				26:leaf=0.00162541657
		6:[f8438<0.0657462031] yes=13,no=14,missing=13
			13:[f1265<22.9138412] yes=27,no=28,missing=27
				27:leaf=0.00361938495
				28:leaf=0.00954640005
			14:[f1226<3.12482882] yes=29,no=30,missing=29
				29:leaf=0.00285801291
				30:leaf=0.0138533069
booster[9]:
0:[f7271<1.26856148] yes=1,no=2,missing=1
	1:[f222<2.32704973] yes=3,no=4,missing=3
		3:[f2824<2.42271852] yes=7,no=8,missing=7
			7:[f9234<0.122561559] yes=15,no=16,missing=15
				15:leaf=-0.0143961636
				16:leaf=-0.0095742913
			8:[f3245<7.15078068] yes=17,no=18,missing=17
				17:leaf=-0.00715411175
				18:leaf=0.000636786106
		4:[f9253<0.104144841] yes=9,no=10,missing=9
			9:[f3157<15.683466] yes=19,no=20,missing=19
				19:leaf=-0.0091593517
				20:leaf=0.00025565768
			10:[f1198<7.69241714] yes=21,no=22,missing=21
				21:leaf=-0.00525282323
				22:leaf=0.00124289643
	2:[f7271<2.34307218] yes=5,no=6,missing=5
		5:[f222<2.49309826] yes=11,no=12,missing=11
			11:[f3286<16.3077812] yes=23,no=24,missing=23
				23:leaf=-0.0032188457
				24:leaf=0.00233148737
			12:[f9253<0.174071684] yes=25,no=26,missing=25
				25:leaf=-4.97288747e-05
				26:leaf=0.00592537457
		6:[f9273<2.11209202] yes=13,no=14,missing=13
			13:[f430<1.16623092] yes=27,no=28,missing=27
				27:leaf=0.00592337828
				28:leaf=0.0118369032
			14:[f2438<0.05495698] yes=29,no=30,missing=29
				29:leaf=0.00294376793
				30:leaf=0.0146394223
booster[10]:
0:[f7271<1.26856148] yes=1,no=2,missing=1
	1:[f222<2.27386665] yes=3,no=4,missing=3
		3:[f2824<2.49165535] yes=7,no=8,missing=7
			7:[f9236<0.185708031] yes=15,no=16,missing=15
				15:leaf=-0.0139701208
				16:leaf=-0.00823316071
			8:[f3245<7.40776157] yes=17,no=18,missing=17
				17:leaf=-0.00678128004
				18:leaf=0.000987841049
		4:[f9253<0.104144841] yes=9,no=10,missing=9
			9:[f5889<1.86668682] yes=19,no=20,missing=19
				19:leaf=-0.00969950389
				20:leaf=-0.00213645399
			10:[f1198<7.62807655] yes=21,no=22,missing=21
				21:leaf=-0.00550482376
				22:leaf=0.000913097523
	2:[f7271<2.34307218] yes=5,no=6,missing=5
		5:[f222<2.49309826] yes=11,no=12,missing=11
			11:[f3286<16.3077812] yes=23,no=24,missing=23
				23:leaf=-0.00318751414
				24:leaf=0.00230964576
			12:[f9253<0.174071684] yes=25,no=26,missing=25
				25:leaf=-4.92643376e-05
				26:leaf=0.00586816762
		6:[f9273<2.11209202] yes=13,no=14,missing=13
			13:[f430<1.16623092] yes=27,no=28,missing=27
				27:leaf=0.00586737739
				28:leaf=0.0117333727
			14:[f416<0.0152330184] yes=29,no=30,missing=29
				29:leaf=0.00182761066
				30:leaf=0.0144571625
booster[11]:
0:[f7271<1.41255128] yes=1,no=2,missing=1
	1:[f5249<0.446062267] yes=3,no=4,missing=3
		3:[f2824<2.43599987] yes=7,no=8,missing=7
			7:[f430<0.871375442] yes=15,no=16,missing=15
				15:leaf=-0.0142955398
				16:leaf=-0.0086912429
			8:[f6214<0.0452145562] yes=17,no=18,missing=17
				17:leaf=7.22275217e-05
				18:leaf=-0.0075693368
		4:[f420<0.0894688666] yes=9,no=10,missing=9
			9:[f5247<2.21775579] yes=19,no=20,missing=19
				19:leaf=-0.00972282607
				20:leaf=-0.000876555452
			10:[f430<1.19288921] yes=21,no=22,missing=21
				21:leaf=-0.00355236372
				22:leaf=0.00298794894
	2:[f7271<2.43198729] yes=5,no=6,missing=5
		5:[f430<1.09503269] yes=11,no=12,missing=11
			11:[f1243<15.1563129] yes=23,no=24,missing=23
				23:leaf=-0.00118979672
				24:leaf=0.00462796539
			12:[f1198<8.33017159] yes=25,no=26,missing=25
				25:leaf=0.000775093096
				26:leaf=0.00780065637
		6:[f8438<0.0657462031] yes=13,no=14,missing=13
			13:[f1265<22.9138412] yes=27,no=28,missing=27
				27:leaf=0.00344551587
				28:leaf=0.00929532107
			14:[f1245<4.04804611] yes=29,no=30,missing=29
				29:leaf=0.00427552033
				30:leaf=0.0136084668
booster[12]:
0:[f7271<1.26856148] yes=1,no=2,missing=1
	1:[f222<2.32704973] yes=3,no=4,missing=3
		3:[f2824<2.42271852] yes=7,no=8,missing=7
			7:[f9234<0.122561559] yes=15,no=16,missing=15
				15:leaf=-0.0140319848
				16:leaf=-0.00929026678
			8:[f3245<7.15078068] yes=17,no=18,missing=17
				17:leaf=-0.0069605154
				18:leaf=0.000660028309
		4:[f9253<0.0942140445] yes=9,no=10,missing=9
			9:[f5217<2.53860664] yes=19,no=20,missing=19
				19:leaf=-0.00940114353
				20:leaf=8.49824573e-06
			10:[f1198<7.01813745] yes=21,no=22,missing=21
				21:leaf=-0.00621715002
				22:leaf=0.000219684109
	2:[f7271<2.34307218] yes=5,no=6,missing=5
		5:[f222<2.49309826] yes=11,no=12,missing=11
			11:[f3286<16.3077812] yes=23,no=24,missing=23
				23:leaf=-0.00313001964
				24:leaf=0.00227076933
			12:[f9253<0.174071684] yes=25,no=26,missing=25
				25:leaf=-6.78886936e-05
				26:leaf=0.00578171015
		6:[f9273<2.11209202] yes=13,no=14,missing=13
			13:[f430<1.16623092] yes=27,no=28,missing=27
				27:leaf=0.00573749328
				28:leaf=0.0115331458
			14:[f436<0.105897568] yes=29,no=30,missing=29
				29:leaf=0.00305563025
				30:leaf=0.0142946634
booster[13]:
0:[f7271<1.41178036] yes=1,no=2,missing=1
	1:[f5249<0.446062267] yes=3,no=4,missing=3
		3:[f2824<2.43599987] yes=7,no=8,missing=7
			7:[f430<0.871375442] yes=15,no=16,missing=15
				15:leaf=-0.0140549494
				16:leaf=-0.00853238441
			8:[f6214<0.0452145562] yes=17,no=18,missing=17
				17:leaf=0.000115175368
				18:leaf=-0.00744934939
		4:[f222<2.47484875] yes=9,no=10,missing=9
			9:[f3245<6.5849781] yes=19,no=20,missing=19
				19:leaf=-0.00917545054
				20:leaf=0.00129315408
			10:[f2486<0.305075675] yes=21,no=22,missing=21
				21:leaf=0.00106905447
				22:leaf=-0.00604010979
	2:[f7271<2.45947385] yes=5,no=6,missing=5
		5:[f222<2.8574419] yes=11,no=12,missing=11
			11:[f1243<15.4104719] yes=23,no=24,missing=23
				23:leaf=-0.000967394677
				24:leaf=0.00426471652
			12:[f9253<0.168916389] yes=25,no=26,missing=25
				25:leaf=0.000436056056
				26:leaf=0.00753933331
		6:[f9273<2.11209202] yes=13,no=14,missing=13
			13:[f430<1.16623092] yes=27,no=28,missing=27
				27:leaf=0.00586783886
				28:leaf=0.011511703
			14:[f416<0.0152330184] yes=29,no=30,missing=29
				29:leaf=0.00175071112
				30:leaf=0.0141057968
booster[14]:
0:[f7271<1.26856148] yes=1,no=2,missing=1
	1:[f222<2.27386665] yes=3,no=4,missing=3
		3:[f2824<2.49165535] yes=7,no=8,missing=7
			7:[f9236<0.215738446] yes=15,no=16,missing=15
				15:leaf=-0.0133468481
				16:leaf=-0.00671289302
			8:[f3245<7.40776157] yes=17,no=18,missing=17
				17:leaf=-0.00654010987
				18:leaf=0.00101297162
		4:[f9253<0.104144841] yes=9,no=10,missing=9
			9:[f5889<1.86668682] yes=19,no=20,missing=19
				19:leaf=-0.00939540099
				20:leaf=-0.00201132777
			10:[f1198<7.62807655] yes=21,no=22,missing=21
				21:leaf=-0.0053056851
				22:leaf=0.00096277392
	2:[f7271<2.34307218] yes=5,no=6,missing=5
		5:[f222<2.82115412] yes=11,no=12,missing=11
			11:[f3245<8.85386848] yes=23,no=24,missing=23
				23:leaf=-0.00200150884
				24:leaf=0.00403871713
			12:[f6764<0.109120861] yes=25,no=26,missing=25
				25:leaf=0.0070238146
				26:leaf=0.000556328392
		6:[f9273<2.11209202] yes=13,no=14,missing=13
			13:[f430<1.16623092] yes=27,no=28,missing=27
				27:leaf=0.0056341528
				28:leaf=0.0113420868
			14:[f2438<0.05495698] yes=29,no=30,missing=29
				29:leaf=0.00274166022
				30:leaf=0.0140435016
booster[15]:
0:[f7271<1.26856148] yes=1,no=2,missing=1
	1:[f222<2.09093952] yes=3,no=4,missing=3
		3:[f2824<2.48174381] yes=7,no=8,missing=7
			7:[f9236<0.214692011] yes=15,no=16,missing=15
				15:leaf=-0.0136525864
				16:leaf=-0.00689513655
			8:[f3245<7.39528704] yes=17,no=18,missing=17
				17:leaf=-0.0070430208
				18:leaf=0.000104829902
		4:[f3917<0.560845256] yes=9,no=10,missing=9
			9:[f430<1.1218996] yes=19,no=20,missing=19
				19:leaf=-0.0089506777
				20:leaf=-0.00158035289
			10:[f4752<0.074519299] yes=21,no=22,missing=21
				21:leaf=0.00297473953
				22:leaf=-0.00336929946
	2:[f7271<2.34307218] yes=5,no=6,missing=5
		5:[f222<2.49309826] yes=11,no=12,missing=11
			11:[f3286<16.3077812] yes=23,no=24,missing=23
				23:leaf=-0.00305224094
				24:leaf=0.00221620593
			12:[f9253<0.174071684] yes=25,no=26,missing=25
				25:leaf=-9.10341914e-05
				26:leaf=0.00565067539
		6:[f9273<2.11209202] yes=13,no=14,missing=13
			13:[f430<1.16623092] yes=27,no=28,missing=27
				27:leaf=0.0055813035
				28:leaf=0.0112460228
			14:[f1226<3.12680387] yes=29,no=30,missing=29
				29:leaf=0.00197864464
				30:leaf=0.0138884038
booster[16]:
0:[f7271<1.41255128] yes=1,no=2,missing=1
	1:[f7251<0.220486939] yes=3,no=4,missing=3
		3:[f5247<1.57369494] yes=7,no=8,missing=7
			7:[f430<0.871375442] yes=15,no=16,missing=15
				15:leaf=-0.013848505
				16:leaf=-0.00830865931
			8:[f3245<7.37546062] yes=17,no=18,missing=17
				17:leaf=-0.00733207399
				18:leaf=-0.000675466785
		4:[f222<2.49381542] yes=9,no=10,missing=9
			9:[f3245<5.0664711] yes=19,no=20,missing=19
				19:leaf=-0.00876614172
				20:leaf=-0.000646952889
			10:[f4488<0.0857589245] yes=21,no=22,missing=21
				21:leaf=0.00163942075
				22:leaf=-0.00475245807
	2:[f7271<2.45947385] yes=5,no=6,missing=5
		5:[f430<1.0619874] yes=11,no=12,missing=11
			11:[f1243<15.1557198] yes=23,no=24,missing=23
				23:leaf=-0.00131340814
				24:leaf=0.0044098408
			12:[f5202<2.32114315] yes=25,no=26,missing=25
				25:leaf=0.00309473579
				26:leaf=0.00807455648
		6:[f8438<0.0657462031] yes=13,no=14,missing=13
			13:[f1265<22.9138412] yes=27,no=28,missing=27
				27:leaf=0.00325103989
				28:leaf=0.00894497428
			14:[f1226<3.12680387] yes=29,no=30,missing=29
				29:leaf=0.00237223133
				30:leaf=0.0130122993
booster[17]:
0:[f7271<1.26856148] yes=1,no=2,missing=1
	1:[f222<2.09093952] yes=3,no=4,missing=3
		3:[f2824<2.48174381] yes=7,no=8,missing=7
			7:[f9236<0.214692011] yes=15,no=16,missing=15
				15:leaf=-0.0134327933
				16:leaf=-0.00674687326
			8:[f3245<7.39528704] yes=17,no=18,missing=17
				17:leaf=-0.0069156657
				18:leaf=0.000109404609
		4:[f3917<0.560845256] yes=9,no=10,missing=9
			9:[f430<1.1218996] yes=19,no=20,missing=19
				19:leaf=-0.00879204925
				20:leaf=-0.0015287624
			10:[f4752<0.074519299] yes=21,no=22,missing=21
				21:leaf=0.00296314084
				22:leaf=-0.00331192464
	2:[f7271<2.34307218] yes=5,no=6,missing=5
		5:[f222<2.8574419] yes=11,no=12,missing=11
			11:[f1243<15.044878] yes=23,no=24,missing=23
				23:leaf=-0.0020419932
				24:leaf=0.00342122349
			12:[f6764<0.109167159] yes=25,no=26,missing=25
				25:leaf=0.00702112122
				26:leaf=0.000658850826
		6:[f9273<2.11209202] yes=13,no=14,missing=13
			13:[f430<1.16623092] yes=27,no=28,missing=27
				27:leaf=0.00545995869
				28:leaf=0.0110597201
			14:[f2438<0.05495698] yes=29,no=30,missing=29
				29:leaf=0.0026299092
				30:leaf=0.0137159759
booster[18]:
0:[f7271<1.41255128] yes=1,no=2,missing=1
	1:[f5249<0.446062267] yes=3,no=4,missing=3
		3:[f2824<2.43599987] yes=7,no=8,missing=7
			7:[f430<0.871375442] yes=15,no=16,missing=15
				15:leaf=-0.0135056991
				16:leaf=-0.00817828812
			8:[f6214<0.0452145562] yes=17,no=18,missing=17
				17:leaf=0.000313186902
				18:leaf=-0.00716719264
		4:[f420<0.0894688666] yes=9,no=10,missing=9
			9:[f5247<2.21775579] yes=19,no=20,missing=19
				19:leaf=-0.00913114008
				20:leaf=-0.00074157468
			10:[f3592<7.11470509] yes=21,no=22,missing=21
				21:leaf=-0.00313207554
				22:leaf=0.00358780054
	2:[f7271<2.57475519] yes=5,no=6,missing=5
		5:[f430<1.06208873] yes=11,no=12,missing=11
			11:[f1243<15.1557198] yes=23,no=24,missing=23
				23:leaf=-0.00108338683
				24:leaf=0.00442179712
			12:[f9253<0.168530256] yes=25,no=26,missing=25
				25:leaf=0.00147776923
				26:leaf=0.00761475321
		6:[f6127<0.28128767] yes=13,no=14,missing=13
			13:[f8906<2.95625687] yes=27,no=28,missing=27
				27:leaf=0.00599010382
				28:leaf=-0.00169935904
			14:[f430<0.847892046] yes=29,no=30,missing=29
				29:leaf=0.00736902002
				30:leaf=0.0130770942
booster[19]:
0:[f7271<1.26856148] yes=1,no=2,missing=1
	1:[f222<2.38425565] yes=3,no=4,missing=3
		3:[f5247<1.9554081] yes=7,no=8,missing=7
			7:[f9253<0.104930893] yes=15,no=16,missing=15
				15:leaf=-0.0134987962
				16:leaf=-0.00913790707
			8:[f3209<2.37034035] yes=17,no=18,missing=17
				17:leaf=0.00215147599
				18:leaf=-0.00496359169
		4:[f9253<0.0942140445] yes=9,no=10,missing=9
			9:[f222<3.49350286] yes=19,no=20,missing=19
				19:leaf=-0.00866621826
				20:leaf=-0.000689054548
			10:[f1198<7.01813745] yes=21,no=22,missing=21
				21:leaf=-0.00556552596
				22:leaf=0.000590783544
	2:[f7271<2.34307218] yes=5,no=6,missing=5
		5:[f222<2.49309826] yes=11,no=12,missing=11
			11:[f9236<0.493454337] yes=23,no=24,missing=23
				23:leaf=-0.00276226434
				24:leaf=0.0029918747
			12:[f9253<0.174071684] yes=25,no=26,missing=25
				25:leaf=-0.000139046126
				26:leaf=0.00549380342
		6:[f9273<2.11209202] yes=13,no=14,missing=13
			13:[f430<1.16623092] yes=27,no=28,missing=27
				27:leaf=0.00534833129
				28:leaf=0.0108779818
			14:[f436<0.105897568] yes=29,no=30,missing=29
				29:leaf=0.00277413917
				30:leaf=0.0135238385
booster[20]:
0:[f7271<1.26856148] yes=1,no=2,missing=1
	1:[f222<2.09093952] yes=3,no=4,missing=3
		3:[f2824<2.48174381] yes=7,no=8,missing=7
			7:[f9236<0.214692011] yes=15,no=16,missing=15
				15:leaf=-0.0131210061
				16:leaf=-0.00651087053
			8:[f2375<0.0445448011] yes=17,no=18,missing=17
				17:leaf=0.00188142247
				18:leaf=-0.00627632486
		4:[f9253<0.0948628336] yes=9,no=10,missing=9
			9:[f5247<2.20540571] yes=19,no=20,missing=19
				19:leaf=-0.0098783616
				20:leaf=-0.00145695382
			10:[f1198<5.88544178] yes=21,no=22,missing=21
				21:leaf=-0.00846605562
				22:leaf=-0.00129530975
	2:[f7271<2.34307218] yes=5,no=6,missing=5
		5:[f222<2.8574419] yes=11,no=12,missing=11
			11:[f3245<8.85386848] yes=23,no=24,missing=23
				23:leaf=-0.00184801337
				24:leaf=0.00390030351
			12:[f6764<0.109167159] yes=25,no=26,missing=25
				25:leaf=0.00687398668
				26:leaf=0.000599652354
		6:[f9273<2.11209202] yes=13,no=14,missing=13
			13:[f430<0.911130428] yes=27,no=28,missing=27
				27:leaf=0.00402412564
				28:leaf=0.00945608504
			14:[f416<0.0152330184] yes=29,no=30,missing=29
				29:leaf=0.00152753585
				30:leaf=0.0133510185
booster[21]:
0:[f7271<1.41178036] yes=1,no=2,missing=1
	1:[f7251<0.220486939] yes=3,no=4,missing=3
		3:[f5247<1.57369494] yes=7,no=8,missing=7
			7:[f430<0.871375442] yes=15,no=16,missing=15
				15:leaf=-0.0133266794
				16:leaf=-0.00796059985
			8:[f3245<7.37546062] yes=17,no=18,missing=17
				17:leaf=-0.00699097663
				18:leaf=-0.000552433892
		4:[f222<2.49381542] yes=9,no=10,missing=9
			9:[f3245<5.0664711] yes=19,no=20,missing=19
				19:leaf=-0.00837633759
				20:leaf=-0.000568295829
			10:[f4488<0.0857589245] yes=21,no=22,missing=21
				21:leaf=0.00168839318
				22:leaf=-0.00463091675
	2:[f9273<1.7761898] yes=5,no=6,missing=5
		5:[f222<3.04858828] yes=11,no=12,missing=11
			11:[f3245<8.87570572] yes=23,no=24,missing=23
				23:leaf=-6.3183943e-05
				24:leaf=0.00504313456
			12:[f9253<0.173945338] yes=25,no=26,missing=25
				25:leaf=0.00128053175
				26:leaf=0.00869232416
		6:[f2123<1.08282542] yes=13,no=14,missing=13
			13:[f9077<3.87072754] yes=27,no=28,missing=27
				27:leaf=0.00666919677
				28:leaf=-0.00170025416
			14:[f8444<0.00611519301] yes=29,no=30,missing=29
				29:leaf=0.00198243535
				30:leaf=0.0131083783
booster[22]:
0:[f7271<1.26856148] yes=1,no=2,missing=1
	1:[f222<2.09093952] yes=3,no=4,missing=3
		3:[f2824<2.48174381] yes=7,no=8,missing=7
			7:[f9236<0.214692011] yes=15,no=16,missing=15
				15:leaf=-0.0129184909
				16:leaf=-0.00637139194
			8:[f2375<0.0445448011] yes=17,no=18,missing=17
				17:leaf=0.00189850421
				18:leaf=-0.00617037294
		4:[f3917<0.560845256] yes=9,no=10,missing=9
			9:[f430<1.1218996] yes=19,no=20,missing=19
				19:leaf=-0.00843802094
				20:leaf=-0.00135128084
			10:[f4752<0.074519299] yes=21,no=22,missing=21
				21:leaf=0.00299523654
				22:leaf=-0.0031676793
	2:[f7271<2.34307218] yes=5,no=6,missing=5
		5:[f222<2.49309826] yes=11,no=12,missing=11
			11:[f9236<0.493454337] yes=23,no=24,missing=23
				23:leaf=-0.00272045867
				24:leaf=0.00298550352
			12:[f4660<0.05049932] yes=25,no=26,missing=25
				25:leaf=0.00557156093
				26:leaf=0.000324856519
		6:[f430<1.11811137] yes=13,no=14,missing=13
			13:[f9273<1.87301111] yes=27,no=28,missing=27
				27:leaf=0.00432141731
				28:leaf=0.00978143513
			14:[f5663<6.36536741] yes=29,no=30,missing=29
				29:leaf=0.0129725551
				30:leaf=-0.00118486315
booster[23]:
0:[f7271<1.41255128] yes=1,no=2,missing=1
	1:[f7251<0.220486939] yes=3,no=4,missing=3
		3:[f5247<1.57369494] yes=7,no=8,missing=7
			7:[f429<0.234313041] yes=15,no=16,missing=15
				15:leaf=-0.0131055778
				16:leaf=-0.00772513216
			8:[f3245<7.37546062] yes=17,no=18,missing=17
				17:leaf=-0.0068768179
				18:leaf=-0.000528991106
		4:[f222<2.49381542] yes=9,no=10,missing=9
			9:[f3245<4.93740797] yes=19,no=20,missing=19
				19:leaf=-0.00825329125
				20:leaf=-0.000701546494
			10:[f4488<0.0857589245] yes=21,no=22,missing=21
				21:leaf=0.00168518256
				22:leaf=-0.00454555731
	2:[f7271<2.9511714] yes=5,no=6,missing=5
		5:[f430<1.11703789] yes=11,no=12,missing=11
			11:[f6879<0.248817116] yes=23,no=24,missing=23
				23:leaf=0.00533472095
				24:leaf=-0.000277950923
			12:[f9253<0.141785949] yes=25,no=26,missing=25
				25:leaf=0.000387513137
				26:leaf=0.00801545009
		6:[f8215<0.0322737172] yes=13,no=14,missing=13
			13:[f3603<11.6329079] yes=27,no=28,missing=27
				27:leaf=0.000194330249
				28:leaf=0.00739163719
			14:[f416<0.0152330184] yes=29,no=30,missing=29
				29:leaf=0.00147590938
				30:leaf=0.0128465723
booster[24]:
0:[f7271<1.26856148] yes=1,no=2,missing=1
	1:[f222<2.09093952] yes=3,no=4,missing=3
		3:[f2824<2.48174381] yes=7,no=8,missing=7
			7:[f9236<0.214692011] yes=15,no=16,missing=15
				15:leaf=-0.0127226589
				16:leaf=-0.00623501465
			8:[f1243<14.5190964] yes=17,no=18,missing=17
				17:leaf=-0.00645427592
				18:leaf=0.000482891774
		4:[f9253<0.0948628336] yes=9,no=10,missing=9
			9:[f5247<2.20540571] yes=19,no=20,missing=19
				19:leaf=-0.00957314763
				20:leaf=-0.00136775768
			10:[f1198<7.532444] yes=21,no=22,missing=21
				21:leaf=-0.00584070478
				22:leaf=8.44138631e-05
	2:[f7271<2.15807319] yes=5,no=6,missing=5
		5:[f222<2.8616538] yes=11,no=12,missing=11
			11:[f1243<15.044878] yes=23,no=24,missing=23
				23:leaf=-0.00231453404
				24:leaf=0.00298768003
			12:[f6764<0.107851364] yes=25,no=26,missing=25
				25:leaf=0.00638314709
				26:leaf=-1.71016109e-05
		6:[f9261<1.42082393] yes=13,no=14,missing=13
			13:[f222<3.048913] yes=27,no=28,missing=27
				27:leaf=0.00423224969
				28:leaf=0.00945646781
			14:[f4219<0.237977251] yes=29,no=30,missing=29
				29:leaf=0.00181950128
				30:leaf=0.0127846273
booster[25]:
0:[f7271<1.41300845] yes=1,no=2,missing=1
	1:[f5249<0.446062267] yes=3,no=4,missing=3
		3:[f3917<0.416724741] yes=7,no=8,missing=7
			7:[f8712<0.0451988727] yes=15,no=16,missing=15
				15:leaf=-0.0123500535
				16:leaf=0.00159887341
			8:[f4227<0.0371398404] yes=17,no=18,missing=17
				17:leaf=-0.000825702678
				18:leaf=-0.007445361
		4:[f420<0.0894688666] yes=9,no=10,missing=9
			9:[f5247<2.21775579] yes=19,no=20,missing=19
				19:leaf=-0.0085893888
				20:leaf=-0.000584157009
			10:[f430<1.19288921] yes=21,no=22,missing=21
				21:leaf=-0.00307860575
				22:leaf=0.00310521689
	2:[f9273<1.7761898] yes=5,no=6,missing=5
		5:[f430<1.11703789] yes=11,no=12,missing=11
			11:[f3245<8.87570572] yes=23,no=24,missing=23
				23:leaf=-0.000490848557
				24:leaf=0.00521026319
			12:[f1198<8.30721283] yes=25,no=26,missing=25
				25:leaf=0.000333089789
				26:leaf=0.00812172983
		6:[f210<0.278913647] yes=13,no=14,missing=13
			13:[f8388<0.0125803202] yes=27,no=28,missing=27
				27:leaf=-7.84112563e-05
				28:leaf=0.00740833441
			14:[f1298<3.04313731] yes=29,no=30,missing=29
				29:leaf=0.000701205048
				30:leaf=0.0128602637
booster[26]:
0:[f7271<1.23988056] yes=1,no=2,missing=1
	1:[f222<2.07678032] yes=3,no=4,missing=3
		3:[f3245<3.94906068] yes=7,no=8,missing=7
			7:[f9295<0.292728782] yes=15,no=16,missing=15
				15:leaf=-0.0124106389
				16:leaf=-0.00266833091
			8:[f2360<0.0076164864] yes=17,no=18,missing=17
				17:leaf=0.00223795138
				18:leaf=-0.00672682049
		4:[f3592<5.71735954] yes=9,no=10,missing=9
			9:[f430<1.19095278] yes=19,no=20,missing=19
				19:leaf=-0.00813030265
				20:leaf=-0.000595730147
			10:[f2315<0.0784416199] yes=21,no=22,missing=21
				21:leaf=0.00223036623
				22:leaf=-0.00550586451
	2:[f7271<2.15807319] yes=5,no=6,missing=5
		5:[f222<2.49309826] yes=11,no=12,missing=11
			11:[f9236<0.449414432] yes=23,no=24,missing=23
				23:leaf=-0.00315395161
				24:leaf=0.00231170515
			12:[f4675<0.0245573595] yes=25,no=26,missing=25
				25:leaf=0.00502464082
				26:leaf=-0.000233751547
		6:[f9261<1.42082393] yes=13,no=14,missing=13
			13:[f222<3.048913] yes=27,no=28,missing=27
				27:leaf=0.00415596692
				28:leaf=0.00930940825
			14:[f4219<0.237977251] yes=29,no=30,missing=29
				29:leaf=0.0017690094
				30:leaf=0.012596258
booster[27]:
0:[f7271<1.26856148] yes=1,no=2,missing=1
	1:[f5249<0.405116618] yes=3,no=4,missing=3
		3:[f8712<0.0503140241] yes=7,no=8,missing=7
			7:[f3917<0.409263343] yes=15,no=16,missing=15
				15:leaf=-0.0125366924
				16:leaf=-0.00686540129
			8:[f6661<0.00924434885] yes=17,no=18,missing=17
				17:leaf=0.00671421038
				18:leaf=-0.00411636103
		4:[f430<1.02717876] yes=9,no=10,missing=9
			9:[f3245<6.13056612] yes=19,no=20,missing=19
				19:leaf=-0.00847090501
				20:leaf=0.00114134641
			10:[f604<0.277529955] yes=21,no=22,missing=21
				21:leaf=0.00308022159
				22:leaf=-0.00387797458
	2:[f7271<2.34307218] yes=5,no=6,missing=5
		5:[f222<2.8574419] yes=11,no=12,missing=11
			11:[f1243<15.044878] yes=23,no=24,missing=23
				23:leaf=-0.00193127734
				24:leaf=0.00322917383
			12:[f6764<0.109167159] yes=25,no=26,missing=25
				25:leaf=0.00653428258
				26:leaf=0.000461477583
		6:[f430<1.14955342] yes=13,no=14,missing=13
			13:[f9273<1.87301111] yes=27,no=28,missing=27
				27:leaf=0.00424282113
				28:leaf=0.00948536675
			14:[f7665<4.01452255] yes=29,no=30,missing=29
				29:leaf=0.0126565704
				30:leaf=-0.0012296621
booster[28]:
0:[f7271<1.23988056] yes=1,no=2,missing=1
	1:[f222<2.05522323] yes=3,no=4,missing=3
		3:[f3245<3.55714011] yes=7,no=8,missing=7
			7:[f9236<0.215738446] yes=15,no=16,missing=15
				15:leaf=-0.0126535054
				16:leaf=-0.00624795305
			8:[f4362<0.00318473438] yes=17,no=18,missing=17
				17:leaf=0.000312905555
				18:leaf=-0.0076941126
		4:[f3592<5.72200537] yes=9,no=10,missing=9
			9:[f430<1.19095278] yes=19,no=20,missing=19
				19:leaf=-0.00803224463
				20:leaf=-0.000573428173
			10:[f2315<0.0784416199] yes=21,no=22,missing=21
				21:leaf=0.00220693508
				22:leaf=-0.00548349088
	2:[f7271<2.15807319] yes=5,no=6,missing=5
		5:[f222<2.49309826] yes=11,no=12,missing=11
			11:[f9236<0.449414432] yes=23,no=24,missing=23
				23:leaf=-0.00311347959
				24:leaf=0.00230867905
			12:[f4675<0.0245573595] yes=25,no=26,missing=25
				25:leaf=0.00494536711
				26:leaf=-0.000245998788
		6:[f9261<1.42082393] yes=13,no=14,missing=13
			13:[f222<3.048913] yes=27,no=28,missing=27
				27:leaf=0.00407443522
				28:leaf=0.00915285479
			14:[f4219<0.237977251] yes=29,no=30,missing=29
				29:leaf=0.00170954666
				30:leaf=0.0124160796
booster[29]:
0:[f7271<1.41264009] yes=1,no=2,missing=1
	1:[f7251<0.207278609] yes=3,no=4,missing=3
		3:[f5247<1.71202421] yes=7,no=8,missing=7
			7:[f429<0.234313041] yes=15,no=16,missing=15
				15:leaf=-0.0125942491
				16:leaf=-0.007481704
			8:[f3245<7.38828564] yes=17,no=18,missing=17
				17:leaf=-0.00647045998
				18:leaf=-0.000471732114
		4:[f222<2.49165773] yes=9,no=10,missing=9
			9:[f3245<4.8747015] yes=19,no=20,missing=19
				19:leaf=-0.00807571132
				20:leaf=-0.000776083383
			10:[f4362<0.00606104545] yes=21,no=22,missing=21
				21:leaf=0.00184406457
				22:leaf=-0.00365356053
	2:[f7271<2.9511714] yes=5,no=6,missing=5
		5:[f430<1.11703789] yes=11,no=12,missing=11
			11:[f6879<0.248817116] yes=23,no=24,missing=23
				23:leaf=0.0051613003
				24:leaf=-0.000333551579
			12:[f9253<0.141785949] yes=25,no=26,missing=25
				25:leaf=0.000291565579
				26:leaf=0.0076607638
		6:[f8215<0.0322737172] yes=13,no=14,missing=13
			13:[f3603<11.6329079] yes=27,no=28,missing=27
				27:leaf=5.50733603e-07
				28:leaf=0.00700074062
			14:[f416<0.0152330184] yes=29,no=30,missing=29
				29:leaf=0.00127573207
				30:leaf=0.0123136826
booster[30]:
0:[f7271<1.23988056] yes=1,no=2,missing=1
	1:[f222<2.05522323] yes=3,no=4,missing=3
		3:[f3245<3.55714011] yes=7,no=8,missing=7
			7:[f9236<0.215738446] yes=15,no=16,missing=15
				15:leaf=-0.0124722468
				16:leaf=-0.00611821096
			8:[f4362<0.00318473438] yes=17,no=18,missing=17
				17:leaf=0.000353575073
				18:leaf=-0.00756963948
		4:[f9253<0.103488564] yes=9,no=10,missing=9
			9:[f5247<1.87362623] yes=19,no=20,missing=19
				19:leaf=-0.00917160884
				20:leaf=-0.00181427621
			10:[f1198<7.59525728] yes=21,no=22,missing=21
				21:leaf=-0.00534433546
				22:leaf=0.000552168873
	2:[f7271<2.15807319] yes=5,no=6,missing=5
		5:[f222<2.49309826] yes=11,no=12,missing=11
			11:[f9236<0.449414432] yes=23,no=24,missing=23
				23:leaf=-0.00307017146
				24:leaf=0.00229333248
			12:[f4675<0.0245573595] yes=25,no=26,missing=25
				25:leaf=0.00486583076
				26:leaf=-0.000258613582
		6:[f9261<1.42082393] yes=13,no=14,missing=13
			13:[f222<3.048913] yes=27,no=28,missing=27
				27:leaf=0.00400053198
				28:leaf=0.00901097897
			14:[f4219<0.237977251] yes=29,no=30,missing=29
				29:leaf=0.00166736299
				30:leaf=0.0122425351
booster[31]:
0:[f7271<1.53343177] yes=1,no=2,missing=1
	1:[f7251<0.245125666] yes=3,no=4,missing=3
		3:[f5247<1.71202421] yes=7,no=8,missing=7
			7:[f430<0.871375442] yes=15,no=16,missing=15
				15:leaf=-0.0121520692
				16:leaf=-0.00673734164
			8:[f3245<7.37546062] yes=17,no=18,missing=17
				17:leaf=-0.00585737266
				18:leaf=-0.000118328928
		4:[f222<2.75136518] yes=9,no=10,missing=9
			9:[f3245<5.3101263] yes=19,no=20,missing=19
				19:leaf=-0.00657748617
				20:leaf=0.000866872375
			10:[f2672<0.629990637] yes=21,no=22,missing=21
				21:leaf=0.00423860177
				22:leaf=-0.00336784334
	2:[f9273<1.84026408] yes=5,no=6,missing=5
		5:[f430<1.11703789] yes=11,no=12,missing=11
			11:[f8756<0.0139779244] yes=23,no=24,missing=23
				23:leaf=0.00560735585
				24:leaf=0.000131338311
			12:[f1198<8.99339008] yes=25,no=26,missing=25
				25:leaf=0.00173243415
				26:leaf=0.00841295999
		6:[f210<0.278913647] yes=13,no=14,missing=13
			13:[f7983<0.877694368] yes=27,no=28,missing=27
				27:leaf=0.00715332059
				28:leaf=-0.00103578309
			14:[f5663<6.72128201] yes=29,no=30,missing=29
				29:leaf=0.0124196308
				30:leaf=-0.00121737481
booster[32]:
0:[f7271<1.23988056] yes=1,no=2,missing=1
	1:[f3917<0.446613312] yes=3,no=4,missing=3
		3:[f430<0.931815505] yes=7,no=8,missing=7
			7:[f9234<0.122557037] yes=15,no=16,missing=15
				15:leaf=-0.0119967712
				16:leaf=-0.0075064199
			8:[f9253<0.110299885] yes=17,no=18,missing=17
				17:leaf=-0.00663895393
				18:leaf=-0.000547055504
		4:[f2315<0.075556837] yes=9,no=10,missing=9
			9:[f1590<14.5335379] yes=19,no=20,missing=19
				19:leaf=-0.00194866059
				20:leaf=0.00418848498
			10:[f5159<5.70751476] yes=21,no=22,missing=21
				21:leaf=-0.0078488728
				22:leaf=-0.00114865671
	2:[f7271<2.15807319] yes=5,no=6,missing=5
		5:[f222<2.8616538] yes=11,no=12,missing=11
			11:[f1243<15.7899723] yes=23,no=24,missing=23
				23:leaf=-0.00222323299
				24:leaf=0.00313928258
			12:[f6764<0.109346822] yes=25,no=26,missing=25
				25:leaf=0.00593893509
				26:leaf=-0.000435763854
		6:[f9261<1.42082393] yes=13,no=14,missing=13
			13:[f222<3.048913] yes=27,no=28,missing=27
				27:leaf=0.00392821571
				28:leaf=0.00887179375
			14:[f4219<0.237977251] yes=29,no=30,missing=29
				29:leaf=0.00162393472
				30:leaf=0.0120696193
booster[33]:
0:[f7271<1.23988056] yes=1,no=2,missing=1
	1:[f222<2.05425119] yes=3,no=4,missing=3
		3:[f2824<2.48174381] yes=7,no=8,missing=7
			7:[f9236<0.186855003] yes=15,no=16,missing=15
				15:leaf=-0.0121789742
				16:leaf=-0.00675277645
			8:[f1780<1.76560307] yes=17,no=18,missing=17
				17:leaf=0.0007162533
				18:leaf=-0.00611273525
		4:[f3592<5.72200537] yes=9,no=10,missing=9
			9:[f430<1.19095278] yes=19,no=20,missing=19
				19:leaf=-0.00771528482
				20:leaf=-0.00042195982
			10:[f2315<0.0784416199] yes=21,no=22,missing=21
				21:leaf=0.00224937638
				22:leaf=-0.00527695892
	2:[f7271<2.15807319] yes=5,no=6,missing=5
		5:[f222<2.38110733] yes=11,no=12,missing=11
			11:[f9236<0.449414432] yes=23,no=24,missing=23
				23:leaf=-0.00342663936
				24:leaf=0.00199049944
			12:[f4660<0.0504879542] yes=25,no=26,missing=25
				25:leaf=0.00448528118
				26:leaf=-0.000892530195
		6:[f9273<2.11209202] yes=13,no=14,missing=13
			13:[f430<1.09135771] yes=27,no=28,missing=27
				27:leaf=0.00413823081
				28:leaf=0.00920395274
			14:[f1226<3.12680387] yes=29,no=30,missing=29
				29:leaf=0.00127583474
				30:leaf=0.0122097088
booster[34]:
0:[f7271<1.53343177] yes=1,no=2,missing=1
	1:[f7251<0.245125666] yes=3,no=4,missing=3
		3:[f5247<1.71202421] yes=7,no=8,missing=7
			7:[f430<0.871375442] yes=15,no=16,missing=15
				15:leaf=-0.0118983015
				16:leaf=-0.00657041185
			8:[f3245<7.37546062] yes=17,no=18,missing=17
				17:leaf=-0.00570096262
				18:leaf=-7.19054224e-05
		4:[f222<2.61773491] yes=9,no=10,missing=9
			9:[f3245<5.3101263] yes=19,no=20,missing=19
				19:leaf=-0.00663001463
				20:leaf=0.000776951667
			10:[f484<1.13176107] yes=21,no=22,missing=21
				21:leaf=0.00293340837
				22:leaf=-0.00433284137
	2:[f9273<1.84026408] yes=5,no=6,missing=5
		5:[f430<1.11703789] yes=11,no=12,missing=11
			11:[f8756<0.0139779244] yes=23,no=24,missing=23
				23:leaf=0.00550910318
				24:leaf=0.00010026135
			12:[f1198<8.99339008] yes=25,no=26,missing=25
				25:leaf=0.00165632484
				26:leaf=0.00823503081
		6:[f210<0.278913647] yes=13,no=14,missing=13
			13:[f9006<0.0611248165] yes=27,no=28,missing=27
				27:leaf=-5.45961739e-05
				28:leaf=0.00718515133
			14:[f5663<6.72128201] yes=29,no=30,missing=29
				29:leaf=0.0121671828
				30:leaf=-0.00124088512
booster[35]:
0:[f7271<1.23988056] yes=1,no=2,missing=1
	1:[f222<2.05425119] yes=3,no=4,missing=3
		3:[f3245<3.55714011] yes=7,no=8,missing=7
			7:[f9295<0.292728782] yes=15,no=16,missing=15
				15:leaf=-0.0118043013
				16:leaf=-0.00226697186
			8:[f4362<0.00318473438] yes=17,no=18,missing=17
				17:leaf=0.000476793939
				18:leaf=-0.00726681203
		4:[f9253<0.0948628336] yes=9,no=10,missing=9
			9:[f3245<6.22025013] yes=19,no=20,missing=19
				19:leaf=-0.00895095896
				20:leaf=-0.000657066994
			10:[f1198<5.91641617] yes=21,no=22,missing=21
				21:leaf=-0.007551549
				22:leaf=-0.00099132699
	2:[f7271<2.15818024] yes=5,no=6,missing=5
		5:[f222<2.8616538] yes=11,no=12,missing=11
			11:[f1243<15.7899723] yes=23,no=24,missing=23
				23:leaf=-0.00218445458
				24:leaf=0.00310571655
			12:[f6764<0.109157503] yes=25,no=26,missing=25
				25:leaf=0.0058151898
				26:leaf=-0.000444538804
		6:[f9261<1.42082393] yes=13,no=14,missing=13
			13:[f222<3.048913] yes=27,no=28,missing=27
				27:leaf=0.00380740152
				28:leaf=0.00867420342
			14:[f4219<0.237977251] yes=29,no=30,missing=29
				29:leaf=0.0015278674
				30:leaf=0.0118225273
booster[36]:
0:[f7271<1.53343177] yes=1,no=2,missing=1
	1:[f7251<0.245125666] yes=3,no=4,missing=3
		3:[f5247<1.48478746] yes=7,no=8,missing=7
			7:[f430<0.859067917] yes=15,no=16,missing=15
				15:leaf=-0.0119116278
				16:leaf=-0.006747826
			8:[f3245<7.37546062] yes=17,no=18,missing=17
				17:leaf=-0.00620650407
				18:leaf=-9.06621935e-05
		4:[f222<2.75136518] yes=9,no=10,missing=9
			9:[f3245<6.13093996] yes=19,no=20,missing=19
				19:leaf=-0.00610712683
				20:leaf=0.0018538601
			10:[f2672<0.629990637] yes=21,no=22,missing=21
				21:leaf=0.0041622757
				22:leaf=-0.00329214055
	2:[f9273<1.84026408] yes=5,no=6,missing=5
		5:[f430<1.11703789] yes=11,no=12,missing=11
			11:[f8756<0.0139779244] yes=23,no=24,missing=23
				23:leaf=0.00543646701
				24:leaf=8.41875735e-05
			12:[f1198<8.99339008] yes=25,no=26,missing=25
				25:leaf=0.00161425071
				26:leaf=0.00811369251
		6:[f210<0.278913647] yes=13,no=14,missing=13
			13:[f7983<0.877694368] yes=27,no=28,missing=27
				27:leaf=0.00684692292
				28:leaf=-0.00113855954
			14:[f5663<6.72128201] yes=29,no=30,missing=29
				29:leaf=0.0120015712
				30:leaf=-0.00125178869
booster[37]:
0:[f7271<1.23988056] yes=1,no=2,missing=1
	1:[f3917<0.446257114] yes=3,no=4,missing=3
		3:[f430<0.931815505] yes=7,no=8,missing=7
			7:[f9234<0.122557037] yes=15,no=16,missing=15
				15:leaf=-0.0115923928
				16:leaf=-0.00717055844
			8:[f9253<0.110299885] yes=17,no=18,missing=17
				17:leaf=-0.00636737142
				18:leaf=-0.000456484471
		4:[f2315<0.075556837] yes=9,no=10,missing=9
			9:[f1590<14.5335379] yes=19,no=20,missing=19
				19:leaf=-0.00177759246
				20:leaf=0.0041899397
			10:[f5159<5.70751476] yes=21,no=22,missing=21
				21:leaf=-0.0075619095
				22:leaf=-0.00103176781
	2:[f7271<2.15818024] yes=5,no=6,missing=5
		5:[f222<2.38110733] yes=11,no=12,missing=11
			11:[f9236<0.449414432] yes=23,no=24,missing=23
				23:leaf=-0.00334633095
				24:leaf=0.00200490281
			12:[f4660<0.0504879542] yes=25,no=26,missing=25
				25:leaf=0.00436886773
				26:leaf=-0.000913389958
		6:[f9273<2.23935318] yes=13,no=14,missing=13
			13:[f430<1.09135771] yes=27,no=28,missing=27
				27:leaf=0.00412589312
				28:leaf=0.0091178501
			14:[f436<0.105897568] yes=29,no=30,missing=29
				29:leaf=0.00173306488
				30:leaf=0.0121921152
booster[38]:
0:[f7271<1.53343177] yes=1,no=2,missing=1
	1:[f7251<0.220486939] yes=3,no=4,missing=3
		3:[f5247<1.52859211] yes=7,no=8,missing=7
			7:[f430<0.859067917] yes=15,no=16,missing=15
				15:leaf=-0.0118878111
				16:leaf=-0.00701329531
			8:[f3245<7.37546062] yes=17,no=18,missing=17
				17:leaf=-0.00617003301
				18:leaf=-0.00040413774
		4:[f222<2.4930954] yes=9,no=10,missing=9
			9:[f3245<6.25470734] yes=19,no=20,missing=19
				19:leaf=-0.00678799627
				20:leaf=0.00111132348
			10:[f2672<0.629990637] yes=21,no=22,missing=21
				21:leaf=0.00199107314
				22:leaf=-0.00405862974
	2:[f7271<3.00086808] yes=5,no=6,missing=5
		5:[f430<1.11703789] yes=11,no=12,missing=11
			11:[f8756<0.0142042264] yes=23,no=24,missing=23
				23:leaf=0.00520754093
				24:leaf=0.00018063176
			12:[f1198<8.33017159] yes=25,no=26,missing=25
				25:leaf=0.00121558225
				26:leaf=0.00763364835
		6:[f8215<0.0322737172] yes=13,no=14,missing=13
			13:[f1601<23.002964] yes=27,no=28,missing=27
				27:leaf=0.000422036275
				28:leaf=0.00670640683
			14:[f7231<3.73413181] yes=29,no=30,missing=29
				29:leaf=-0.00051678234
				30:leaf=0.0116317635
booster[39]:
0:[f7271<1.23988056] yes=1,no=2,missing=1
	1:[f222<2.05425119] yes=3,no=4,missing=3
		3:[f3245<3.55714011] yes=7,no=8,missing=7
			7:[f9295<0.292728782] yes=15,no=16,missing=15
				15:leaf=-0.0114905415
				16:leaf=-0.00207912526
			8:[f2360<0.0076164864] yes=17,no=18,missing=17
				17:leaf=0.0021842774
				18:leaf=-0.00674241176
		4:[f3592<5.72200537] yes=9,no=10,missing=9
			9:[f430<1.19095278] yes=19,no=20,missing=19
				19:leaf=-0.00735506881
				20:leaf=-0.000262688729
			10:[f2315<0.0784416199] yes=21,no=22,missing=21
				21:leaf=0.00232926896
				22:leaf=-0.00506011164
	2:[f7271<2.34307218] yes=5,no=6,missing=5
		5:[f222<2.49309826] yes=11,no=12,missing=11
			11:[f8129<0.1152962] yes=23,no=24,missing=23
				23:leaf=-0.00417431211
				24:leaf=0.000306271948
			12:[f9253<0.174285576] yes=25,no=26,missing=25
				25:leaf=-0.000420387747
				26:leaf=0.00474589225
		6:[f9214<2.38149071] yes=13,no=14,missing=13
			13:[f221<1.38532495] yes=27,no=28,missing=27
				27:leaf=0.00478502968
				28:leaf=0.0098049473
			14:[f8198<0.00477371877] yes=29,no=30,missing=29
				29:leaf=-0.00127759634
				30:leaf=0.0124218883
booster[40]:
0:[f7271<1.23988056] yes=1,no=2,missing=1
	1:[f222<2.05416775] yes=3,no=4,missing=3
		3:[f2824<2.48174381] yes=7,no=8,missing=7
			7:[f9236<0.186855003] yes=15,no=16,missing=15
				15:leaf=-0.0116223777
				16:leaf=-0.00627301494
			8:[f914<1.54811788] yes=17,no=18,missing=17
				17:leaf=0.00173623185
				18:leaf=-0.00551692536
		4:[f9253<0.0948628336] yes=9,no=10,missing=9
			9:[f5247<1.78287435] yes=19,no=20,missing=19
				19:leaf=-0.00887761638
				20:leaf=-0.00222226651
			10:[f1198<5.91641617] yes=21,no=22,missing=21
				21:leaf=-0.00727480464
				22:leaf=-0.000850878539
	2:[f7271<2.12329412] yes=5,no=6,missing=5
		5:[f222<2.8616538] yes=11,no=12,missing=11
			11:[f1243<14.9975071] yes=23,no=24,missing=23
				23:leaf=-0.00229436369
				24:leaf=0.00273718988
			12:[f6764<0.107851364] yes=25,no=26,missing=25
				25:leaf=0.00559509546
				26:leaf=-0.000629045418
		6:[f9261<1.42082393] yes=13,no=14,missing=13
			13:[f8756<0.0163940266] yes=27,no=28,missing=27
				27:leaf=0.00799610838
				28:leaf=0.00325037632
			14:[f4219<0.237977251] yes=29,no=30,missing=29
				29:leaf=0.0014233829
				30:leaf=0.0114398152
booster[41]:
0:[f7271<1.53343177] yes=1,no=2,missing=1
	1:[f7251<0.220486939] yes=3,no=4,missing=3
		3:[f5247<1.52179468] yes=7,no=8,missing=7
			7:[f430<0.859067917] yes=15,no=16,missing=15
				15:leaf=-0.0116656972
				16:leaf=-0.00683353189
			8:[f3245<7.37546062] yes=17,no=18,missing=17
				17:leaf=-0.00603762735
				18:leaf=-0.00035439356
		4:[f222<2.4930954] yes=9,no=10,missing=9
			9:[f3245<5.42267609] yes=19,no=20,missing=19
				19:leaf=-0.00678362697
				20:leaf=0.000141963115
			10:[f2672<0.629990637] yes=21,no=22,missing=21
				21:leaf=0.00198798627
				22:leaf=-0.00399547396
	2:[f9261<1.42082393] yes=5,no=6,missing=5
		5:[f222<3.04858828] yes=11,no=12,missing=11
			11:[f9251<1.14823365] yes=23,no=24,missing=23
				23:leaf=0.000395511335
				24:leaf=0.00569543522
			12:[f8129<0.0872375518] yes=25,no=26,missing=25
				25:leaf=0.00205256185
				26:leaf=0.00804756954
		6:[f4219<0.237578779] yes=13,no=14,missing=13
			13:[f7818<2.76080871] yes=27,no=28,missing=27
				27:leaf=0.00363612548
				28:leaf=-0.00231304648
			14:[f2519<0.00335514103] yes=29,no=30,missing=29
				29:leaf=0.00153813732
				30:leaf=0.011610915
booster[42]:
0:[f7271<1.23988056] yes=1,no=2,missing=1
	1:[f3917<0.446257114] yes=3,no=4,missing=3
		3:[f430<0.931815505] yes=7,no=8,missing=7
			7:[f9234<0.122557037] yes=15,no=16,missing=15
				15:leaf=-0.0112140244
				16:leaf=-0.00685006566
			8:[f9253<0.110299885] yes=17,no=18,missing=17
				17:leaf=-0.0061032353
				18:leaf=-0.000371204049
		4:[f2315<0.075556837] yes=9,no=10,missing=9
			9:[f1590<14.5335379] yes=19,no=20,missing=19
				19:leaf=-0.00161596679
				20:leaf=0.00418866379
			10:[f5159<5.70751476] yes=21,no=22,missing=21
				21:leaf=-0.00729651842
				22:leaf=-0.000916291203
	2:[f7271<2.34307218] yes=5,no=6,missing=5
		5:[f430<1.04166031] yes=11,no=12,missing=11
			11:[f6879<0.264311254] yes=23,no=24,missing=23
				23:leaf=0.00322258426
				24:leaf=-0.00238589454
			12:[f8500<0.0523624048] yes=25,no=26,missing=25
				25:leaf=0.00203261944
				26:leaf=0.00665058428
		6:[f430<1.15221667] yes=13,no=14,missing=13
			13:[f8136<0.00303202216] yes=27,no=28,missing=27
				27:leaf=0.00145077682
				28:leaf=0.007326636
			14:[f5663<6.36536741] yes=29,no=30,missing=29
				29:leaf=0.0115040047
				30:leaf=-0.00134596275
booster[43]:
0:[f5269<2.70944262] yes=1,no=2,missing=1
	1:[f7251<0.196578354] yes=3,no=4,missing=3
		3:[f3917<0.441435993] yes=7,no=8,missing=7
			7:[f8712<0.0565994456] yes=15,no=16,missing=15
				15:leaf=-0.0110618481
				16:leaf=0.00378225767
			8:[f6549<0.00596127566] yes=17,no=18,missing=17
				17:leaf=0.00147456082
				18:leaf=-0.00585483434
		4:[f222<2.35663223] yes=9,no=10,missing=9
			9:[f2824<2.71280622] yes=19,no=20,missing=19
				19:leaf=-0.00723288767
				20:leaf=-0.000351697934
			10:[f5594<2.39473391] yes=21,no=22,missing=21
				21:leaf=-0.00225670845
				22:leaf=0.00274690171
	2:[f8420<0.0267316233] yes=5,no=6,missing=5
		5:[f6754<0.0386302955] yes=11,no=12,missing=11
			11:[f3811<1.25888705] yes=23,no=24,missing=23
				23:leaf=0.00615034625
				24:leaf=0.00161398284
			12:[f8129<0.0815945417] yes=25,no=26,missing=25
				25:leaf=-0.00523008918
				26:leaf=0.00115068653
		6:[f1206<17.2300262] yes=13,no=14,missing=13
			13:[f9261<1.47407556] yes=27,no=28,missing=27
				27:leaf=0.0046182056
				28:leaf=0.00881012809
			14:[f2506<0.0136813466] yes=29,no=30,missing=29
				29:leaf=-0.00156427256
				30:leaf=0.0115245935
booster[44]:
0:[f7271<1.23988056] yes=1,no=2,missing=1
	1:[f222<2.05416775] yes=3,no=4,missing=3
		3:[f3245<3.08583975] yes=7,no=8,missing=7
			7:[f9295<0.292728782] yes=15,no=16,missing=15
				15:leaf=-0.0112933367
				16:leaf=-0.00193298713
			8:[f4362<0.00318473438] yes=17,no=18,missing=17
				17:leaf=-2.95256214e-05
				18:leaf=-0.00732578151
		4:[f9253<0.0948628336] yes=9,no=10,missing=9
			9:[f5247<1.78287435] yes=19,no=20,missing=19
				19:leaf=-0.00860145688
				20:leaf=-0.00210600393
			10:[f1198<5.91641617] yes=21,no=22,missing=21
				21:leaf=-0.00706743356
				22:leaf=-0.000760563766
	2:[f7271<2.12329412] yes=5,no=6,missing=5
		5:[f1198<8.42948532] yes=11,no=12,missing=11
			11:[f8497<0.00330697792] yes=23,no=24,missing=23
				23:leaf=-0.00469224388
				24:leaf=0.000544331211
			12:[f8129<0.0703047365] yes=25,no=26,missing=25
				25:leaf=-0.00251070946
				26:leaf=0.00346669601
		6:[f430<1.11811137] yes=13,no=14,missing=13
			13:[f9273<1.87301111] yes=27,no=28,missing=27
				27:leaf=0.00329278549
				28:leaf=0.00811303034
			14:[f8129<0.12346521] yes=29,no=30,missing=29
				29:leaf=0.00408778805
				30:leaf=0.0112713063
booster[45]:
0:[f7271<1.23988056] yes=1,no=2,missing=1
	1:[f5249<0.405116618] yes=3,no=4,missing=3
		3:[f8712<0.0451988727] yes=7,no=8,missing=7
			7:[f3917<0.409263343] yes=15,no=16,missing=15
				15:leaf=-0.0111329304
				16:leaf=-0.00569219282
			8:[f8483<0.0044373516] yes=17,no=18,missing=17
				17:leaf=0.00783118326
				18:leaf=-0.00382316695
		4:[f430<1.0749383] yes=9,no=10,missing=9
			9:[f3245<6.21221161] yes=19,no=20,missing=19
				19:leaf=-0.00728195161
				20:leaf=0.00166817894
			10:[f604<0.277598977] yes=21,no=22,missing=21
				21:leaf=0.00386878359
				22:leaf=-0.00287335389
	2:[f7271<2.34307218] yes=5,no=6,missing=5
		5:[f430<1.04166031] yes=11,no=12,missing=11
			11:[f6879<0.264311254] yes=23,no=24,missing=23
				23:leaf=0.00316721108
				24:leaf=-0.00235171174
			12:[f8500<0.0523624048] yes=25,no=26,missing=25
				25:leaf=0.00198232569
				26:leaf=0.006539586
		6:[f9214<2.38149071] yes=13,no=14,missing=13
			13:[f221<1.38532495] yes=27,no=28,missing=27
				27:leaf=0.0044687409
				28:leaf=0.00941604376
			14:[f4563<0.00116809225] yes=29,no=30,missing=29
				29:leaf=0.000773609325
				30:leaf=0.0121089239
booster[46]:
0:[f7271<1.53343177] yes=1,no=2,missing=1
	1:[f7251<0.245125666] yes=3,no=4,missing=3
		3:[f5247<1.48478746] yes=7,no=8,missing=7
			7:[f207<0.760586739] yes=15,no=16,missing=15
				15:leaf=-0.0108863581
				16:leaf=-0.00481793191
			8:[f3245<7.37546062] yes=17,no=18,missing=17
				17:leaf=-0.00569681823
				18:leaf=7.02985999e-05
		4:[f222<2.75136518] yes=9,no=10,missing=9
			9:[f3286<11.1912651] yes=19,no=20,missing=19
				19:leaf=-0.0058064172
				20:leaf=0.000958813878
			10:[f2672<0.629990637] yes=21,no=22,missing=21
				21:leaf=0.0040673404
				22:leaf=-0.00313849002
	2:[f9261<1.42082393] yes=5,no=6,missing=5
		5:[f222<3.04858828] yes=11,no=12,missing=11
			11:[f9251<1.14823365] yes=23,no=24,missing=23
				23:leaf=0.000327601738
				24:leaf=0.00554136746
			12:[f8129<0.0872375518] yes=25,no=26,missing=25
				25:leaf=0.00195908244
				26:leaf=0.00777177839
		6:[f4219<0.237578779] yes=13,no=14,missing=13
			13:[f7818<2.76080871] yes=27,no=28,missing=27
				27:leaf=0.00348045048
				28:leaf=-0.00238350127
			14:[f2519<0.00335514103] yes=29,no=30,missing=29
				29:leaf=0.00136074261
				30:leaf=0.0112656923
booster[47]:
0:[f7271<1.53343177] yes=1,no=2,missing=1
	1:[f3200<3.72939587] yes=3,no=4,missing=3
		3:[f3917<0.446723372] yes=7,no=8,missing=7
			7:[f9253<0.145935848] yes=15,no=16,missing=15
				15:leaf=-0.0105465408
				16:leaf=-0.00577668333
			8:[f4377<0.0204874501] yes=17,no=18,missing=17
				17:leaf=0.00175333885
				18:leaf=-0.0049701957
		4:[f2875<2.30799937] yes=9,no=10,missing=9
			9:[f430<1.04300404] yes=19,no=20,missing=19
				19:leaf=-0.000562235015
				20:leaf=0.00569291832
			10:[f207<0.770485878] yes=21,no=22,missing=21
				21:leaf=-0.00645874627
				22:leaf=-0.00063300773
	2:[f9261<1.42082393] yes=5,no=6,missing=5
		5:[f222<3.04858828] yes=11,no=12,missing=11
			11:[f7249<2.30904055] yes=23,no=24,missing=23
				23:leaf=0.000383493927
				24:leaf=0.00569492159
			12:[f9206<0.423241526] yes=25,no=26,missing=25
				25:leaf=0.000306708273
				26:leaf=0.0074589299
		6:[f4219<0.237578779] yes=13,no=14,missing=13
			13:[f7818<2.76080871] yes=27,no=28,missing=27
				27:leaf=0.00346153323
				28:leaf=-0.0023742062
			14:[f2519<0.00335514103] yes=29,no=30,missing=29
				29:leaf=0.00135313405
				30:leaf=0.011188454
booster[48]:
0:[f7271<1.23988056] yes=1,no=2,missing=1
	1:[f222<2.05416775] yes=3,no=4,missing=3
		3:[f3245<3.08583975] yes=7,no=8,missing=7
			7:[f9295<0.292728782] yes=15,no=16,missing=15
				15:leaf=-0.0110177109
				16:leaf=-0.00175703235
			8:[f4362<0.00318473438] yes=17,no=18,missing=17
				17:leaf=8.72178935e-05
				18:leaf=-0.00709552411
		4:[f3592<5.72200537] yes=9,no=10,missing=9
			9:[f430<1.19095278] yes=19,no=20,missing=19
				19:leaf=-0.00684766937
				20:leaf=-3.11645708e-05
			10:[f2315<0.0784416199] yes=21,no=22,missing=21
				21:leaf=0.00245462661
				22:leaf=-0.00479359599
	2:[f7212<2.09676743] yes=5,no=6,missing=5
		5:[f6754<0.0343490839] yes=11,no=12,missing=11
			11:[f412<0.365167558] yes=23,no=24,missing=23
				23:leaf=0.000444619771
				24:leaf=0.0063426923
			12:[f8129<0.119893521] yes=25,no=26,missing=25
				25:leaf=-0.00353913358
				26:leaf=0.00146843609
		6:[f220<1.25501442] yes=13,no=14,missing=13
			13:[f9273<1.84325647] yes=27,no=28,missing=27
				27:leaf=0.00233048201
				28:leaf=0.00745825795
			14:[f9206<0.829186559] yes=29,no=30,missing=29
				29:leaf=0.00480368268
				30:leaf=0.0112182796
booster[49]:
0:[f3200<4.54858303] yes=1,no=2,missing=1
	1:[f9253<0.126815677] yes=3,no=4,missing=3
		3:[f2824<2.47095561] yes=7,no=8,missing=7
			7:[f430<0.870452642] yes=15,no=16,missing=15
				15:leaf=-0.0110687679
				16:leaf=-0.00635238737
			8:[f4598<0.00319583993] yes=17,no=18,missing=17
				17:leaf=-0.000794011808
				18:leaf=-0.00633544661
		4:[f1245<2.42377138] yes=9,no=10,missing=9
			9:[f8163<0.065305911] yes=19,no=20,missing=19
				19:leaf=-0.00821198337
				20:leaf=-0.000267240859
			10:[f1223<1.38440514] yes=21,no=22,missing=21
				21:leaf=0.00037737735
				22:leaf=-0.00516083278
	2:[f8420<0.0257320628] yes=5,no=6,missing=5
		5:[f4957<0.231599435] yes=11,no=12,missing=11
			11:[f412<0.383143157] yes=23,no=24,missing=23
				23:leaf=0.000495058077
				24:leaf=0.0059359502
			12:[f5288<6.05684757] yes=25,no=26,missing=25
				25:leaf=-0.00386387482
				26:leaf=0.0025077844
		6:[f220<1.15970194] yes=13,no=14,missing=13
			13:[f2843<0.33878094] yes=27,no=28,missing=27
				27:leaf=0.00739837345
				28:leaf=0.0025059781
			14:[f9273<1.75774908] yes=29,no=30,missing=29
				29:leaf=0.00731464429
				30:leaf=0.0115339588
booster[50]:
0:[f5269<2.70944262] yes=1,no=2,missing=1
	1:[f7251<0.196578354] yes=3,no=4,missing=3
		3:[f3917<0.438021362] yes=7,no=8,missing=7
			7:[f8712<0.0565994456] yes=15,no=16,missing=15
				15:leaf=-0.0105837043
				16:leaf=0.00402848981
			8:[f4877<0.550520062] yes=17,no=18,missing=17
				17:leaf=-0.000945003296
				18:leaf=-0.00647166884
		4:[f222<2.35663223] yes=9,no=10,missing=9
			9:[f2824<2.71280622] yes=19,no=20,missing=19
				19:leaf=-0.00684589567
				20:leaf=-0.000238074208
			10:[f5594<2.39473391] yes=21,no=22,missing=21
				21:leaf=-0.00209043687
				22:leaf=0.00274867471
	2:[f8420<0.0267316233] yes=5,no=6,missing=5
		5:[f6754<0.0386302955] yes=11,no=12,missing=11
			11:[f3811<1.25888705] yes=23,no=24,missing=23
				23:leaf=0.00593506498
				24:leaf=0.00152568065
			12:[f8129<0.0815945417] yes=25,no=26,missing=25
				25:leaf=-0.00511596212
				26:leaf=0.0011066749
		6:[f1206<17.2300262] yes=13,no=14,missing=13
			13:[f9261<1.47407556] yes=27,no=28,missing=27
				27:leaf=0.0043637394
				28:leaf=0.00836096704
			14:[f4535<0.0309661739] yes=29,no=30,missing=29
				29:leaf=-0.00110887352
				30:leaf=0.0110806841
booster[51]:
0:[f3200<4.54858303] yes=1,no=2,missing=1
	1:[f9253<0.126815677] yes=3,no=4,missing=3
		3:[f2824<2.47095561] yes=7,no=8,missing=7
			7:[f430<0.870452642] yes=15,no=16,missing=15
				15:leaf=-0.0109299719
				16:leaf=-0.00623303838
			8:[f4598<0.00319583993] yes=17,no=18,missing=17
				17:leaf=-0.000762106618
				18:leaf=-0.00623099739
		4:[f1245<2.42377138] yes=9,no=10,missing=9
			9:[f8163<0.065305911] yes=19,no=20,missing=19
				19:leaf=-0.0080990186
				20:leaf=-0.000228680306
			10:[f1223<1.38440514] yes=21,no=22,missing=21
				21:leaf=0.000391207315
				22:leaf=-0.00507944496
	2:[f8420<0.0257320628] yes=5,no=6,missing=5
		5:[f4957<0.231599435] yes=11,no=12,missing=11
			11:[f412<0.383143157] yes=23,no=24,missing=23
				23:leaf=0.00048192995
				24:leaf=0.00586850615
			12:[f5288<6.05684757] yes=25,no=26,missing=25
				25:leaf=-0.00380965695
				26:leaf=0.0024857705
		6:[f220<1.15970194] yes=13,no=14,missing=13
			13:[f2843<0.33878094] yes=27,no=28,missing=27
				27:leaf=0.00729873637
				28:leaf=0.0024437313
			14:[f9252<3.35110664] yes=29,no=30,missing=29
				29:leaf=0.00755639467
				30:leaf=0.0117468359
booster[52]:
0:[f7271<1.21891642] yes=1,no=2,missing=1
	1:[f222<2.05522323] yes=3,no=4,missing=3
		3:[f3245<3.55714011] yes=7,no=8,missing=7
			7:[f9933<0.996466041] yes=15,no=16,missing=15
				15:leaf=-0.0106431153
				16:leaf=-0.00220926269
			8:[f2360<0.0076164864] yes=17,no=18,missing=17
				17:leaf=0.00244235597
				18:leaf=-0.0059727286
		4:[f3592<5.72200537] yes=9,no=10,missing=9
			9:[f430<1.20086646] yes=19,no=20,missing=19
				19:leaf=-0.00669356668
				20:leaf=0.00011753296
			10:[f2315<0.0784416199] yes=21,no=22,missing=21
				21:leaf=0.00240610051
				22:leaf=-0.00490164757
	2:[f7212<2.09676743] yes=5,no=6,missing=5
		5:[f6754<0.0364064723] yes=11,no=12,missing=11
			11:[f412<0.365167558] yes=23,no=24,missing=23
				23:leaf=9.97074312e-05
				24:leaf=0.00587549992
			12:[f8129<0.0878798962] yes=25,no=26,missing=25
				25:leaf=-0.00484160334
				26:leaf=0.000580994121
		6:[f220<1.25501442] yes=13,no=14,missing=13
			13:[f9273<1.84862542] yes=27,no=28,missing=27
				27:leaf=0.0022557145
				28:leaf=0.00728902081
			14:[f1212<9.53661346] yes=29,no=30,missing=29
				29:leaf=0.0105369426
				30:leaf=-0.00139859028
booster[53]:
0:[f3200<4.54858303] yes=1,no=2,missing=1
	1:[f9253<0.126815677] yes=3,no=4,missing=3
		3:[f2824<2.47095561] yes=7,no=8,missing=7
			7:[f430<0.859067917] yes=15,no=16,missing=15
				15:leaf=-0.0108251208
				16:leaf=-0.00625884114
			8:[f4598<0.00319583993] yes=17,no=18,missing=17
				17:leaf=-0.000727736799
				18:leaf=-0.00613230048
		4:[f1245<2.42377138] yes=9,no=10,missing=9
			9:[f9177<1.29583097] yes=19,no=20,missing=19
				19:leaf=-0.00793142617
				20:leaf=0.000403340789
			10:[f1223<1.35836196] yes=21,no=22,missing=21
				21:leaf=0.000466575875
				22:leaf=-0.00491006207
	2:[f8420<0.0257320628] yes=5,no=6,missing=5
		5:[f4957<0.231599435] yes=11,no=12,missing=11
			11:[f412<0.383143157] yes=23,no=24,missing=23
				23:leaf=0.000482701027
				24:leaf=0.005796907
			12:[f5288<6.05684757] yes=25,no=26,missing=25
				25:leaf=-0.00375624211
				26:leaf=0.00246052165
		6:[f210<0.393789858] yes=13,no=14,missing=13
			13:[f9273<1.438972] yes=27,no=28,missing=27
				27:leaf=0.00218009669
				28:leaf=0.00677802926
			14:[f9206<1.06007493] yes=29,no=30,missing=29
				29:leaf=0.00678104023
				30:leaf=0.0111784553
booster[54]:
0:[f5269<2.70944262] yes=1,no=2,missing=1
	1:[f7251<0.196578354] yes=3,no=4,missing=3
		3:[f3917<0.438021362] yes=7,no=8,missing=7
			7:[f8712<0.0565994456] yes=15,no=16,missing=15
				15:leaf=-0.0103183938
				16:leaf=0.00415633619
			8:[f4877<0.550520062] yes=17,no=18,missing=17
				17:leaf=-0.000836348045
				18:leaf=-0.00627332088
		4:[f222<2.35663223] yes=9,no=10,missing=9
			9:[f2824<2.71280622] yes=19,no=20,missing=19
				19:leaf=-0.00664002821
				20:leaf=-0.000193747619
			10:[f1198<7.70260572] yes=21,no=22,missing=21
				21:leaf=-0.00317544607
				22:leaf=0.00107668585
	2:[f8420<0.0267316233] yes=5,no=6,missing=5
		5:[f6754<0.0386302955] yes=11,no=12,missing=11
			11:[f3421<0.44867003] yes=23,no=24,missing=23
				23:leaf=0.00619957084
				24:leaf=0.00191038265
			12:[f8129<0.0815945417] yes=25,no=26,missing=25
				25:leaf=-0.00501474738
				26:leaf=0.00110799354
		6:[f1206<17.2300262] yes=13,no=14,missing=13
			13:[f9261<1.47407556] yes=27,no=28,missing=27
				27:leaf=0.00420092372
				28:leaf=0.00815159734
			14:[f219<0.261058539] yes=29,no=30,missing=29
				29:leaf=0.00119644357
				30:leaf=0.0109212548
booster[55]:
0:[f3200<4.54858303] yes=1,no=2,missing=1
	1:[f9253<0.104930118] yes=3,no=4,missing=3
		3:[f5247<2.05776501] yes=7,no=8,missing=7
			7:[f8712<0.0498572439] yes=15,no=16,missing=15
				15:leaf=-0.0102186464
				16:leaf=0.00371372537
			8:[f7179<0.111192353] yes=17,no=18,missing=17
				17:leaf=0.0024197707
				18:leaf=-0.00390923349
		4:[f1245<2.42377138] yes=9,no=10,missing=9
			9:[f9177<1.21712399] yes=19,no=20,missing=19
				19:leaf=-0.00831524376
				20:leaf=-1.34870197e-05
			10:[f1229<2.1157825] yes=21,no=22,missing=21
				21:leaf=-0.000464030803
				22:leaf=-0.00553298602
	2:[f8420<0.0257320628] yes=5,no=6,missing=5
		5:[f4957<0.231599435] yes=11,no=12,missing=11
			11:[f412<0.383143157] yes=23,no=24,missing=23
				23:leaf=0.000470595493
				24:leaf=0.00573036727
			12:[f5288<6.05684757] yes=25,no=26,missing=25
				25:leaf=-0.00370730925
				26:leaf=0.00243690307
		6:[f210<0.393789858] yes=13,no=14,missing=13
			13:[f9273<1.438972] yes=27,no=28,missing=27
				27:leaf=0.00213402859
				28:leaf=0.00666734204
			14:[f9206<1.06007493] yes=29,no=30,missing=29
				29:leaf=0.00667420914
				30:leaf=0.0110470867
booster[56]:
0:[f7271<1.21891642] yes=1,no=2,missing=1
	1:[f222<2.05522323] yes=3,no=4,missing=3
		3:[f3245<3.08583975] yes=7,no=8,missing=7
			7:[f8712<0.0450698137] yes=15,no=16,missing=15
				15:leaf=-0.0104044518
				16:leaf=0.00221398729
			8:[f4317<0.0128685292] yes=17,no=18,missing=17
				17:leaf=0.00218390627
				18:leaf=-0.00632604724
		4:[f3592<5.72200537] yes=9,no=10,missing=9
			9:[f430<1.20086646] yes=19,no=20,missing=19
				19:leaf=-0.00648438139
				20:leaf=0.000201829316
			10:[f2315<0.0784416199] yes=21,no=22,missing=21
				21:leaf=0.00242533418
				22:leaf=-0.00480658188
	2:[f7212<2.09676743] yes=5,no=6,missing=5
		5:[f222<2.2182889] yes=11,no=12,missing=11
			11:[f9236<0.453339875] yes=23,no=24,missing=23
				23:leaf=-0.00359504879
				24:leaf=0.00174823531
			12:[f6662<0.0243201554] yes=25,no=26,missing=25
				25:leaf=0.00412753318
				26:leaf=-0.000746041595
		6:[f220<1.25501442] yes=13,no=14,missing=13
			13:[f9273<1.84862542] yes=27,no=28,missing=27
				27:leaf=0.00215804949
				28:leaf=0.00709394785
			14:[f9206<0.829186559] yes=29,no=30,missing=29
				29:leaf=0.00447167177
				30:leaf=0.0106943864
booster[57]:
0:[f3200<4.54858303] yes=1,no=2,missing=1
	1:[f9253<0.104930118] yes=3,no=4,missing=3
		3:[f5247<2.05776501] yes=7,no=8,missing=7
			7:[f8712<0.0498572439] yes=15,no=16,missing=15
				15:leaf=-0.0100926599
				16:leaf=0.00369217084
			8:[f9181<0.0568414927] yes=17,no=18,missing=17
				17:leaf=0.001985888
				18:leaf=-0.00396926515
		4:[f1245<2.42377138] yes=9,no=10,missing=9
			9:[f9177<1.21712399] yes=19,no=20,missing=19
				19:leaf=-0.00819414016
				20:leaf=3.5951929e-05
			10:[f1229<2.1157825] yes=21,no=22,missing=21
				21:leaf=-0.000435514492
				22:leaf=-0.00544058438
	2:[f8420<0.0257320628] yes=5,no=6,missing=5
		5:[f4957<0.231599435] yes=11,no=12,missing=11
			11:[f412<0.383143157] yes=23,no=24,missing=23
				23:leaf=0.000462368655
				24:leaf=0.00566341914
			12:[f5288<6.05684757] yes=25,no=26,missing=25
				25:leaf=-0.00365682086
				26:leaf=0.00240969122
		6:[f210<0.393789858] yes=13,no=14,missing=13
			13:[f5828<1.34155321] yes=27,no=28,missing=27
				27:leaf=0.00730078481
				28:leaf=0.00276285503
			14:[f9273<1.75770307] yes=29,no=30,missing=29
				29:leaf=0.00734171271
				30:leaf=0.0113832848
booster[58]:
0:[f7271<1.16860342] yes=1,no=2,missing=1
	1:[f222<2.05416775] yes=3,no=4,missing=3
		3:[f2824<2.48174381] yes=7,no=8,missing=7
			7:[f9236<0.215738446] yes=15,no=16,missing=15
				15:leaf=-0.0103125954
				16:leaf=-0.0043331827
			8:[f1243<14.5589428] yes=17,no=18,missing=17
				17:leaf=-0.00492269825
				18:leaf=0.00133198174
		4:[f5159<4.47572136] yes=9,no=10,missing=9
			9:[f430<1.09977639] yes=19,no=20,missing=19
				19:leaf=-0.00678222114
				20:leaf=-0.000805442396
			10:[f6158<0.00456471927] yes=21,no=22,missing=21
				21:leaf=0.00409698766
				22:leaf=-0.00128178613
	2:[f7271<2.12329412] yes=5,no=6,missing=5
		5:[f430<1.04166031] yes=11,no=12,missing=11
			11:[f8160<0.00242627459] yes=23,no=24,missing=23
				23:leaf=0.00387715921
				24:leaf=-0.00240338803
			12:[f8500<0.0528919026] yes=25,no=26,missing=25
				25:leaf=0.0012204767
				26:leaf=0.00577403279
		6:[f9214<2.38149071] yes=13,no=14,missing=13
			13:[f221<1.38542819] yes=27,no=28,missing=27
				27:leaf=0.00370640098
				28:leaf=0.00839079637
			14:[f4563<0.00116809225] yes=29,no=30,missing=29
				29:leaf=0.000519773574
				30:leaf=0.0113206245
booster[59]:
0:[f3200<4.54858303] yes=1,no=2,missing=1
	1:[f9253<0.126815677] yes=3,no=4,missing=3
		3:[f2824<2.45472097] yes=7,no=8,missing=7
			7:[f430<0.859067917] yes=15,no=16,missing=15
				15:leaf=-0.0104708681
				16:leaf=-0.00590701494
			8:[f4598<0.00319324667] yes=17,no=18,missing=17
				17:leaf=-0.000617749407
				18:leaf=-0.00595392706
		4:[f1245<2.77722645] yes=9,no=10,missing=9
			9:[f8371<0.0372877568] yes=19,no=20,missing=19
				19:leaf=-0.0068420833
				20:leaf=-0.00051728019
			10:[f1223<1.3545568] yes=21,no=22,missing=21
				21:leaf=0.00108553306
				22:leaf=-0.00427883398
	2:[f8420<0.0257320628] yes=5,no=6,missing=5
		5:[f4957<0.231599435] yes=11,no=12,missing=11
			11:[f412<0.383143157] yes=23,no=24,missing=23
				23:leaf=0.00045866365
				24:leaf=0.00559752807
			12:[f5288<6.05684757] yes=25,no=26,missing=25
				25:leaf=-0.00360960746
				26:leaf=0.00237407372
		6:[f3208<8.07836533] yes=13,no=14,missing=13
			13:[f2324<0.0486000367] yes=27,no=28,missing=27
				27:leaf=0.00547504937
				28:leaf=-0.000683028018
			14:[f9206<0.833347142] yes=29,no=30,missing=29
				29:leaf=0.0045133871
				30:leaf=0.0101886066
booster[60]:
0:[f7271<1.16860342] yes=1,no=2,missing=1
	1:[f222<2.05416775] yes=3,no=4,missing=3
		3:[f2824<2.48174381] yes=7,no=8,missing=7
			7:[f9236<0.179610476] yes=15,no=16,missing=15
				15:leaf=-0.0103595378
				16:leaf=-0.00551180961
			8:[f1243<14.5589428] yes=17,no=18,missing=17
				17:leaf=-0.00485333055
				18:leaf=0.00133837131
		4:[f3592<5.72200537] yes=9,no=10,missing=9
			9:[f430<1.20086646] yes=19,no=20,missing=19
				19:leaf=-0.00638731103
				20:leaf=0.000153852074
			10:[f2315<0.0784416199] yes=21,no=22,missing=21
				21:leaf=0.0023651463
				22:leaf=-0.00490260404
	2:[f7271<2.09594059] yes=5,no=6,missing=5
		5:[f430<1.04166031] yes=11,no=12,missing=11
			11:[f4538<0.250124037] yes=23,no=24,missing=23
				23:leaf=-0.00233570277
				24:leaf=0.0045157033
			12:[f2673<0.0477244109] yes=25,no=26,missing=25
				25:leaf=0.0057626497
				26:leaf=0.0011516863
		6:[f9214<2.38149071] yes=13,no=14,missing=13
			13:[f221<1.38542819] yes=27,no=28,missing=27
				27:leaf=0.00359570025
				28:leaf=0.00824761484
			14:[f4563<0.00116809225] yes=29,no=30,missing=29
				29:leaf=0.000498692272
				30:leaf=0.011201527
booster[61]:
0:[f5269<2.70944262] yes=1,no=2,missing=1
	1:[f7251<0.196419358] yes=3,no=4,missing=3
		3:[f3917<0.438021362] yes=7,no=8,missing=7
			7:[f8712<0.0565994456] yes=15,no=16,missing=15
				15:leaf=-0.00989185926
				16:leaf=0.00425136462
			8:[f4877<0.550520062] yes=17,no=18,missing=17
				17:leaf=-0.000577084604
				18:leaf=-0.00596074807
		4:[f222<2.35663223] yes=9,no=10,missing=9
			9:[f4296<0.0731059164] yes=19,no=20,missing=19
				19:leaf=-0.00178526924
				20:leaf=-0.00671046833
			10:[f5594<2.39473391] yes=21,no=22,missing=21
				21:leaf=-0.00186005398
				22:leaf=0.00270474376
	2:[f9253<0.298840046] yes=5,no=6,missing=5
		5:[f6754<0.0378709659] yes=11,no=12,missing=11
			11:[f221<1.16635966] yes=23,no=24,missing=23
				23:leaf=0.00175590196
				24:leaf=0.00588734681
			12:[f8129<0.0795887113] yes=25,no=26,missing=25
				25:leaf=-0.00505068805
				26:leaf=0.000992762158
		6:[f430<1.11561012] yes=13,no=14,missing=13
			13:[f9273<1.83999658] yes=27,no=28,missing=27
				27:leaf=0.00292556221
				28:leaf=0.00715665147
			14:[f416<0.0158487335] yes=29,no=30,missing=29
				29:leaf=-0.000812338549
				30:leaf=0.00994446408
booster[62]:
0:[f3200<4.54858303] yes=1,no=2,missing=1
	1:[f9253<0.104930118] yes=3,no=4,missing=3
		3:[f5247<2.05776501] yes=7,no=8,missing=7
			7:[f8712<0.0498572439] yes=15,no=16,missing=15
				15:leaf=-0.00979154743
				16:leaf=0.00382475578
			8:[f7179<0.111192353] yes=17,no=18,missing=17
				17:leaf=0.00243797014
				18:leaf=-0.00365251559
		4:[f1245<2.42377138] yes=9,no=10,missing=9
			9:[f9177<1.21712399] yes=19,no=20,missing=19
				19:leaf=-0.00792742521
				20:leaf=0.000215252599
			10:[f1229<2.1157825] yes=21,no=22,missing=21
				21:leaf=-0.000348779955
				22:leaf=-0.00523400307
	2:[f8420<0.0257320628] yes=5,no=6,missing=5
		5:[f4957<0.231599435] yes=11,no=12,missing=11
			11:[f412<0.383143157] yes=23,no=24,missing=23
				23:leaf=0.000453222892
				24:leaf=0.00552130817
			12:[f5288<6.05684757] yes=25,no=26,missing=25
				25:leaf=-0.00354992738
				26:leaf=0.00233677262
		6:[f1206<17.2300262] yes=13,no=14,missing=13
			13:[f222<2.41877651] yes=27,no=28,missing=27
				27:leaf=0.00196155952
				28:leaf=0.00646537403
			14:[f451<1.52894986] yes=29,no=30,missing=29
				29:leaf=-0.000734259316
				30:leaf=0.0103756674
booster[63]:
0:[f7271<1.16860342] yes=1,no=2,missing=1
	1:[f222<2.05416775] yes=3,no=4,missing=3
		3:[f3245<3.29656649] yes=7,no=8,missing=7
			7:[f9933<0.987787008] yes=15,no=16,missing=15
				15:leaf=-0.010121596
				16:leaf=-0.00206331583
			8:[f4497<0.493149638] yes=17,no=18,missing=17
				17:leaf=0.00137922459
				18:leaf=-0.00612013461
		4:[f5159<4.47572136] yes=9,no=10,missing=9
			9:[f430<1.09977639] yes=19,no=20,missing=19
				19:leaf=-0.00653220154
				20:leaf=-0.000685359002
			10:[f6158<0.00456471927] yes=21,no=22,missing=21
				21:leaf=0.00406489521
				22:leaf=-0.00117981911
	2:[f9273<1.24896193] yes=5,no=6,missing=5
		5:[f1198<10.2370834] yes=11,no=12,missing=11
			11:[f6158<0.00479750987] yes=23,no=24,missing=23
				23:leaf=0.00310779153
				24:leaf=-0.00292261597
			12:[f4907<1.63806939] yes=25,no=26,missing=25
				25:leaf=0.00606006011
				26:leaf=0.000962061808
		6:[f4125<0.533213258] yes=13,no=14,missing=13
			13:[f8911<0.778787732] yes=27,no=28,missing=27
				27:leaf=0.00476235244
				28:leaf=-0.00135405362
			14:[f430<0.847869754] yes=29,no=30,missing=29
				29:leaf=0.00459000561
				30:leaf=0.00970958546
booster[64]:
0:[f5202<1.82839978] yes=1,no=2,missing=1
	1:[f5247<1.72927821] yes=3,no=4,missing=3
		3:[f9253<0.0855385363] yes=7,no=8,missing=7
			7:[f429<0.234135687] yes=15,no=16,missing=15
				15:leaf=-0.0107630398
				16:leaf=-0.00616336055
			8:[f430<0.885070205] yes=17,no=18,missing=17
				17:leaf=-0.00688493997
				18:leaf=-0.00174268498
		4:[f1590<11.8974094] yes=9,no=10,missing=9
			9:[f8129<0.0971531272] yes=19,no=20,missing=19
				19:leaf=-0.00440008193
				20:leaf=0.0016483803
			10:[f4377<0.0153317414] yes=21,no=22,missing=21
				21:leaf=0.0057024518
				22:leaf=0.00100301323
	2:[f7212<2.09943056] yes=5,no=6,missing=5
		5:[f219<0.297473758] yes=11,no=12,missing=11
			11:[f4296<0.0773814768] yes=23,no=24,missing=23
				23:leaf=0.000579819723
				24:leaf=-0.0045428304
			12:[f6754<0.0260380134] yes=25,no=26,missing=25
				25:leaf=0.00564446906
				26:leaf=0.00141338538
		6:[f220<1.25501442] yes=13,no=14,missing=13
			13:[f9273<1.84862542] yes=27,no=28,missing=27
				27:leaf=0.00200444506
				28:leaf=0.00665685581
			14:[f1212<9.53661346] yes=29,no=30,missing=29
				29:leaf=0.00988226663
				30:leaf=-0.00164894806
booster[65]:
0:[f3200<4.54858303] yes=1,no=2,missing=1
	1:[f9253<0.126815677] yes=3,no=4,missing=3
		3:[f2824<2.45472097] yes=7,no=8,missing=7
			7:[f430<0.859067917] yes=15,no=16,missing=15
				15:leaf=-0.0101170251
				16:leaf=-0.00560548343
			8:[f4598<0.00319324667] yes=17,no=18,missing=17
				17:leaf=-0.000483670679
				18:leaf=-0.00570408907
		4:[f1245<2.42377138] yes=9,no=10,missing=9
			9:[f8163<0.065305911] yes=19,no=20,missing=19
				19:leaf=-0.00733739277
				20:leaf=0.000209237725
			10:[f1223<1.38440514] yes=21,no=22,missing=21
				21:leaf=0.000549571007
				22:leaf=-0.00453119818
	2:[f8420<0.0257320628] yes=5,no=6,missing=5
		5:[f4905<0.307211399] yes=11,no=12,missing=11
			11:[f412<0.383143157] yes=23,no=24,missing=23
				23:leaf=-3.58019793e-06
				24:leaf=0.0048525962
			12:[f5288<6.07485294] yes=25,no=26,missing=25
				25:leaf=-0.00402327161
				26:leaf=0.00222661719
		6:[f210<0.393789858] yes=13,no=14,missing=13
			13:[f5828<1.34155321] yes=27,no=28,missing=27
				27:leaf=0.00693835644
				28:leaf=0.00250114012
			14:[f9273<1.75770307] yes=29,no=30,missing=29
				29:leaf=0.00695433607
				30:leaf=0.0109266806
booster[66]:
0:[f7271<1.16516352] yes=1,no=2,missing=1
	1:[f222<1.96927094] yes=3,no=4,missing=3
		3:[f8712<0.0450668484] yes=7,no=8,missing=7
			7:[f3245<3.1251235] yes=15,no=16,missing=15
				15:leaf=-0.0100714518
				16:leaf=-0.00554526364
			8:[f6541<0.0772340149] yes=17,no=18,missing=17
				17:leaf=0.00930667762
				18:leaf=-0.00312928041
		4:[f3592<5.73048449] yes=9,no=10,missing=9
			9:[f430<1.19095278] yes=19,no=20,missing=19
				19:leaf=-0.00629248051
				20:leaf=8.90256633e-05
			10:[f4035<0.182406932] yes=21,no=22,missing=21
				21:leaf=0.00451183086
				22:leaf=-0.00218940945
	2:[f9273<1.24896193] yes=5,no=6,missing=5
		5:[f1198<10.2370834] yes=11,no=12,missing=11
			11:[f6158<0.00479750987] yes=23,no=24,missing=23
				23:leaf=0.00304780994
				24:leaf=-0.00287040533
			12:[f4907<1.63806939] yes=25,no=26,missing=25
				25:leaf=0.00595306372
				26:leaf=0.000924034859
		6:[f4125<0.533213258] yes=13,no=14,missing=13
			13:[f8911<0.778787732] yes=27,no=28,missing=27
				27:leaf=0.00466892822
				28:leaf=-0.00139767467
			14:[f224<0.159125939] yes=29,no=30,missing=29
				29:leaf=0.00570746604
				30:leaf=0.0100479573
booster[67]:
0:[f7271<1.16516352] yes=1,no=2,missing=1
	1:[f222<2.05416775] yes=3,no=4,missing=3
		3:[f2824<2.48174381] yes=7,no=8,missing=7
			7:[f9236<0.179610476] yes=15,no=16,missing=15
				15:leaf=-0.00995976385
				16:leaf=-0.0051034377
			8:[f1243<14.5589428] yes=17,no=18,missing=17
				17:leaf=-0.00455331383
				18:leaf=0.00149892143
		4:[f3592<5.72200537] yes=9,no=10,missing=9
			9:[f430<1.20086646] yes=19,no=20,missing=19
				19:leaf=-0.00605599629
				20:leaf=0.000226095086
			10:[f2315<0.0784416199] yes=21,no=22,missing=21
				21:leaf=0.00241766544
				22:leaf=-0.00484308368
	2:[f9273<1.24896193] yes=5,no=6,missing=5
		5:[f1198<10.2370834] yes=11,no=12,missing=11
			11:[f6158<0.00479750987] yes=23,no=24,missing=23
				23:leaf=0.00302035897
				24:leaf=-0.00284266681
			12:[f4907<1.63806939] yes=25,no=26,missing=25
				25:leaf=0.00589984702
				26:leaf=0.000915079785
		6:[f4125<0.533213258] yes=13,no=14,missing=13
			13:[f8911<0.778787732] yes=27,no=28,missing=27
				27:leaf=0.00462800218
				28:leaf=-0.00138500135
			14:[f430<0.847869754] yes=29,no=30,missing=29
				29:leaf=0.00444873236
				30:leaf=0.00947800744
booster[68]:
0:[f3200<4.54858303] yes=1,no=2,missing=1
	1:[f9253<0.104930118] yes=3,no=4,missing=3
		3:[f5247<2.05776501] yes=7,no=8,missing=7
			7:[f8712<0.0498572439] yes=15,no=16,missing=15
				15:leaf=-0.00945343636
				16:leaf=0.00399936177
			8:[f9181<0.0568414927] yes=17,no=18,missing=17
				17:leaf=0.00205513393
				18:leaf=-0.00358304381
		4:[f1245<2.42377138] yes=9,no=10,missing=9
			9:[f9177<1.21712399] yes=19,no=20,missing=19
				19:leaf=-0.00761155691
				20:leaf=0.000439976488
			10:[f1229<2.1157825] yes=21,no=22,missing=21
				21:leaf=-0.000242449169
				22:leaf=-0.00498481747
	2:[f8420<0.0257320628] yes=5,no=6,missing=5
		5:[f4905<0.307211399] yes=11,no=12,missing=11
			11:[f412<0.383143157] yes=23,no=24,missing=23
				23:leaf=-1.4459064e-05
				24:leaf=0.00477157533
			12:[f5288<6.07485294] yes=25,no=26,missing=25
				25:leaf=-0.00396053586
				26:leaf=0.00218668371
		6:[f1206<17.2300262] yes=13,no=14,missing=13
			13:[f222<2.41877651] yes=27,no=28,missing=27
				27:leaf=0.00181991141
				28:leaf=0.00619102689
			14:[f451<1.52894986] yes=29,no=30,missing=29
				29:leaf=-0.000797401473
				30:leaf=0.0100511117
booster[69]:
0:[f9273<0.69915092] yes=1,no=2,missing=1
	1:[f1198<8.20378685] yes=3,no=4,missing=3
		3:[f1590<11.4012728] yes=7,no=8,missing=7
			7:[f9253<0.094214268] yes=15,no=16,missing=15
				15:leaf=-0.00986488163
				16:leaf=-0.00647134893
			8:[f2033<0.515270233] yes=17,no=18,missing=17
				17:leaf=0.00228672475
				18:leaf=-0.00429451698
		4:[f2699<0.54330945] yes=9,no=10,missing=9
			9:[f440<0.374158859] yes=19,no=20,missing=19
				19:leaf=0.000507998222
				20:leaf=0.00558316195
			10:[f5288<5.03527164] yes=21,no=22,missing=21
				21:leaf=-0.00585405389
				22:leaf=0.000193637054
	2:[f5210<3.58527136] yes=5,no=6,missing=5
		5:[f8500<0.0697178692] yes=11,no=12,missing=11
			11:[f8129<0.134875849] yes=23,no=24,missing=23
				23:leaf=-0.00375240925
				24:leaf=0.00122163852
			12:[f1245<3.3911624] yes=25,no=26,missing=25
				25:leaf=-0.00105392537
				26:leaf=0.00452624494
		6:[f430<1.147313] yes=13,no=14,missing=13
			13:[f9252<3.35737658] yes=27,no=28,missing=27
				27:leaf=0.00262571569
				28:leaf=0.0074881711
			14:[f8575<0.000258128915] yes=29,no=30,missing=29
				29:leaf=-0.00134057202
				30:leaf=0.00983717386
booster[70]:
0:[f5202<1.82839978] yes=1,no=2,missing=1
	1:[f5247<1.72927821] yes=3,no=4,missing=3
		3:[f9253<0.0855385363] yes=7,no=8,missing=7
			7:[f429<0.234135687] yes=15,no=16,missing=15
				15:leaf=-0.0104286522
				16:leaf=-0.00587836374
			8:[f430<0.885070205] yes=17,no=18,missing=17
				17:leaf=-0.00658707181
				18:leaf=-0.00157590595
		4:[f8756<0.0153232627] yes=9,no=10,missing=9
			9:[f3008<19.8480244] yes=19,no=20,missing=19
				19:leaf=0.000202053241
				20:leaf=0.00572433462
			10:[f8129<0.102020644] yes=21,no=22,missing=21
				21:leaf=-0.00381487235
				22:leaf=0.0021975541
	2:[f7271<3.00086808] yes=5,no=6,missing=5
		5:[f430<1.09279919] yes=11,no=12,missing=11
			11:[f2824<2.94710827] yes=23,no=24,missing=23
				23:leaf=-0.00180005352
				24:leaf=0.00302225701
			12:[f2472<0.237102896] yes=25,no=26,missing=25
				25:leaf=0.00611126283
				26:leaf=0.00160804228
		6:[f9214<2.44902992] yes=13,no=14,missing=13
			13:[f221<1.38510919] yes=27,no=28,missing=27
				27:leaf=0.00422405731
				28:leaf=0.00861427933
			14:[f2519<0.00325280894] yes=29,no=30,missing=29
				29:leaf=0.000769118953
				30:leaf=0.0109230177
booster[71]:
0:[f9273<0.69915092] yes=1,no=2,missing=1
	1:[f1198<8.20378685] yes=3,no=4,missing=3
		3:[f1590<9.99621964] yes=7,no=8,missing=7
			7:[f9253<0.0855949] yes=15,no=16,missing=15
				15:leaf=-0.0100540994
				16:leaf=-0.00683698617
			8:[f2038<0.886488557] yes=17,no=18,missing=17
				17:leaf=0.000423877675
				18:leaf=-0.00562791806
		4:[f2699<0.54330945] yes=9,no=10,missing=9
			9:[f440<0.374158859] yes=19,no=20,missing=19
				19:leaf=0.000517960347
				20:leaf=0.0055228835
			10:[f5288<5.03527164] yes=21,no=22,missing=21
				21:leaf=-0.00577238435
				22:leaf=0.000199451926
	2:[f5210<3.58527136] yes=5,no=6,missing=5
		5:[f8497<0.00273845135] yes=11,no=12,missing=11
			11:[f221<1.16640401] yes=23,no=24,missing=23
				23:leaf=-0.00302300625
				24:leaf=0.00220654393
			12:[f1287<2.42648268] yes=25,no=26,missing=25
				25:leaf=-0.00132279354
				26:leaf=0.00467216829
		6:[f430<1.147313] yes=13,no=14,missing=13
			13:[f9252<3.35737658] yes=27,no=28,missing=27
				27:leaf=0.00258712354
				28:leaf=0.00738427369
			14:[f1834<5.17206192] yes=29,no=30,missing=29
				29:leaf=0.0031951468
				30:leaf=0.00998846628
booster[72]:
0:[f3200<4.23722649] yes=1,no=2,missing=1
	1:[f9253<0.0949222147] yes=3,no=4,missing=3
		3:[f5247<2.05422497] yes=7,no=8,missing=7
			7:[f8712<0.0499476232] yes=15,no=16,missing=15
				15:leaf=-0.00955459848
				16:leaf=0.00357421744
			8:[f7179<0.111192353] yes=17,no=18,missing=17
				17:leaf=0.00241293549
				18:leaf=-0.00406642444
		4:[f3245<6.56725311] yes=9,no=10,missing=9
			9:[f9236<0.3563869] yes=19,no=20,missing=19
				19:leaf=-0.00556994602
				20:leaf=0.00131763483
			10:[f8860<0.506098509] yes=21,no=22,missing=21
				21:leaf=0.00462976284
				22:leaf=-0.00261491165
	2:[f8420<0.0257320628] yes=5,no=6,missing=5
		5:[f4957<0.231141925] yes=11,no=12,missing=11
			11:[f412<0.381929934] yes=23,no=24,missing=23
				23:leaf=0.00021573955
				24:leaf=0.00485350424
			12:[f5288<6.05684757] yes=25,no=26,missing=25
				25:leaf=-0.0038131976
				26:leaf=0.00200587232
		6:[f1206<17.2300262] yes=13,no=14,missing=13
			13:[f1206<9.15907097] yes=27,no=28,missing=27
				27:leaf=0.000600193627
				28:leaf=0.00540685048
			14:[f219<0.261058539] yes=29,no=30,missing=29
				29:leaf=0.000855505175
				30:leaf=0.00991448201
booster[73]:
0:[f9273<0.69915092] yes=1,no=2,missing=1
	1:[f1198<8.20378685] yes=3,no=4,missing=3
		3:[f1590<10.3401299] yes=7,no=8,missing=7
			7:[f9253<0.0855949] yes=15,no=16,missing=15
				15:leaf=-0.00989669561
				16:leaf=-0.00668915454
			8:[f2065<1.52899981] yes=17,no=18,missing=17
				17:leaf=0.00136873033
				18:leaf=-0.00494339736
		4:[f2699<0.54330945] yes=9,no=10,missing=9
			9:[f440<0.374158859] yes=19,no=20,missing=19
				19:leaf=0.000520706701
				20:leaf=0.00546295987
			10:[f5288<5.03527164] yes=21,no=22,missing=21
				21:leaf=-0.00568833761
				22:leaf=0.000200004069
	2:[f5210<3.58527136] yes=5,no=6,missing=5
		5:[f8500<0.0697178692] yes=11,no=12,missing=11
			11:[f8129<0.134875849] yes=23,no=24,missing=23
				23:leaf=-0.00371163688
				24:leaf=0.00120231055
			12:[f1245<3.3911624] yes=25,no=26,missing=25
				25:leaf=-0.00100332149
				26:leaf=0.00442412449
		6:[f430<1.147313] yes=13,no=14,missing=13
			13:[f9273<2.3186264] yes=27,no=28,missing=27
				27:leaf=0.00294555398
				28:leaf=0.00789575931
			14:[f1834<5.17206192] yes=29,no=30,missing=29
				29:leaf=0.003141311
				30:leaf=0.0098791346
booster[74]:
0:[f3200<4.54858303] yes=1,no=2,missing=1
	1:[f9253<0.126815677] yes=3,no=4,missing=3
		3:[f2824<2.45472097] yes=7,no=8,missing=7
			7:[f430<0.859067917] yes=15,no=16,missing=15
				15:leaf=-0.0096309213
				16:leaf=-0.00515285833
			8:[f4598<0.00319324667] yes=17,no=18,missing=17
				17:leaf=-0.000247416407
				18:leaf=-0.00533335377
		4:[f1245<2.77722645] yes=9,no=10,missing=9
			9:[f8170<0.802905083] yes=19,no=20,missing=19
				19:leaf=-0.00479382556
				20:leaf=-0.0100857299
			10:[f1223<1.3545568] yes=21,no=22,missing=21
				21:leaf=0.00123937428
				22:leaf=-0.00378119526
	2:[f8420<0.0257320628] yes=5,no=6,missing=5
		5:[f4761<0.0927474946] yes=11,no=12,missing=11
			11:[f412<0.398544729] yes=23,no=24,missing=23
				23:leaf=0.000347513618
				24:leaf=0.00567868678
			12:[f8129<0.0816007331] yes=25,no=26,missing=25
				25:leaf=-0.00444571162
				26:leaf=0.00120084023
		6:[f210<0.393789858] yes=13,no=14,missing=13
			13:[f5828<1.34155321] yes=27,no=28,missing=27
				27:leaf=0.00657596858
				28:leaf=0.00223253365
			14:[f9273<1.75770307] yes=29,no=30,missing=29
				29:leaf=0.00654623099
				30:leaf=0.0104558738
booster[75]:
0:[f5269<2.70944262] yes=1,no=2,missing=1
	1:[f7251<0.196419358] yes=3,no=4,missing=3
		3:[f3917<0.438021362] yes=7,no=8,missing=7
			7:[f430<0.807767272] yes=15,no=16,missing=15
				15:leaf=-0.00982919242
				16:leaf=-0.00581743754
			8:[f2401<0.0708891302] yes=17,no=18,missing=17
				17:leaf=-0.000108366941
				18:leaf=-0.00539601687
		4:[f430<1.02768087] yes=9,no=10,missing=9
			9:[f3245<6.13056612] yes=19,no=20,missing=19
				19:leaf=-0.00512135495
				20:leaf=0.00240893895
			10:[f2673<0.0443591438] yes=21,no=22,missing=21
				21:leaf=0.0027959859
				22:leaf=-0.00216428167
	2:[f8129<0.118767932] yes=5,no=6,missing=5
		5:[f7665<0.316352248] yes=11,no=12,missing=11
			11:[f4480<0.264162451] yes=23,no=24,missing=23
				23:leaf=0.00200928724
				24:leaf=0.00660893787
			12:[f221<1.40679526] yes=25,no=26,missing=25
				25:leaf=-0.00375061436
				26:leaf=0.00150397047
		6:[f9261<1.42082393] yes=13,no=14,missing=13
			13:[f1198<11.0521469] yes=27,no=28,missing=27
				27:leaf=0.00157704647
				28:leaf=0.00608984381
			14:[f215<1.4228127] yes=29,no=30,missing=29
				29:leaf=0.00474937586
				30:leaf=0.00997016206
booster[76]:
0:[f9273<0.69915092] yes=1,no=2,missing=1
	1:[f1198<8.20378685] yes=3,no=4,missing=3
		3:[f1590<9.99621964] yes=7,no=8,missing=7
			7:[f8712<0.039109692] yes=15,no=16,missing=15
				15:leaf=-0.00840699393
				16:leaf=0.00281535508
			8:[f2038<0.886488557] yes=17,no=18,missing=17
				17:leaf=0.000538727501
				18:leaf=-0.00542458799
		4:[f2699<0.54330945] yes=9,no=10,missing=9
			9:[f210<0.35354054] yes=19,no=20,missing=19
				19:leaf=0.00068905612
				20:leaf=0.00562876137
			10:[f5288<4.75114202] yes=21,no=22,missing=21
				21:leaf=-0.00567664532
				22:leaf=-1.08683607e-05
	2:[f5210<3.58527136] yes=5,no=6,missing=5
		5:[f8497<0.00273845135] yes=11,no=12,missing=11
			11:[f221<1.16640401] yes=23,no=24,missing=23
				23:leaf=-0.00296514085
				24:leaf=0.00214782241
			12:[f1287<2.42648268] yes=25,no=26,missing=25
				25:leaf=-0.00125397264
				26:leaf=0.00454939576
		6:[f9214<2.38116479] yes=13,no=14,missing=13
			13:[f430<1.13758087] yes=27,no=28,missing=27
				27:leaf=0.00306954072
				28:leaf=0.0076263845
			14:[f8198<0.00477371877] yes=29,no=30,missing=29
				29:leaf=-0.00166464644
				30:leaf=0.0103168795
booster[77]:
0:[f3200<4.23722649] yes=1,no=2,missing=1
	1:[f9253<0.0949222147] yes=3,no=4,missing=3
		3:[f5247<2.05422497] yes=7,no=8,missing=7
			7:[f8712<0.0499476232] yes=15,no=16,missing=15
				15:leaf=-0.00928764511
				16:leaf=0.00368638174
			8:[f4362<0.00363517576] yes=17,no=18,missing=17
				17:leaf=0.00222452125
				18:leaf=-0.00394380512
		4:[f1245<2.42377138] yes=9,no=10,missing=9
			9:[f8163<0.0644952804] yes=19,no=20,missing=19
				19:leaf=-0.00738539035
				20:leaf=0.00051648129
			10:[f3268<3.48234224] yes=21,no=22,missing=21
				21:leaf=0.00084603508
				22:leaf=-0.0040018321
	2:[f8420<0.0257320628] yes=5,no=6,missing=5
		5:[f4957<0.231141925] yes=11,no=12,missing=11
			11:[f412<0.381929934] yes=23,no=24,missing=23
				23:leaf=0.000208613346
				24:leaf=0.00473618554
			12:[f5288<6.05684757] yes=25,no=26,missing=25
				25:leaf=-0.00371336332
				26:leaf=0.00197118055
		6:[f1206<17.2300262] yes=13,no=14,missing=13
			13:[f322<0.0882995874] yes=27,no=28,missing=27
				27:leaf=0.00543224579
				28:leaf=0.00114305923
			14:[f451<1.52894986] yes=29,no=30,missing=29
				29:leaf=-0.000897893275
				30:leaf=0.00957947038
booster[78]:
0:[f9273<0.69915092] yes=1,no=2,missing=1
	1:[f1198<8.20378685] yes=3,no=4,missing=3
		3:[f1590<11.4012728] yes=7,no=8,missing=7
			7:[f9253<0.0855949] yes=15,no=16,missing=15
				15:leaf=-0.00955938082
				16:leaf=-0.00626434712
			8:[f2017<0.592132688] yes=17,no=18,missing=17
				17:leaf=0.00151175004
				18:leaf=-0.00556150591
		4:[f2699<0.54330945] yes=9,no=10,missing=9
			9:[f210<0.35354054] yes=19,no=20,missing=19
				19:leaf=0.000685520819
				20:leaf=0.00556786219
			10:[f9251<0.559080303] yes=21,no=22,missing=21
				21:leaf=-0.00532094575
				22:leaf=0.000961865298
	2:[f5210<3.58527136] yes=5,no=6,missing=5
		5:[f8500<0.0697178692] yes=11,no=12,missing=11
			11:[f8129<0.134875849] yes=23,no=24,missing=23
				23:leaf=-0.0036461507
				24:leaf=0.00118791871
			12:[f1245<3.3911624] yes=25,no=26,missing=25
				25:leaf=-0.000924173335
				26:leaf=0.00429803645
		6:[f9214<2.38116479] yes=13,no=14,missing=13
			13:[f430<1.13758087] yes=27,no=28,missing=27
				27:leaf=0.00301031256
				28:leaf=0.0075294408
			14:[f8198<0.00477371877] yes=29,no=30,missing=29
				29:leaf=-0.00166442245
				30:leaf=0.0102201225
booster[79]:
0:[f3200<4.23722649] yes=1,no=2,missing=1
	1:[f9253<0.0949222147] yes=3,no=4,missing=3
		3:[f5247<2.05422497] yes=7,no=8,missing=7
			7:[f8712<0.0499476232] yes=15,no=16,missing=15
				15:leaf=-0.00917653088
				16:leaf=0.0037128292
			8:[f7179<0.111192353] yes=17,no=18,missing=17
				17:leaf=0.00247396668
				18:leaf=-0.00378809939
		4:[f1245<2.42377138] yes=9,no=10,missing=9
			9:[f8163<0.0644952804] yes=19,no=20,missing=19
				19:leaf=-0.00729250396
				20:leaf=0.000544639712
			10:[f3268<3.48234224] yes=21,no=22,missing=21
				21:leaf=0.000852896599
				22:leaf=-0.00393409561
	2:[f9261<0.831301928] yes=5,no=6,missing=5
		5:[f4753<0.0494489707] yes=11,no=12,missing=11
			11:[f412<0.401676595] yes=23,no=24,missing=23
				23:leaf=0.0011010319
				24:leaf=0.00600210531
			12:[f8129<0.0689683259] yes=25,no=26,missing=25
				25:leaf=-0.00496820966
				26:leaf=0.000208173966
		6:[f220<1.19590497] yes=13,no=14,missing=13
			13:[f6904<5.01957989] yes=27,no=28,missing=27
				27:leaf=0.00441434328
				28:leaf=-0.0021266148
			14:[f6127<0.372792661] yes=29,no=30,missing=29
				29:leaf=0.00495702121
				30:leaf=0.00968476478
booster[80]:
0:[f9253<0.178475291] yes=1,no=2,missing=1
	1:[f5247<1.9554081] yes=3,no=4,missing=3
		3:[f429<0.234313041] yes=7,no=8,missing=7
			7:[f8712<0.0497408062] yes=15,no=16,missing=15
				15:leaf=-0.00869585853
				16:leaf=0.00428310689
			8:[f1198<9.31639385] yes=17,no=18,missing=17
				17:leaf=-0.00445900997
				18:leaf=0.000683906313
		4:[f8756<0.0153725911] yes=9,no=10,missing=9
			9:[f1265<12.6730003] yes=19,no=20,missing=19
				19:leaf=0.000103523751
				20:leaf=0.00500348024
			10:[f8129<0.1101662] yes=21,no=22,missing=21
				21:leaf=-0.00299346703
				22:leaf=0.0032397476
	2:[f412<0.364510894] yes=5,no=6,missing=5
		5:[f822<5.45889425] yes=11,no=12,missing=11
			11:[f9236<0.45031482] yes=23,no=24,missing=23
				23:leaf=-0.00415078783
				24:leaf=0.00195904332
			12:[f8906<1.09682679] yes=25,no=26,missing=25
				25:leaf=0.00478281546
				26:leaf=-0.000612783362
		6:[f9214<1.73185182] yes=13,no=14,missing=13
			13:[f222<3.0486002] yes=27,no=28,missing=27
				27:leaf=0.00232173759
				28:leaf=0.00632135244
			14:[f121<2.57443237] yes=29,no=30,missing=29
				29:leaf=0.00571061904
				30:leaf=0.0101668248
booster[81]:
0:[f9253<0.178475291] yes=1,no=2,missing=1
	1:[f5247<1.9554081] yes=3,no=4,missing=3
		3:[f429<0.258936346] yes=7,no=8,missing=7
			7:[f8712<0.0497408062] yes=15,no=16,missing=15
				15:leaf=-0.00844462495
				16:leaf=0.00463310396
			8:[f1198<9.33844662] yes=17,no=18,missing=17
				17:leaf=-0.00393850682
				18:leaf=0.0013810402
		4:[f8389<0.0416031964] yes=9,no=10,missing=9
			9:[f211<2.45999932] yes=19,no=20,missing=19
				19:leaf=-0.00351531943
				20:leaf=0.00396078918
			10:[f5247<2.70179582] yes=21,no=22,missing=21
				21:leaf=-0.00103745039
				22:leaf=0.00375967822
	2:[f412<0.364510894] yes=5,no=6,missing=5
		5:[f822<5.45889425] yes=11,no=12,missing=11
			11:[f9236<0.45031482] yes=23,no=24,missing=23
				23:leaf=-0.00411333889
				24:leaf=0.00194073445
			12:[f6989<1.41031766] yes=25,no=26,missing=25
				25:leaf=0.00544199254
				26:leaf=0.000327936665
		6:[f9214<1.73185182] yes=13,no=14,missing=13
			13:[f222<3.0486002] yes=27,no=28,missing=27
				27:leaf=0.00229926407
				28:leaf=0.00626859954
			14:[f121<2.57443237] yes=29,no=30,missing=29
				29:leaf=0.00567015121
				30:leaf=0.0101100635
booster[82]:
0:[f9273<0.69915092] yes=1,no=2,missing=1
	1:[f1198<8.20059967] yes=3,no=4,missing=3
		3:[f1590<9.99621964] yes=7,no=8,missing=7
			7:[f7251<0.160656556] yes=15,no=16,missing=15
				15:leaf=-0.00964345597
				16:leaf=-0.00646797055
			8:[f2038<0.886488557] yes=17,no=18,missing=17
				17:leaf=0.000710145279
				18:leaf=-0.0051955753
		4:[f2205<0.242022768] yes=9,no=10,missing=9
			9:[f442<0.601793826] yes=19,no=20,missing=19
				19:leaf=0.000583567657
				20:leaf=0.00539436145
			10:[f5228<1.80671978] yes=21,no=22,missing=21
				21:leaf=-0.00527480291
				22:leaf=0.00047489471
	2:[f5210<4.18007421] yes=5,no=6,missing=5
		5:[f3247<1.82027614] yes=11,no=12,missing=11
			11:[f142<0.0359563418] yes=23,no=24,missing=23
				23:leaf=-0.000556350278
				24:leaf=-0.00433827471
			12:[f8129<0.118801489] yes=25,no=26,missing=25
				25:leaf=-0.000285042712
				26:leaf=0.00410946785
		6:[f430<1.13753235] yes=13,no=14,missing=13
			13:[f9273<2.38992047] yes=27,no=28,missing=27
				27:leaf=0.00287701935
				28:leaf=0.00762841105
			14:[f9206<0.746591091] yes=29,no=30,missing=29
				29:leaf=0.00358006777
				30:leaf=0.00999286119
booster[83]:
0:[f9253<0.174283892] yes=1,no=2,missing=1
	1:[f5247<1.9554081] yes=3,no=4,missing=3
		3:[f429<0.234313041] yes=7,no=8,missing=7
			7:[f8330<0.000849252101] yes=15,no=16,missing=15
				15:leaf=0.00214068894
				16:leaf=-0.00860386249
			8:[f1198<9.31639385] yes=17,no=18,missing=17
				17:leaf=-0.00438068062
				18:leaf=0.000614272547
		4:[f8756<0.0156788621] yes=9,no=10,missing=9
			9:[f1265<12.6730003] yes=19,no=20,missing=19
				19:leaf=0.000154484616
				20:leaf=0.00493217586
			10:[f211<2.45999932] yes=21,no=22,missing=21
				21:leaf=-0.00274366466
				22:leaf=0.00461966218
	2:[f412<0.364418745] yes=5,no=6,missing=5
		5:[f822<5.45889425] yes=11,no=12,missing=11
			11:[f9236<0.45031482] yes=23,no=24,missing=23
				23:leaf=-0.00408346346
				24:leaf=0.00188401679
			12:[f8906<1.08136129] yes=25,no=26,missing=25
				25:leaf=0.00460271118
				26:leaf=-0.000654473726
		6:[f9214<1.73185182] yes=13,no=14,missing=13
			13:[f222<3.0486002] yes=27,no=28,missing=27
				27:leaf=0.00222938298
				28:leaf=0.00618298398
			14:[f121<2.5887568] yes=29,no=30,missing=29
				29:leaf=0.00561896013
				30:leaf=0.0100196935
booster[84]:
0:[f3200<4.17962074] yes=1,no=2,missing=1
	1:[f9253<0.0949744359] yes=3,no=4,missing=3
		3:[f3917<0.442746699] yes=7,no=8,missing=7
			7:[f8408<0.00857787766] yes=15,no=16,missing=15
				15:leaf=0.00232557743
				16:leaf=-0.00906025432
			8:[f4362<0.00336918049] yes=17,no=18,missing=17
				17:leaf=0.00139632239
				18:leaf=-0.00496475864
		4:[f1245<2.42377138] yes=9,no=10,missing=9
			9:[f9177<1.21712399] yes=19,no=20,missing=19
				19:leaf=-0.00708247116
				20:leaf=0.000492378836
			10:[f1229<2.21539354] yes=21,no=22,missing=21
				21:leaf=-0.000588272291
				22:leaf=-0.0054801451
	2:[f9261<0.831301928] yes=5,no=6,missing=5
		5:[f4753<0.0494489707] yes=11,no=12,missing=11
			11:[f412<0.401676595] yes=23,no=24,missing=23
				23:leaf=0.0011044289
				24:leaf=0.00585000915
			12:[f8129<0.0689683259] yes=25,no=26,missing=25
				25:leaf=-0.00500212424
				26:leaf=0.000111104768
		6:[f220<1.19590497] yes=13,no=14,missing=13
			13:[f6904<5.01957989] yes=27,no=28,missing=27
				27:leaf=0.00429152977
				28:leaf=-0.0022488418
			14:[f6127<0.372792661] yes=29,no=30,missing=29
				29:leaf=0.00472870376
				30:leaf=0.00942839589
booster[85]:
0:[f9253<0.178475291] yes=1,no=2,missing=1
	1:[f5247<1.48478746] yes=3,no=4,missing=3
		3:[f429<0.234313041] yes=7,no=8,missing=7
			7:[f8330<0.000966678956] yes=15,no=16,missing=15
				15:leaf=0.0012711836
				16:leaf=-0.00883388799
			8:[f207<0.980285704] yes=17,no=18,missing=17
				17:leaf=-0.00424453523
				18:leaf=0.00094103365
		4:[f5247<2.59188867] yes=9,no=10,missing=9
			9:[f429<0.252254665] yes=19,no=20,missing=19
				19:leaf=-0.00475582061
				20:leaf=0.0021221803
			10:[f8860<0.335331798] yes=21,no=22,missing=21
				21:leaf=0.00332590635
				22:leaf=-0.00240080594
	2:[f412<0.364510894] yes=5,no=6,missing=5
		5:[f822<5.45889425] yes=11,no=12,missing=11
			11:[f9236<0.45031482] yes=23,no=24,missing=23
				23:leaf=-0.00398349576
				24:leaf=0.00188704045
			12:[f4854<0.121045634] yes=25,no=26,missing=25
				25:leaf=0.00520158419
				26:leaf=9.15059063e-05
		6:[f9214<1.73185182] yes=13,no=14,missing=13
			13:[f144<0.0501432903] yes=27,no=28,missing=27
				27:leaf=0.00507077342
				28:leaf=0.00111537986
			14:[f121<2.57443237] yes=29,no=30,missing=29
				29:leaf=0.00549986353
				30:leaf=0.00990754273
booster[86]:
0:[f9253<0.174283892] yes=1,no=2,missing=1
	1:[f5247<1.48478746] yes=3,no=4,missing=3
		3:[f429<0.234313041] yes=7,no=8,missing=7
			7:[f8408<0.00947237387] yes=15,no=16,missing=15
				15:leaf=0.00238053291
				16:leaf=-0.0087751355
			8:[f207<0.980285704] yes=17,no=18,missing=17
				17:leaf=-0.00426958548
				18:leaf=0.000811751408
		4:[f5247<2.59188867] yes=9,no=10,missing=9
			9:[f429<0.252254665] yes=19,no=20,missing=19
				19:leaf=-0.00474757049
				20:leaf=0.00217357278
			10:[f8860<0.335331798] yes=21,no=22,missing=21
				21:leaf=0.00333172013
				22:leaf=-0.0025462145
	2:[f412<0.364510894] yes=5,no=6,missing=5
		5:[f822<5.45889425] yes=11,no=12,missing=11
			11:[f9236<0.45031482] yes=23,no=24,missing=23
				23:leaf=-0.00398384361
				24:leaf=0.00185469852
			12:[f6989<1.41031766] yes=25,no=26,missing=25
				25:leaf=0.00518863508
				26:leaf=0.000182586882
		6:[f9214<1.73185182] yes=13,no=14,missing=13
			13:[f222<3.0486002] yes=27,no=28,missing=27
				27:leaf=0.0021617529
				28:leaf=0.00606683642
			14:[f121<2.5887568] yes=29,no=30,missing=29
				29:leaf=0.0054966528
				30:leaf=0.00986583903
booster[87]:
0:[f3200<4.55178642] yes=1,no=2,missing=1
	1:[f9253<0.103353471] yes=3,no=4,missing=3
		3:[f5247<2.05776501] yes=7,no=8,missing=7
			7:[f429<0.176270634] yes=15,no=16,missing=15
				15:leaf=-0.00948313531
				16:leaf=-0.00610807957
			8:[f7189<0.585125566] yes=17,no=18,missing=17
				17:leaf=0.00322508696
				18:leaf=-0.00282254745
		4:[f412<0.251279891] yes=9,no=10,missing=9
			9:[f6298<0.032600902] yes=19,no=20,missing=19
				19:leaf=-0.000857235398
				20:leaf=-0.00640704017
			10:[f832<3.70029068] yes=21,no=22,missing=21
				21:leaf=0.00267498102
				22:leaf=-0.00216949708
	2:[f8420<0.0257320628] yes=5,no=6,missing=5
		5:[f4761<0.0927474946] yes=11,no=12,missing=11
			11:[f412<0.398544729] yes=23,no=24,missing=23
				23:leaf=0.000315491168
				24:leaf=0.00536428206
			12:[f8129<0.0816007331] yes=25,no=26,missing=25
				25:leaf=-0.00420734659
				26:leaf=0.00114532525
