booster[0]:
0:[f7271<1.55317855] yes=1,no=2,missing=1
	1:[f222<2.49307203] yes=3,no=4,missing=3
		3:[f7251<0.235532612] yes=7,no=8,missing=7
			7:[f3245<6.7504549] yes=15,no=16,missing=15
				15:leaf=-0.0170510914
				16:leaf=-0.00809160247
			8:[f9236<0.413787663] yes=17,no=18,missing=17
				17:leaf=-0.0125514073
				18:leaf=-0.00347325113
		4:[f9253<0.108593687] yes=9,no=10,missing=9
			9:[f206<2.17617655] yes=19,no=20,missing=19
				19:leaf=-0.0119246645
				20:leaf=-0.00281786942
			10:[f430<1.28565347] yes=21,no=22,missing=21
				21:leaf=-0.00561280875
				22:leaf=0.00149795727
	2:[f7212<2.51097775] yes=5,no=6,missing=5
		5:[f222<2.85770559] yes=11,no=12,missing=11
			11:[f8129<0.125777334] yes=23,no=24,missing=23
				23:leaf=-0.00688017672
				24:leaf=-0.00146341452
			12:[f6127<0.208632022] yes=25,no=26,missing=25
				25:leaf=-0.00121807458
				26:leaf=0.00641346164
		6:[f430<1.17235136] yes=13,no=14,missing=13
			13:[f9273<2.11836576] yes=27,no=28,missing=27
				27:leaf=0.00316181034
				28:leaf=0.0107315071
			14:[f1201<0.870782077] yes=29,no=30,missing=29
				29:leaf=-0.000239043831
				30:leaf=0.0151530718
booster[1]:
0:[f7271<1.55317855] yes=1,no=2,missing=1
	1:[f222<2.49307203] yes=3,no=4,missing=3
		3:[f7251<0.235532612] yes=7,no=8,missing=7
			7:[f3245<6.7504549] yes=15,no=16,missing=15
				15:leaf=-0.0168828368
				16:leaf=-0.00802315306
			8:[f9236<0.413787663] yes=17,no=18,missing=17
				17:leaf=-0.0124278199
				18:leaf=-0.00344424485
		4:[f9253<0.108593687] yes=9,no=10,missing=9
			9:[f206<2.17617655] yes=19,no=20,missing=19
				19:leaf=-0.0118097663
				20:leaf=-0.00279937638
			10:[f430<1.28565347] yes=21,no=22,missing=21
				21:leaf=-0.00555835757
				22:leaf=0.00148433819
	2:[f7212<2.51097775] yes=5,no=6,missing=5
		5:[f222<2.85770559] yes=11,no=12,missing=11
			11:[f8129<0.159670413] yes=23,no=24,missing=23
				23:leaf=-0.00609100936
				24:leaf=-0.000850568991
			12:[f6127<0.208632022] yes=25,no=26,missing=25
				25:leaf=-0.00120748952
				26:leaf=0.00635247258
		6:[f430<1.17235136] yes=13,no=14,missing=13
			13:[f9273<2.11836576] yes=27,no=28,missing=27
				27:leaf=0.00313411863
				28:leaf=0.0106332451
			14:[f1201<0.870782077] yes=29,no=30,missing=29
				29:leaf=-0.000238558423
				30:leaf=0.0150088565
booster[2]:
0:[f7271<1.66619873] yes=1,no=2,missing=1
	1:[f222<2.49307203] yes=3,no=4,missing=3
		3:[f7271<1.05347085] yes=7,no=8,missing=7
			7:[f9253<0.104598112] yes=15,no=16,missing=15
				15:leaf=-0.0169301927
				16:leaf=-0.0137102669
			8:[f9236<0.454761863] yes=17,no=18,missing=17
				17:leaf=-0.010719182
				18:leaf=-0.00285158213
		4:[f9253<0.124352664] yes=9,no=10,missing=9
			9:[f222<3.36398363] yes=19,no=20,missing=19
				19:leaf=-0.0114376098
				20:leaf=-0.00487044966
			10:[f430<1.2828362] yes=21,no=22,missing=21
				21:leaf=-0.00465672882
				22:leaf=0.0024567591
	2:[f7212<2.51097775] yes=5,no=6,missing=5
		5:[f222<2.89068723] yes=11,no=12,missing=11
			11:[f8129<0.156421214] yes=23,no=24,missing=23
				23:leaf=-0.00554128597
				24:leaf=-0.000168143029
			12:[f8129<0.110191658] yes=25,no=26,missing=25
				25:leaf=-0.000401823723
				26:leaf=0.00690085953
		6:[f430<0.888392508] yes=13,no=14,missing=13
			13:[f9273<2.27718496] yes=27,no=28,missing=27
				27:leaf=0.001269478
				28:leaf=0.00806612242
			14:[f2123<1.13184249] yes=29,no=30,missing=29
				29:leaf=0.00414585182
				30:leaf=0.0140450038
booster[3]:
0:[f7271<1.55317855] yes=1,no=2,missing=1
	1:[f222<2.49307203] yes=3,no=4,missing=3
		3:[f7251<0.235532612] yes=7,no=8,missing=7
			7:[f3245<6.7504549] yes=15,no=16,missing=15
				15:leaf=-0.0165640321
				16:leaf=-0.0078395959
			8:[f9236<0.413787663] yes=17,no=18,missing=17
				17:leaf=-0.012182598
				18:leaf=-0.00336401816
		4:[f9253<0.108593687] yes=9,no=10,missing=9
			9:[f5594<2.26053095] yes=19,no=20,missing=19
				19:leaf=-0.0117756007
				20:leaf=-0.00424898416
			10:[f430<1.28565347] yes=21,no=22,missing=21
				21:leaf=-0.00545017188
				22:leaf=0.00146080495
	2:[f7212<2.51097775] yes=5,no=6,missing=5
		5:[f222<2.85770559] yes=11,no=12,missing=11
			11:[f8129<0.125777334] yes=23,no=24,missing=23
				23:leaf=-0.00669845706
				24:leaf=-0.00141042308
			12:[f6127<0.208632022] yes=25,no=26,missing=25
				25:leaf=-0.00119366159
				26:leaf=0.00624354044
		6:[f430<1.17235136] yes=13,no=14,missing=13
			13:[f9273<2.11836576] yes=27,no=28,missing=27
				27:leaf=0.00304647232
				28:leaf=0.0104424823
			14:[f1201<0.870782077] yes=29,no=30,missing=29
				29:leaf=-0.00025123058
				30:leaf=0.0147399539
booster[4]:
0:[f7271<1.66619873] yes=1,no=2,missing=1
	1:[f222<2.49307203] yes=3,no=4,missing=3
		3:[f7271<1.05347085] yes=7,no=8,missing=7
			7:[f9253<0.104598112] yes=15,no=16,missing=15
				15:leaf=-0.0166149288
				16:leaf=-0.0134489089
			8:[f9236<0.454761863] yes=17,no=18,missing=17
				17:leaf=-0.0105026662
				18:leaf=-0.00280265324
		4:[f9253<0.125942975] yes=9,no=10,missing=9
			9:[f222<3.36398363] yes=19,no=20,missing=19
				19:leaf=-0.0111775976
				20:leaf=-0.00468527945
			10:[f430<1.2828362] yes=21,no=22,missing=21
				21:leaf=-0.00450518867
				22:leaf=0.00247962656
	2:[f7212<2.51097775] yes=5,no=6,missing=5
		5:[f222<2.89068723] yes=11,no=12,missing=11
			11:[f8129<0.156421214] yes=23,no=24,missing=23
				23:leaf=-0.00544000277
				24:leaf=-0.000155026704
			12:[f8129<0.110191658] yes=25,no=26,missing=25
				25:leaf=-0.000405539933
				26:leaf=0.0067812237
		6:[f430<1.0125227] yes=13,no=14,missing=13
			13:[f9273<2.27655029] yes=27,no=28,missing=27
				27:leaf=0.00238727196
				28:leaf=0.0096538458
			14:[f9206<0.753485501] yes=29,no=30,missing=29
				29:leaf=0.00196216046
				30:leaf=0.014058535
booster[5]:
0:[f7271<1.55317855] yes=1,no=2,missing=1
	1:[f222<2.49307203] yes=3,no=4,missing=3
		3:[f7251<0.235532612] yes=7,no=8,missing=7
			7:[f3245<6.7504549] yes=15,no=16,missing=15
				15:leaf=-0.0162597075
				16:leaf=-0.00766134122
			8:[f9236<0.413787663] yes=17,no=18,missing=17
				17:leaf=-0.0119457971
				18:leaf=-0.00328559242
		4:[f9253<0.108593687] yes=9,no=10,missing=9
			9:[f206<2.17617655] yes=19,no=20,missing=19
				19:leaf=-0.0113929491
				20:leaf=-0.00263005262
			10:[f430<1.28565347] yes=21,no=22,missing=21
				21:leaf=-0.005343962
				22:leaf=0.00143822562
	2:[f7212<2.51097775] yes=5,no=6,missing=5
		5:[f222<2.85770559] yes=11,no=12,missing=11
			11:[f8129<0.125777334] yes=23,no=24,missing=23
				23:leaf=-0.00657759653
				24:leaf=-0.00137725251
			12:[f6127<0.208632022] yes=25,no=26,missing=25
				25:leaf=-0.00117997976
				26:leaf=0.00613686955
		6:[f430<0.888392508] yes=13,no=14,missing=13
			13:[f9273<2.27718496] yes=27,no=28,missing=27
				27:leaf=0.00118520134
				28:leaf=0.0078396555
			14:[f2123<1.13184249] yes=29,no=30,missing=29
				29:leaf=0.00397973927
				30:leaf=0.0136687011
booster[6]:
0:[f7271<1.66619873] yes=1,no=2,missing=1
	1:[f222<2.49307203] yes=3,no=4,missing=3
		3:[f7271<0.97263968] yes=7,no=8,missing=7
			7:[f8712<0.0872135684] yes=15,no=16,missing=15
				15:leaf=-0.0155564519
				16:leaf=0.000123187827
			8:[f9236<0.420661092] yes=17,no=18,missing=17
				17:leaf=-0.0108931502
				18:leaf=-0.00353183504
		4:[f9253<0.125942975] yes=9,no=10,missing=9
			9:[f222<3.36398363] yes=19,no=20,missing=19
				19:leaf=-0.0109786093
				20:leaf=-0.00458952645
			10:[f1198<8.33254242] yes=21,no=22,missing=21
				21:leaf=-0.00632113125
				22:leaf=-0.000212653627
	2:[f7212<2.51097775] yes=5,no=6,missing=5
		5:[f222<2.89068723] yes=11,no=12,missing=11
			11:[f6127<0.211788401] yes=23,no=24,missing=23
				23:leaf=-0.0062925755
				24:leaf=-0.000804573356
			12:[f6127<0.225026771] yes=25,no=26,missing=25
				25:leaf=-0.000234796884
				26:leaf=0.00673908042
		6:[f430<1.17951846] yes=13,no=14,missing=13
			13:[f9273<2.11836576] yes=27,no=28,missing=27
				27:leaf=0.00294459285
				28:leaf=0.0102254748
			14:[f688<0.583668292] yes=29,no=30,missing=29
				29:leaf=0.00226506009
				30:leaf=0.0145659409
booster[7]:
0:[f7271<1.55317855] yes=1,no=2,missing=1
	1:[f222<2.37358975] yes=3,no=4,missing=3
		3:[f9253<0.128891021] yes=7,no=8,missing=7
			7:[f3245<6.7504549] yes=15,no=16,missing=15
				15:leaf=-0.0160599463
				16:leaf=-0.00811691303
			8:[f1243<10.279129] yes=17,no=18,missing=17
				17:leaf=-0.0120472191
				18:leaf=-0.00477932906
		4:[f7204<0.718285084] yes=9,no=10,missing=9
			9:[f5919<0.202518761] yes=19,no=20,missing=19
				19:leaf=-0.0112881204
				20:leaf=-0.00534430984
			10:[f222<3.01383591] yes=21,no=22,missing=21
				21:leaf=-0.00562239625
				22:leaf=0.000618441438
	2:[f7212<2.51097775] yes=5,no=6,missing=5
		5:[f222<2.85770559] yes=11,no=12,missing=11
			11:[f8129<0.125777334] yes=23,no=24,missing=23
				23:leaf=-0.00646068482
				24:leaf=-0.00134517706
			12:[f8129<0.110199809] yes=25,no=26,missing=25
				25:leaf=-0.000757226429
				26:leaf=0.00619426696
		6:[f430<1.17951846] yes=13,no=14,missing=13
			13:[f9273<2.11836576] yes=27,no=28,missing=27
				27:leaf=0.00290481863
				28:leaf=0.010134724
			14:[f1201<0.870782077] yes=29,no=30,missing=29
				29:leaf=-0.000227181416
				30:leaf=0.0142650949
booster[8]:
0:[f7271<1.66619873] yes=1,no=2,missing=1
	1:[f222<2.49307203] yes=3,no=4,missing=3
		3:[f7271<1.05347085] yes=7,no=8,missing=7
			7:[f9253<0.104598112] yes=15,no=16,missing=15
				15:leaf=-0.0160346013
				16:leaf=-0.0129423421
			8:[f9236<0.454761863] yes=17,no=18,missing=17
				17:leaf=-0.0100931209
				18:leaf=-0.00265374593
		4:[f9253<0.124352664] yes=9,no=10,missing=9
			9:[f222<3.50627756] yes=19,no=20,missing=19
				19:leaf=-0.0106866062
				20:leaf=-0.00369038037
			10:[f1198<8.33254242] yes=21,no=22,missing=21
				21:leaf=-0.00631162617
				22:leaf=-0.000218582034
	2:[f7212<2.51097775] yes=5,no=6,missing=5
		5:[f222<3.04864693] yes=11,no=12,missing=11
			11:[f8129<0.156421214] yes=23,no=24,missing=23
				23:leaf=-0.00484364806
				24:leaf=0.000301123451
			12:[f6127<0.216966838] yes=25,no=26,missing=25
				25:leaf=-0.000100848672
				26:leaf=0.00724213477
		6:[f430<0.888392508] yes=13,no=14,missing=13
			13:[f9273<2.27718496] yes=27,no=28,missing=27
				27:leaf=0.00113238196
				28:leaf=0.0076153269
			14:[f2123<1.13184249] yes=29,no=30,missing=29
				29:leaf=0.00383735658
				30:leaf=0.0133252079
booster[9]:
0:[f7271<1.55317855] yes=1,no=2,missing=1
	1:[f222<2.37358975] yes=3,no=4,missing=3
		3:[f9253<0.128891021] yes=7,no=8,missing=7
			7:[f3245<6.7504549] yes=15,no=16,missing=15
				15:leaf=-0.0157805476
				16:leaf=-0.00794196595
			8:[f1243<10.279129] yes=17,no=18,missing=17
				17:leaf=-0.0118282698
				18:leaf=-0.00464339461
		4:[f7204<0.718285084] yes=9,no=10,missing=9
			9:[f5919<0.202518761] yes=19,no=20,missing=19
				19:leaf=-0.0110899787
				20:leaf=-0.00522224465
			10:[f222<3.01383591] yes=21,no=22,missing=21
				21:leaf=-0.00551364012
				22:leaf=0.000638342637
	2:[f7212<2.51097775] yes=5,no=6,missing=5
		5:[f222<2.85770559] yes=11,no=12,missing=11
			11:[f8129<0.0966173261] yes=23,no=24,missing=23
				23:leaf=-0.00738305366
				24:leaf=-0.00179850252
			12:[f6127<0.208632022] yes=25,no=26,missing=25
				25:leaf=-0.00115055195
				26:leaf=0.00593686569
		6:[f219<0.368477613] yes=13,no=14,missing=13
			13:[f8438<0.0657568052] yes=27,no=28,missing=27
				27:leaf=0.000390287896
				28:leaf=0.00765727507
			14:[f9206<0.757300258] yes=29,no=30,missing=29
				29:leaf=0.00189364073
				30:leaf=0.0133333085
booster[10]:
0:[f7271<1.67835116] yes=1,no=2,missing=1
	1:[f5202<1.43680358] yes=3,no=4,missing=3
		3:[f222<2.2092247] yes=7,no=8,missing=7
			7:[f9295<0.294359624] yes=15,no=16,missing=15
				15:leaf=-0.0153373452
				16:leaf=-0.00575919542
			8:[f5247<2.4989624] yes=17,no=18,missing=17
				17:leaf=-0.0115959439
				18:leaf=-0.00429665297
		4:[f222<2.61874509] yes=9,no=10,missing=9
			9:[f4317<0.0198698565] yes=19,no=20,missing=19
				19:leaf=-0.00424134172
				20:leaf=-0.0104411663
			10:[f9253<0.178200632] yes=21,no=22,missing=21
				21:leaf=-0.00477590971
				22:leaf=0.000816301908
	2:[f7212<2.51097775] yes=5,no=6,missing=5
		5:[f222<3.04864693] yes=11,no=12,missing=11
			11:[f8129<0.160064787] yes=23,no=24,missing=23
				23:leaf=-0.00461922772
				24:leaf=0.0003957843
			12:[f6127<0.216966838] yes=25,no=26,missing=25
				25:leaf=-7.89166152e-05
				26:leaf=0.00717845559
		6:[f430<1.17951846] yes=13,no=14,missing=13
			13:[f9273<2.27642226] yes=27,no=28,missing=27
				27:leaf=0.00333462749
				28:leaf=0.0103084538
			14:[f688<0.583668292] yes=29,no=30,missing=29
				29:leaf=0.00210086862
				30:leaf=0.014087134
booster[11]:
0:[f7271<1.55317855] yes=1,no=2,missing=1
	1:[f222<2.37290478] yes=3,no=4,missing=3
		3:[f9253<0.128891021] yes=7,no=8,missing=7
			7:[f3245<6.7504549] yes=15,no=16,missing=15
				15:leaf=-0.0155185871
				16:leaf=-0.00779587682
			8:[f1243<10.279129] yes=17,no=18,missing=17
				17:leaf=-0.0116079515
				18:leaf=-0.00450900476
		4:[f7204<0.718285084] yes=9,no=10,missing=9
			9:[f5919<0.202518761] yes=19,no=20,missing=19
				19:leaf=-0.010893588
				20:leaf=-0.00512063084
			10:[f222<3.01383591] yes=21,no=22,missing=21
				21:leaf=-0.00540831313
				22:leaf=0.000655355514
	2:[f7212<2.51097775] yes=5,no=6,missing=5
		5:[f222<2.85770559] yes=11,no=12,missing=11
			11:[f8129<0.0966173261] yes=23,no=24,missing=23
				23:leaf=-0.00726900483
				24:leaf=-0.00175674178
			12:[f8129<0.110199809] yes=25,no=26,missing=25
				25:leaf=-0.000748915365
				26:leaf=0.00600401172
		6:[f430<1.17951846] yes=13,no=14,missing=13
			13:[f9273<2.11836576] yes=27,no=28,missing=27
				27:leaf=0.0027294266
				28:leaf=0.00979242381
			14:[f688<0.583668292] yes=29,no=30,missing=29
				29:leaf=0.00209156121
				30:leaf=0.01395866
booster[12]:
0:[f7271<1.67835116] yes=1,no=2,missing=1
	1:[f3200<3.67715526] yes=3,no=4,missing=3
		3:[f9253<0.142710701] yes=7,no=8,missing=7
			7:[f3245<7.28868484] yes=15,no=16,missing=15
				15:leaf=-0.0150893852
				16:leaf=-0.00521346088
			8:[f210<0.255342513] yes=17,no=18,missing=17
				17:leaf=-0.011556278
				18:leaf=-0.00653995806
		4:[f420<0.0931912512] yes=9,no=10,missing=9
			9:[f9295<0.277811676] yes=19,no=20,missing=19
				19:leaf=-0.0107756145
				20:leaf=-0.00462661311
			10:[f9253<0.124339059] yes=21,no=22,missing=21
				21:leaf=-0.00735264365
				22:leaf=-0.000851199322
	2:[f7212<2.51097775] yes=5,no=6,missing=5
		5:[f222<3.04864693] yes=11,no=12,missing=11
			11:[f8129<0.160064787] yes=23,no=24,missing=23
				23:leaf=-0.00454290165
				24:leaf=0.00039942775
			12:[f6127<0.216966838] yes=25,no=26,missing=25
				25:leaf=-8.24562521e-05
				26:leaf=0.00706405332
		6:[f430<0.888392508] yes=13,no=14,missing=13
			13:[f9273<2.27718496] yes=27,no=28,missing=27
				27:leaf=0.00102385285
				28:leaf=0.0073374128
			14:[f2123<1.13184249] yes=29,no=30,missing=29
				29:leaf=0.00362757663
				30:leaf=0.0128903184
booster[13]:
0:[f7271<1.55317855] yes=1,no=2,missing=1
	1:[f222<2.4253931] yes=3,no=4,missing=3
		3:[f9253<0.128891021] yes=7,no=8,missing=7
			7:[f3245<6.7504549] yes=15,no=16,missing=15
				15:leaf=-0.0152099626
				16:leaf=-0.00759780873
			8:[f1243<10.279129] yes=17,no=18,missing=17
				17:leaf=-0.0112732919
				18:leaf=-0.00450536469
		4:[f7204<0.705765367] yes=9,no=10,missing=9
			9:[f3592<7.11020184] yes=19,no=20,missing=19
				19:leaf=-0.01021773
				20:leaf=-0.00223349337
			10:[f222<3.02079272] yes=21,no=22,missing=21
				21:leaf=-0.00524813402
				22:leaf=0.000625766348
	2:[f7212<2.51097775] yes=5,no=6,missing=5
		5:[f222<2.85649753] yes=11,no=12,missing=11
			11:[f8129<0.0966173261] yes=23,no=24,missing=23
				23:leaf=-0.00716196094
				24:leaf=-0.00172006316
			12:[f8129<0.110199809] yes=25,no=26,missing=25
				25:leaf=-0.000734455243
				26:leaf=0.00590464287
		6:[f430<1.18168461] yes=13,no=14,missing=13
			13:[f9273<2.27642226] yes=27,no=28,missing=27
				27:leaf=0.003215387
				28:leaf=0.0100640338
			14:[f688<0.583668292] yes=29,no=30,missing=29
				29:leaf=0.00203663833
				30:leaf=0.0137459449
booster[14]:
0:[f7271<1.67835116] yes=1,no=2,missing=1
	1:[f3200<3.67715526] yes=3,no=4,missing=3
		3:[f9253<0.163361609] yes=7,no=8,missing=7
			7:[f3917<0.468606085] yes=15,no=16,missing=15
				15:leaf=-0.0148951225
				16:leaf=-0.0095025599
			8:[f210<0.255342513] yes=17,no=18,missing=17
				17:leaf=-0.0108860033
				18:leaf=-0.0056590871
		4:[f420<0.0931912512] yes=9,no=10,missing=9
			9:[f9236<0.350786269] yes=19,no=20,missing=19
				19:leaf=-0.010275689
				20:leaf=-0.00256088166
			10:[f9253<0.124339059] yes=21,no=22,missing=21
				21:leaf=-0.00721564889
				22:leaf=-0.000812247104
	2:[f7212<2.51097775] yes=5,no=6,missing=5
		5:[f222<3.04864693] yes=11,no=12,missing=11
			11:[f8129<0.160064787] yes=23,no=24,missing=23
				23:leaf=-0.00446801074
				24:leaf=0.000402854435
			12:[f6127<0.216966838] yes=25,no=26,missing=25
				25:leaf=-8.59112988e-05
				26:leaf=0.00695197843
		6:[f8438<0.0661984831] yes=13,no=14,missing=13
			13:[f1198<13.7249374] yes=27,no=28,missing=27
				27:leaf=0.000279682688
				28:leaf=0.00642266683
			14:[f4125<0.70926404] yes=29,no=30,missing=29
				29:leaf=0.00560175302
				30:leaf=0.0131159807
booster[15]:
0:[f7271<1.55317855] yes=1,no=2,missing=1
	1:[f222<2.37290478] yes=3,no=4,missing=3
		3:[f9253<0.128891021] yes=7,no=8,missing=7
			7:[f3245<6.7504549] yes=15,no=16,missing=15
				15:leaf=-0.0150207011
				16:leaf=-0.00750432722
			8:[f1243<10.279129] yes=17,no=18,missing=17
				17:leaf=-0.0112113236
				18:leaf=-0.00426623877
		4:[f5202<1.67104673] yes=9,no=10,missing=9
			9:[f5594<2.31665087] yes=19,no=20,missing=19
				19:leaf=-0.0100789284
				20:leaf=-0.00360195781
			10:[f207<0.976029634] yes=21,no=22,missing=21
				21:leaf=-0.00407924457
				22:leaf=0.00236226502
	2:[f7212<2.51097775] yes=5,no=6,missing=5
		5:[f222<2.85649753] yes=11,no=12,missing=11
			11:[f8129<0.0966173261] yes=23,no=24,missing=23
				23:leaf=-0.00705000572
				24:leaf=-0.00168305926
			12:[f8129<0.110199809] yes=25,no=26,missing=25
				25:leaf=-0.000721545133
				26:leaf=0.00581278652
		6:[f219<0.371774256] yes=13,no=14,missing=13
			13:[f8438<0.0657568052] yes=27,no=28,missing=27
				27:leaf=0.000237230386
				28:leaf=0.00732805813
			14:[f9206<0.757300258] yes=29,no=30,missing=29
				29:leaf=0.00164914737
				30:leaf=0.0127317496
booster[16]:
0:[f7271<1.67835116] yes=1,no=2,missing=1
	1:[f3200<3.67715526] yes=3,no=4,missing=3
		3:[f9253<0.163361609] yes=7,no=8,missing=7
			7:[f3245<6.55173349] yes=15,no=16,missing=15
				15:leaf=-0.0145008024
				16:leaf=-0.00645440072
			8:[f210<0.255342513] yes=17,no=18,missing=17
				17:leaf=-0.0106988903
				18:leaf=-0.00553454924
		4:[f420<0.0931912512] yes=9,no=10,missing=9
			9:[f9295<0.277811676] yes=19,no=20,missing=19
				19:leaf=-0.0103995549
				20:leaf=-0.00438793795
			10:[f9253<0.124339059] yes=21,no=22,missing=21
				21:leaf=-0.00708726048
				22:leaf=-0.000771183404
	2:[f7212<2.51097775] yes=5,no=6,missing=5
		5:[f222<3.04864693] yes=11,no=12,missing=11
			11:[f8129<0.125639141] yes=23,no=24,missing=23
				23:leaf=-0.00510804681
				24:leaf=-0.000145592843
			12:[f7204<1.18326294] yes=25,no=26,missing=25
				25:leaf=-0.000973316724
				26:leaf=0.00657915091
		6:[f430<1.18168461] yes=13,no=14,missing=13
			13:[f9273<2.27642226] yes=27,no=28,missing=27
				27:leaf=0.00307397218
				28:leaf=0.00981518254
			14:[f688<0.583668292] yes=29,no=30,missing=29
				29:leaf=0.00192588335
				30:leaf=0.013443036
booster[17]:
0:[f7271<1.50138187] yes=1,no=2,missing=1
	1:[f222<2.4253931] yes=3,no=4,missing=3
		3:[f9253<0.128891021] yes=7,no=8,missing=7
			7:[f3245<6.77383709] yes=15,no=16,missing=15
				15:leaf=-0.0147373863
				16:leaf=-0.00726151234
			8:[f3245<6.25719595] yes=17,no=18,missing=17
				17:leaf=-0.0108155217
				18:leaf=-0.00285519403
		4:[f9253<0.11580205] yes=9,no=10,missing=9
			9:[f222<3.36398363] yes=19,no=20,missing=19
				19:leaf=-0.0105951726
				20:leaf=-0.00423243036
			10:[f430<1.06997144] yes=21,no=22,missing=21
				21:leaf=-0.00596306613
				22:leaf=-0.000247156771
	2:[f7212<2.51097775] yes=5,no=6,missing=5
		5:[f222<2.89068723] yes=11,no=12,missing=11
			11:[f8500<0.121193118] yes=23,no=24,missing=23
				23:leaf=-0.00439864257
				24:leaf=0.00151328009
			12:[f8420<0.0242039375] yes=25,no=26,missing=25
				25:leaf=0.000237192624
				26:leaf=0.00616424391
		6:[f9214<2.44901848] yes=13,no=14,missing=13
			13:[f219<0.335072935] yes=27,no=28,missing=27
				27:leaf=0.00131801621
				28:leaf=0.00875615608
			14:[f6416<0.000169454041] yes=29,no=30,missing=29
				29:leaf=0.000679980847
				30:leaf=0.013605658
booster[18]:
0:[f7271<1.53340292] yes=1,no=2,missing=1
	1:[f222<2.37290478] yes=3,no=4,missing=3
		3:[f9253<0.13653031] yes=7,no=8,missing=7
			7:[f3245<6.7504549] yes=15,no=16,missing=15
				15:leaf=-0.0145983202
				16:leaf=-0.00718375947
			8:[f9236<0.413787663] yes=17,no=18,missing=17
				17:leaf=-0.0106333746
				18:leaf=-0.00234937598
		4:[f7204<0.705765367] yes=9,no=10,missing=9
			9:[f3157<14.9111509] yes=19,no=20,missing=19
				19:leaf=-0.0101436554
				20:leaf=-0.00347620365
			10:[f222<3.02079272] yes=21,no=22,missing=21
				21:leaf=-0.00521220965
				22:leaf=0.000641018443
	2:[f7212<2.51097775] yes=5,no=6,missing=5
		5:[f222<2.8616538] yes=11,no=12,missing=11
			11:[f8129<0.159670413] yes=23,no=24,missing=23
				23:leaf=-0.00535753043
				24:leaf=-0.000682018173
			12:[f8129<0.110199809] yes=25,no=26,missing=25
				25:leaf=-0.000662130245
				26:leaf=0.00566776004
		6:[f9214<2.49751902] yes=13,no=14,missing=13
			13:[f219<0.371807277] yes=27,no=28,missing=27
				27:leaf=0.00236015767
				28:leaf=0.0092533445
			14:[f4414<0.000283864501] yes=29,no=30,missing=29
				29:leaf=-0.000101498168
				30:leaf=0.0135418698
booster[19]:
0:[f7271<1.67835116] yes=1,no=2,missing=1
	1:[f3200<3.72146916] yes=3,no=4,missing=3
		3:[f9253<0.142710701] yes=7,no=8,missing=7
			7:[f3245<7.18707609] yes=15,no=16,missing=15
				15:leaf=-0.0142401047
				16:leaf=-0.00519850384
			8:[f210<0.255342513] yes=17,no=18,missing=17
				17:leaf=-0.0108640259
				18:leaf=-0.00600029202
		4:[f420<0.0931912512] yes=9,no=10,missing=9
			9:[f9236<0.350786269] yes=19,no=20,missing=19
				19:leaf=-0.00976742059
				20:leaf=-0.00231633987
			10:[f8129<0.0677080601] yes=21,no=22,missing=21
				21:leaf=-0.00673405919
				22:leaf=-0.000589837844
	2:[f7212<2.52295947] yes=5,no=6,missing=5
		5:[f222<3.25513697] yes=11,no=12,missing=11
			11:[f8129<0.125638038] yes=23,no=24,missing=23
				23:leaf=-0.00463887071
				24:leaf=0.000291492586
			12:[f9261<0.53535831] yes=25,no=26,missing=25
				25:leaf=0.000568623887
				26:leaf=0.00770650618
		6:[f430<1.18168461] yes=13,no=14,missing=13
			13:[f9273<2.27642226] yes=27,no=28,missing=27
				27:leaf=0.00292446255
				28:leaf=0.0095392447
			14:[f1198<7.07091856] yes=29,no=30,missing=29
				29:leaf=-0.000465978199
				30:leaf=0.0130222151
booster[20]:
0:[f7271<1.50138187] yes=1,no=2,missing=1
	1:[f222<2.4253931] yes=3,no=4,missing=3
		3:[f9253<0.128891021] yes=7,no=8,missing=7
			7:[f3245<6.77383709] yes=15,no=16,missing=15
				15:leaf=-0.0143988281
				16:leaf=-0.00707739918
			8:[f3041<12.7328415] yes=17,no=18,missing=17
				17:leaf=-0.0107486499
				18:leaf=-0.0044651241
		4:[f9253<0.108593687] yes=9,no=10,missing=9
			9:[f206<2.17617655] yes=19,no=20,missing=19
				19:leaf=-0.0102855656
				20:leaf=-0.00196462171
			10:[f430<1.06997144] yes=21,no=22,missing=21
				21:leaf=-0.00602145167
				22:leaf=-0.000403872109
	2:[f7212<2.51097775] yes=5,no=6,missing=5
		5:[f222<2.89068723] yes=11,no=12,missing=11
			11:[f8500<0.121193118] yes=23,no=24,missing=23
				23:leaf=-0.00429516006
				24:leaf=0.00154274621
			12:[f8420<0.0242039375] yes=25,no=26,missing=25
				25:leaf=0.000222723669
				26:leaf=0.00603140797
		6:[f8438<0.0661984831] yes=13,no=14,missing=13
			13:[f1198<13.7249374] yes=27,no=28,missing=27
				27:leaf=7.35419962e-05
				28:leaf=0.00605604379
			14:[f4125<0.70926404] yes=29,no=30,missing=29
				29:leaf=0.00519675342
				30:leaf=0.012532766
booster[21]:
0:[f7271<1.41632235] yes=1,no=2,missing=1
	1:[f222<2.28515053] yes=3,no=4,missing=3
		3:[f9295<0.253968418] yes=7,no=8,missing=7
			7:[f3245<6.7510891] yes=15,no=16,missing=15
				15:leaf=-0.0139362691
				16:leaf=-0.00603266992
			8:[f9236<0.417765439] yes=17,no=18,missing=17
				17:leaf=-0.00831981283
				18:leaf=-0.00214648061
		4:[f9253<0.108515218] yes=9,no=10,missing=9
			9:[f206<2.17617655] yes=19,no=20,missing=19
				19:leaf=-0.0107191345
				20:leaf=-0.00196216325
			10:[f430<1.06997144] yes=21,no=22,missing=21
				21:leaf=-0.00673281774
				22:leaf=-0.000795043365
	2:[f7212<2.12416363] yes=5,no=6,missing=5
		5:[f222<2.85618615] yes=11,no=12,missing=11
			11:[f8500<0.121374562] yes=23,no=24,missing=23
				23:leaf=-0.00535983872
				24:leaf=0.000204761935
			12:[f6764<0.109013692] yes=25,no=26,missing=25
				25:leaf=0.00440920377
				26:leaf=-0.00275431131
		6:[f9214<2.44901848] yes=13,no=14,missing=13
			13:[f430<1.19651198] yes=27,no=28,missing=27
				27:leaf=0.00295197777
				28:leaf=0.0096033942
			14:[f6416<0.000169454041] yes=29,no=30,missing=29
				29:leaf=0.000586589216
				30:leaf=0.0132069429
booster[22]:
0:[f7271<1.41632235] yes=1,no=2,missing=1
	1:[f222<2.32756329] yes=3,no=4,missing=3
		3:[f9253<0.142842114] yes=7,no=8,missing=7
			7:[f3245<6.75327206] yes=15,no=16,missing=15
				15:leaf=-0.0142005133
				16:leaf=-0.00696253264
			8:[f9236<0.417765439] yes=17,no=18,missing=17
				17:leaf=-0.0104075074
				18:leaf=-0.00180341699
		4:[f9253<0.108390421] yes=9,no=10,missing=9
			9:[f206<2.17617655] yes=19,no=20,missing=19
				19:leaf=-0.0104800928
				20:leaf=-0.00192170998
			10:[f430<1.06997144] yes=21,no=22,missing=21
				21:leaf=-0.00654533831
				22:leaf=-0.000758465671
	2:[f7212<2.12416363] yes=5,no=6,missing=5
		5:[f222<2.85618615] yes=11,no=12,missing=11
			11:[f8500<0.121374562] yes=23,no=24,missing=23
				23:leaf=-0.00530901225
				24:leaf=0.000202915136
			12:[f6764<0.109013692] yes=25,no=26,missing=25
				25:leaf=0.00436778227
				26:leaf=-0.00273040193
		6:[f9214<2.44901848] yes=13,no=14,missing=13
			13:[f430<1.19651198] yes=27,no=28,missing=27
				27:leaf=0.00292426674
				28:leaf=0.00952349976
			14:[f6416<0.000169454041] yes=29,no=30,missing=29
				29:leaf=0.000584404101
				30:leaf=0.013103121
booster[23]:
0:[f7271<1.67835116] yes=1,no=2,missing=1
	1:[f3200<3.67715526] yes=3,no=4,missing=3
		3:[f9253<0.163361609] yes=7,no=8,missing=7
			7:[f3917<0.466403008] yes=15,no=16,missing=15
				15:leaf=-0.0139104296
				16:leaf=-0.00871136785
			8:[f4273<0.108716697] yes=17,no=18,missing=17
				17:leaf=-0.000659504673
				18:leaf=-0.00942179933
		4:[f420<0.0931912512] yes=9,no=10,missing=9
			9:[f9261<0.478631318] yes=19,no=20,missing=19
				19:leaf=-0.0100529809
				20:leaf=-0.00495046237
			10:[f9253<0.124339059] yes=21,no=22,missing=21
				21:leaf=-0.00662298594
				22:leaf=-0.00061030715
	2:[f9261<1.41661549] yes=5,no=6,missing=5
		5:[f430<1.01814651] yes=11,no=12,missing=11
			11:[f8756<0.0142189506] yes=23,no=24,missing=23
				23:leaf=0.001486219
				24:leaf=-0.00393852452
			12:[f222<3.35255408] yes=25,no=26,missing=25
				25:leaf=0.00217824569
				26:leaf=0.00751901511
		6:[f430<0.842841506] yes=13,no=14,missing=13
			13:[f8223<0.116497837] yes=27,no=28,missing=27
				27:leaf=-0.000253769045
				28:leaf=0.00639903219
			14:[f416<0.0164062083] yes=29,no=30,missing=29
				29:leaf=3.15556426e-05
				30:leaf=0.0124559272
booster[24]:
0:[f5202<2.22705483] yes=1,no=2,missing=1
	1:[f7251<0.235558093] yes=3,no=4,missing=3
		3:[f430<0.870302379] yes=7,no=8,missing=7
			7:[f3245<6.55173349] yes=15,no=16,missing=15
				15:leaf=-0.0141545841
				16:leaf=-0.00693902466
			8:[f206<2.19288206] yes=17,no=18,missing=17
				17:leaf=-0.00970338471
				18:leaf=-0.00082124304
		4:[f222<2.39831042] yes=9,no=10,missing=9
			9:[f9261<0.855553687] yes=19,no=20,missing=19
				19:leaf=-0.0100491233
				20:leaf=-0.00030199968
			10:[f9236<0.303524733] yes=21,no=22,missing=21
				21:leaf=-0.00490503293
				22:leaf=0.00220144913
	2:[f7212<2.52295947] yes=5,no=6,missing=5
		5:[f430<0.911126852] yes=11,no=12,missing=11
			11:[f1756<1.08407116] yes=23,no=24,missing=23
				23:leaf=0.0027511986
				24:leaf=-0.00486765709
			12:[f222<3.37677336] yes=25,no=26,missing=25
				25:leaf=0.00130263204
				26:leaf=0.00630290387
		6:[f430<1.18168461] yes=13,no=14,missing=13
			13:[f9214<2.49472761] yes=27,no=28,missing=27
				27:leaf=0.00372992037
				28:leaf=0.00984701701
			14:[f1201<0.870782077] yes=29,no=30,missing=29
				29:leaf=-0.000552996411
				30:leaf=0.0126134111
booster[25]:
0:[f7271<1.41632235] yes=1,no=2,missing=1
	1:[f222<2.28515053] yes=3,no=4,missing=3
		3:[f9295<0.253968418] yes=7,no=8,missing=7
			7:[f3245<6.7510891] yes=15,no=16,missing=15
				15:leaf=-0.0135299489
				16:leaf=-0.00576969981
			8:[f9236<0.417765439] yes=17,no=18,missing=17
				17:leaf=-0.00800389238
				18:leaf=-0.00199937494
		4:[f9253<0.096709244] yes=9,no=10,missing=9
			9:[f4933<4.29363394] yes=19,no=20,missing=19
				19:leaf=-0.0107664214
				20:leaf=-0.000565980561
			10:[f430<1.06921458] yes=21,no=22,missing=21
				21:leaf=-0.00675577763
				22:leaf=-0.00126676785
	2:[f7212<2.09981346] yes=5,no=6,missing=5
		5:[f222<2.85618615] yes=11,no=12,missing=11
			11:[f8129<0.0966750011] yes=23,no=24,missing=23
				23:leaf=-0.00730102276
				24:leaf=-0.00267083361
			12:[f6764<0.109013692] yes=25,no=26,missing=25
				25:leaf=0.00420856057
				26:leaf=-0.00277342461
		6:[f9214<2.44901848] yes=13,no=14,missing=13
			13:[f222<2.91698194] yes=27,no=28,missing=27
				27:leaf=0.00244065071
				28:leaf=0.00894543435
			14:[f6416<0.000169454041] yes=29,no=30,missing=29
				29:leaf=0.000517620589
				30:leaf=0.0128285848
booster[26]:
0:[f7271<1.41632235] yes=1,no=2,missing=1
	1:[f222<2.28515053] yes=3,no=4,missing=3
		3:[f9253<0.137207687] yes=7,no=8,missing=7
			7:[f8712<0.0790116489] yes=15,no=16,missing=15
				15:leaf=-0.0137326987
				16:leaf=0.000676210388
			8:[f3140<17.5486717] yes=17,no=18,missing=17
				17:leaf=-0.0102532394
				18:leaf=-0.00124902138
		4:[f7204<0.705765367] yes=9,no=10,missing=9
			9:[f3157<13.492363] yes=19,no=20,missing=19
				19:leaf=-0.0100000435
				20:leaf=-0.00413971161
			10:[f222<3.1406188] yes=21,no=22,missing=21
				21:leaf=-0.00506130792
				22:leaf=0.000886806753
	2:[f7212<2.09981346] yes=5,no=6,missing=5
		5:[f222<2.85618615] yes=11,no=12,missing=11
			11:[f8500<0.0914108455] yes=23,no=24,missing=23
				23:leaf=-0.00550366612
				24:leaf=-0.000814655097
			12:[f6764<0.109013692] yes=25,no=26,missing=25
				25:leaf=0.00416912884
				26:leaf=-0.00274941232
		6:[f9214<2.44901848] yes=13,no=14,missing=13
			13:[f222<2.91698194] yes=27,no=28,missing=27
				27:leaf=0.00241777976
				28:leaf=0.00887051225
			14:[f6416<0.000169454041] yes=29,no=30,missing=29
				29:leaf=0.000515694614
				30:leaf=0.0127308723
booster[27]:
0:[f5202<2.22705483] yes=1,no=2,missing=1
	1:[f7251<0.235558093] yes=3,no=4,missing=3
		3:[f430<0.870302379] yes=7,no=8,missing=7
			7:[f3245<6.55173349] yes=15,no=16,missing=15
				15:leaf=-0.0138582755
				16:leaf=-0.00674464693
			8:[f206<2.12420106] yes=17,no=18,missing=17
				17:leaf=-0.00955229439
				18:leaf=-0.00182833872
		4:[f222<2.39831042] yes=9,no=10,missing=9
			9:[f9261<0.855553687] yes=19,no=20,missing=19
				19:leaf=-0.00979420915
				20:leaf=-0.000259600754
			10:[f9236<0.303524733] yes=21,no=22,missing=21
				21:leaf=-0.00477103796
				22:leaf=0.00219118944
	2:[f7212<2.52295947] yes=5,no=6,missing=5
		5:[f430<0.911126852] yes=11,no=12,missing=11
			11:[f1756<1.08407116] yes=23,no=24,missing=23
				23:leaf=0.00275539444
				24:leaf=-0.00475590723
			12:[f222<3.37677336] yes=25,no=26,missing=25
				25:leaf=0.00128881517
				26:leaf=0.00618247967
		6:[f430<1.18168461] yes=13,no=14,missing=13
			13:[f9214<2.49472761] yes=27,no=28,missing=27
				27:leaf=0.00362575683
				28:leaf=0.00958601944
			14:[f1654<8.65073395] yes=29,no=30,missing=29
				29:leaf=-0.000134643618
				30:leaf=0.0123834098
booster[28]:
0:[f7271<1.41632235] yes=1,no=2,missing=1
	1:[f222<2.28515053] yes=3,no=4,missing=3
		3:[f9295<0.253968418] yes=7,no=8,missing=7
			7:[f3245<6.7510891] yes=15,no=16,missing=15
				15:leaf=-0.0132388575
				16:leaf=-0.00556466961
			8:[f9236<0.417765439] yes=17,no=18,missing=17
				17:leaf=-0.00777426036
				18:leaf=-0.00185445079
		4:[f9253<0.096709244] yes=9,no=10,missing=9
			9:[f206<1.99187016] yes=19,no=20,missing=19
				19:leaf=-0.0108297914
				20:leaf=-0.00427304534
			10:[f430<1.06921458] yes=21,no=22,missing=21
				21:leaf=-0.00657653296
				22:leaf=-0.00118130632
	2:[f7212<2.09981346] yes=5,no=6,missing=5
		5:[f222<2.85618615] yes=11,no=12,missing=11
			11:[f8129<0.0966750011] yes=23,no=24,missing=23
				23:leaf=-0.00715249777
				24:leaf=-0.00256851618
			12:[f6764<0.109013692] yes=25,no=26,missing=25
				25:leaf=0.00411261572
				26:leaf=-0.0027288252
		6:[f430<1.18162632] yes=13,no=14,missing=13
			13:[f9273<1.81218672] yes=27,no=28,missing=27
				27:leaf=0.000597847626
				28:leaf=0.00749665406
			14:[f1245<3.62459826] yes=29,no=30,missing=29
				29:leaf=0.000408276508
				30:leaf=0.0116439937
booster[29]:
0:[f5202<2.22705483] yes=1,no=2,missing=1
	1:[f7251<0.235558093] yes=3,no=4,missing=3
		3:[f430<0.870302379] yes=7,no=8,missing=7
			7:[f3245<6.55173349] yes=15,no=16,missing=15
				15:leaf=-0.0136673534
				16:leaf=-0.00663380418
			8:[f206<2.12420106] yes=17,no=18,missing=17
				17:leaf=-0.00939542148
				18:leaf=-0.00179360202
		4:[f222<2.64121628] yes=9,no=10,missing=9
			9:[f9236<0.355977386] yes=19,no=20,missing=19
				19:leaf=-0.00942009408
				20:leaf=-0.00232288498
			10:[f9253<0.19169873] yes=21,no=22,missing=21
				21:leaf=-0.00480049429
				22:leaf=0.000255195599
	2:[f7212<2.52295947] yes=5,no=6,missing=5
		5:[f430<0.911126852] yes=11,no=12,missing=11
			11:[f3782<0.617280185] yes=23,no=24,missing=23
				23:leaf=0.001658789
				24:leaf=-0.00491246395
			12:[f430<1.40254045] yes=25,no=26,missing=25
				25:leaf=0.00162608037
				26:leaf=0.00680758897
		6:[f430<0.885212302] yes=13,no=14,missing=13
			13:[f8438<0.0640183985] yes=27,no=28,missing=27
				27:leaf=0.000116278548
				28:leaf=0.00560731627
			14:[f2123<1.1571852] yes=29,no=30,missing=29
				29:leaf=0.00281480583
				30:leaf=0.0115132416
booster[30]:
0:[f7271<1.41632235] yes=1,no=2,missing=1
	1:[f222<2.2092247] yes=3,no=4,missing=3
		3:[f9295<0.253968418] yes=7,no=8,missing=7
			7:[f1155<23.2344322] yes=15,no=16,missing=15
				15:leaf=-0.0133412816
				16:leaf=-0.00808340963
			8:[f9236<0.417765439] yes=17,no=18,missing=17
				17:leaf=-0.00784089696
				18:leaf=-0.00183038542
		4:[f5202<1.44507849] yes=9,no=10,missing=9
			9:[f5247<2.4989624] yes=19,no=20,missing=19
				19:leaf=-0.00983290933
				20:leaf=-0.00288833515
			10:[f207<0.962327123] yes=21,no=22,missing=21
				21:leaf=-0.00512067834
				22:leaf=0.000467560109
	2:[f7212<2.09981346] yes=5,no=6,missing=5
		5:[f222<2.85618615] yes=11,no=12,missing=11
			11:[f8500<0.121374562] yes=23,no=24,missing=23
				23:leaf=-0.00499415351
				24:leaf=0.000329814851
			12:[f6764<0.109013692] yes=25,no=26,missing=25
				25:leaf=0.00405609934
				26:leaf=-0.00270784018
		6:[f9214<2.44901848] yes=13,no=14,missing=13
			13:[f222<2.91698194] yes=27,no=28,missing=27
				27:leaf=0.00232137623
				28:leaf=0.00858135801
			14:[f6416<0.000169454041] yes=29,no=30,missing=29
				29:leaf=0.000421882956
				30:leaf=0.0124064516
booster[31]:
0:[f7271<1.41632235] yes=1,no=2,missing=1
	1:[f222<2.2092247] yes=3,no=4,missing=3
		3:[f9295<0.253968418] yes=7,no=8,missing=7
			7:[f1155<23.2344322] yes=15,no=16,missing=15
				15:leaf=-0.0132459933
				16:leaf=-0.00801800378
			8:[f9236<0.417765439] yes=17,no=18,missing=17
				17:leaf=-0.00777768483
				18:leaf=-0.00181675039
		4:[f5202<1.44507849] yes=9,no=10,missing=9
			9:[f5247<2.4989624] yes=19,no=20,missing=19
				19:leaf=-0.00975165982
				20:leaf=-0.00286525395
			10:[f207<0.962327123] yes=21,no=22,missing=21
				21:leaf=-0.00507356506
				22:leaf=0.000463348959
	2:[f7212<2.12416363] yes=5,no=6,missing=5
		5:[f222<2.85618615] yes=11,no=12,missing=11
			11:[f8129<0.0966750011] yes=23,no=24,missing=23
				23:leaf=-0.00700558955
				24:leaf=-0.00244328752
			12:[f6764<0.109013692] yes=25,no=26,missing=25
				25:leaf=0.00409741094
				26:leaf=-0.00262858486
		6:[f9214<2.44901848] yes=13,no=14,missing=13
			13:[f430<1.19651198] yes=27,no=28,missing=27
				27:leaf=0.00268804282
				28:leaf=0.0088657327
			14:[f6416<0.000169454041] yes=29,no=30,missing=29
				29:leaf=0.000420315453
				30:leaf=0.0123151941
booster[32]:
0:[f5202<2.00466657] yes=1,no=2,missing=1
	1:[f7251<0.220324859] yes=3,no=4,missing=3
		3:[f430<0.870678842] yes=7,no=8,missing=7
			7:[f8712<0.0790116489] yes=15,no=16,missing=15
				15:leaf=-0.0133253532
				16:leaf=0.001722652
			8:[f206<2.19093561] yes=17,no=18,missing=17
				17:leaf=-0.00941556133
				18:leaf=-0.00051651441
		4:[f204<1.41106582] yes=9,no=10,missing=9
			9:[f3245<6.2562871] yes=19,no=20,missing=19
				19:leaf=-0.0100924475
				20:leaf=-0.00329686189
			10:[f9261<0.529106617] yes=21,no=22,missing=21
				21:leaf=-0.00601368304
				22:leaf=2.79496489e-05
	2:[f7212<2.0999012] yes=5,no=6,missing=5
		5:[f420<0.0928296] yes=11,no=12,missing=11
			11:[f222<2.05923176] yes=23,no=24,missing=23
				23:leaf=-0.00743721239
				24:leaf=-0.00335925841
			12:[f430<1.28882587] yes=25,no=26,missing=25
				25:leaf=-0.000153704808
				26:leaf=0.00543904491
		6:[f9214<2.44351053] yes=13,no=14,missing=13
			13:[f222<2.91708159] yes=27,no=28,missing=27
				27:leaf=0.0024219011
				28:leaf=0.00841069408
			14:[f6416<0.000169454041] yes=29,no=30,missing=29
				29:leaf=0.000632991432
				30:leaf=0.0122652277
booster[33]:
0:[f7271<1.41632235] yes=1,no=2,missing=1
	1:[f222<2.2092247] yes=3,no=4,missing=3
		3:[f9253<0.138783917] yes=7,no=8,missing=7
			7:[f8712<0.0790116489] yes=15,no=16,missing=15
				15:leaf=-0.0132206744
				16:leaf=0.000957673416
			8:[f3140<17.5477295] yes=17,no=18,missing=17
				17:leaf=-0.00976896007
				18:leaf=-0.000562804984
		4:[f5202<1.44507849] yes=9,no=10,missing=9
			9:[f5247<2.4989624] yes=19,no=20,missing=19
				19:leaf=-0.00959494524
				20:leaf=-0.00277568027
			10:[f207<0.962327123] yes=21,no=22,missing=21
				21:leaf=-0.00498143025
				22:leaf=0.000472570129
	2:[f7212<2.09981346] yes=5,no=6,missing=5
		5:[f222<2.85618615] yes=11,no=12,missing=11
			11:[f8129<0.0966750011] yes=23,no=24,missing=23
				23:leaf=-0.00690750545
				24:leaf=-0.00240502087
			12:[f6764<0.109013692] yes=25,no=26,missing=25
				25:leaf=0.00396938622
				26:leaf=-0.00265398133
		6:[f430<1.01330328] yes=13,no=14,missing=13
			13:[f9255<3.02763486] yes=27,no=28,missing=27
				27:leaf=0.000362785155
				28:leaf=0.00665067835
			14:[f9261<1.41388881] yes=29,no=30,missing=29
				29:leaf=0.00638740649
				30:leaf=0.0118582528
booster[34]:
0:[f5202<2.00466657] yes=1,no=2,missing=1
	1:[f7251<0.220324859] yes=3,no=4,missing=3
		3:[f430<0.870678842] yes=7,no=8,missing=7
			7:[f8712<0.0790116489] yes=15,no=16,missing=15
				15:leaf=-0.0131471008
				16:leaf=0.00171560165
			8:[f206<2.19093561] yes=17,no=18,missing=17
				17:leaf=-0.00926601607
				18:leaf=-0.000474726985
		4:[f204<1.41106582] yes=9,no=10,missing=9
			9:[f3245<6.2562871] yes=19,no=20,missing=19
				19:leaf=-0.00993503816
				20:leaf=-0.00321512367
			10:[f9261<0.529106617] yes=21,no=22,missing=21
				21:leaf=-0.00590590481
				22:leaf=5.12205697e-05
	2:[f7212<2.0999012] yes=5,no=6,missing=5
		5:[f420<0.0928296] yes=11,no=12,missing=11
			11:[f222<2.05923176] yes=23,no=24,missing=23
				23:leaf=-0.00732214749
				24:leaf=-0.00329161715
			12:[f430<1.28882587] yes=25,no=26,missing=25
				25:leaf=-0.000138500807
				26:leaf=0.0053747152
		6:[f9214<2.44351053] yes=13,no=14,missing=13
			13:[f222<2.91708159] yes=27,no=28,missing=27
				27:leaf=0.00236176164
				28:leaf=0.00827619806
			14:[f6416<0.000169454041] yes=29,no=30,missing=29
				29:leaf=0.000598932675
				30:leaf=0.0121022584
booster[35]:
0:[f7271<1.41632235] yes=1,no=2,missing=1
	1:[f222<2.2092247] yes=3,no=4,missing=3
		3:[f9295<0.253968418] yes=7,no=8,missing=7
			7:[f1155<23.2344322] yes=15,no=16,missing=15
				15:leaf=-0.0128983138
				16:leaf=-0.0077083013
			8:[f9236<0.417765439] yes=17,no=18,missing=17
				17:leaf=-0.00748590892
				18:leaf=-0.00159917818
		4:[f9253<0.0965495706] yes=9,no=10,missing=9
			9:[f4933<4.29385757] yes=19,no=20,missing=19
				19:leaf=-0.0102023305
				20:leaf=-0.000158431751
			10:[f430<1.06921458] yes=21,no=22,missing=21
				21:leaf=-0.00644046068
				22:leaf=-0.00098230585
	2:[f7212<2.12416363] yes=5,no=6,missing=5
		5:[f222<2.93564057] yes=11,no=12,missing=11
			11:[f8500<0.0937915891] yes=23,no=24,missing=23
				23:leaf=-0.00498165749
				24:leaf=-0.000110303052
			12:[f6764<0.10887076] yes=25,no=26,missing=25
				25:leaf=0.00436499203
				26:leaf=-0.00230517075
		6:[f430<1.18162632] yes=13,no=14,missing=13
			13:[f9273<1.81218672] yes=27,no=28,missing=27
				27:leaf=0.000463027944
				28:leaf=0.00708193937
			14:[f1245<3.62459826] yes=29,no=30,missing=29
				29:leaf=0.000123725782
				30:leaf=0.0111490404
booster[36]:
0:[f5202<2.00466657] yes=1,no=2,missing=1
	1:[f7251<0.220324859] yes=3,no=4,missing=3
		3:[f430<0.870678842] yes=7,no=8,missing=7
			7:[f8712<0.0790116489] yes=15,no=16,missing=15
				15:leaf=-0.0129766148
				16:leaf=0.0017498848
			8:[f206<2.19093561] yes=17,no=18,missing=17
				17:leaf=-0.00911858957
				18:leaf=-0.00043080296
		4:[f204<1.41106582] yes=9,no=10,missing=9
			9:[f3245<6.2562871] yes=19,no=20,missing=19
				19:leaf=-0.00977602601
				20:leaf=-0.00313416449
			10:[f9261<0.529106617] yes=21,no=22,missing=21
				21:leaf=-0.00580527121
				22:leaf=7.39880852e-05
	2:[f7212<2.0999012] yes=5,no=6,missing=5
		5:[f420<0.0928296] yes=11,no=12,missing=11
			11:[f222<2.05923176] yes=23,no=24,missing=23
				23:leaf=-0.00721021974
				24:leaf=-0.00322500756
			12:[f430<1.28882587] yes=25,no=26,missing=25
				25:leaf=-0.000124834653
				26:leaf=0.00531413546
		6:[f9214<2.44351053] yes=13,no=14,missing=13
			13:[f430<1.18633676] yes=27,no=28,missing=27
				27:leaf=0.00257432717
				28:leaf=0.00846024044
			14:[f6416<0.000169454041] yes=29,no=30,missing=29
				29:leaf=0.000567739829
				30:leaf=0.0119487913
booster[37]:
0:[f9273<0.861118078] yes=1,no=2,missing=1
	1:[f3200<4.2562809] yes=3,no=4,missing=3
		3:[f9253<0.0854665041] yes=7,no=8,missing=7
			7:[f8712<0.0864581019] yes=15,no=16,missing=15
				15:leaf=-0.0131240319
				16:leaf=0.00131220499
			8:[f210<0.253541768] yes=17,no=18,missing=17
				17:leaf=-0.010705268
				18:leaf=-0.00665848935
		4:[f5121<0.259845197] yes=9,no=10,missing=9
			9:[f440<0.386560917] yes=19,no=20,missing=19
				19:leaf=-0.00370689621
				20:leaf=0.00208278303
			10:[f9261<0.385863185] yes=21,no=22,missing=21
				21:leaf=-0.00918652769
				22:leaf=-0.0040906053
	2:[f5210<4.1565094] yes=5,no=6,missing=5
		5:[f210<0.279052675] yes=11,no=12,missing=11
			11:[f8497<0.00402809959] yes=23,no=24,missing=23
				23:leaf=-0.00486389548
				24:leaf=0.000386535045
			12:[f9253<0.310362875] yes=25,no=26,missing=25
				25:leaf=-0.00120715681
				26:leaf=0.00409003766
		6:[f8230<0.168504477] yes=13,no=14,missing=13
			13:[f1253<17.6015244] yes=27,no=28,missing=27
				27:leaf=-0.000518087705
				28:leaf=0.00547910715
			14:[f8575<0.000260084169] yes=29,no=30,missing=29
				29:leaf=-0.00195304002
				30:leaf=0.0107087549
booster[38]:
0:[f5202<2.00466657] yes=1,no=2,missing=1
	1:[f7251<0.220324859] yes=3,no=4,missing=3
		3:[f430<0.870678842] yes=7,no=8,missing=7
			7:[f3245<6.55173349] yes=15,no=16,missing=15
				15:leaf=-0.0129906638
				16:leaf=-0.00610280456
			8:[f206<2.19093561] yes=17,no=18,missing=17
				17:leaf=-0.00897079706
				18:leaf=-0.000395564479
		4:[f222<2.49367905] yes=9,no=10,missing=9
			9:[f9236<0.341424644] yes=19,no=20,missing=19
				19:leaf=-0.00943977665
				20:leaf=-0.00268992083
			10:[f9261<0.528104305] yes=21,no=22,missing=21
				21:leaf=-0.00498062139
				22:leaf=0.000678216049
	2:[f7212<2.0999012] yes=5,no=6,missing=5
		5:[f420<0.0928296] yes=11,no=12,missing=11
			11:[f222<2.05923176] yes=23,no=24,missing=23
				23:leaf=-0.00710874284
				24:leaf=-0.00316950306
			12:[f430<1.28882587] yes=25,no=26,missing=25
				25:leaf=-0.000113781825
				26:leaf=0.0052609765
		6:[f9214<2.44351053] yes=13,no=14,missing=13
			13:[f222<2.91708159] yes=27,no=28,missing=27
				27:leaf=0.00224595284
				28:leaf=0.00801639445
			14:[f6416<0.000169454041] yes=29,no=30,missing=29
				29:leaf=0.000541193527
				30:leaf=0.0117951417
booster[39]:
0:[f9273<0.848406255] yes=1,no=2,missing=1
	1:[f3200<4.2562809] yes=3,no=4,missing=3
		3:[f9253<0.0854665041] yes=7,no=8,missing=7
			7:[f8712<0.0864581019] yes=15,no=16,missing=15
				15:leaf=-0.0129610365
				16:leaf=0.00134107657
			8:[f210<0.253541768] yes=17,no=18,missing=17
				17:leaf=-0.0105615091
				18:leaf=-0.00653213076
		4:[f5121<0.257087648] yes=9,no=10,missing=9
			9:[f440<0.386560917] yes=19,no=20,missing=19
				19:leaf=-0.00363389938
				20:leaf=0.00208181492
			10:[f9261<0.385863185] yes=21,no=22,missing=21
				21:leaf=-0.00904323813
				22:leaf=-0.00422496768
	2:[f5210<4.1565094] yes=5,no=6,missing=5
		5:[f210<0.279052675] yes=11,no=12,missing=11
			11:[f9253<0.511088312] yes=23,no=24,missing=23
				23:leaf=-0.00481412746
				24:leaf=0.000241919421
			12:[f9253<0.310362875] yes=25,no=26,missing=25
				25:leaf=-0.00123494887
				26:leaf=0.00403917069
		6:[f8230<0.168504477] yes=13,no=14,missing=13
			13:[f1253<17.6015244] yes=27,no=28,missing=27
				27:leaf=-0.000623104628
				28:leaf=0.00533188228
			14:[f8575<0.000260084169] yes=29,no=30,missing=29
				29:leaf=-0.00195388938
				30:leaf=0.0105603728
booster[40]:
0:[f7271<1.41632235] yes=1,no=2,missing=1
	1:[f222<2.2092247] yes=3,no=4,missing=3
		3:[f9253<0.138783917] yes=7,no=8,missing=7
			7:[f8712<0.0790116489] yes=15,no=16,missing=15
				15:leaf=-0.0126453703
				16:leaf=0.00106272998
			8:[f3304<18.6899376] yes=17,no=18,missing=17
				17:leaf=-0.00928251632
				18:leaf=-0.000792492996
		4:[f9253<0.0965495706] yes=9,no=10,missing=9
			9:[f5228<3.01639867] yes=19,no=20,missing=19
				19:leaf=-0.00987797324
				20:leaf=-0.000995707931
			10:[f430<1.06921458] yes=21,no=22,missing=21
				21:leaf=-0.00614799885
				22:leaf=-0.000853172271
	2:[f9261<1.33636189] yes=5,no=6,missing=5
		5:[f430<1.06209016] yes=11,no=12,missing=11
			11:[f1590<12.5280027] yes=23,no=24,missing=23
				23:leaf=-0.00484230649
				24:leaf=0.000201977338
			12:[f5202<2.62708759] yes=25,no=26,missing=25
				25:leaf=0.000423154299
				26:leaf=0.00572361657
		6:[f210<0.301499337] yes=13,no=14,missing=13
			13:[f8223<0.116188318] yes=27,no=28,missing=27
				27:leaf=-0.000174099652
				28:leaf=0.0055453903
			14:[f2123<1.05670691] yes=29,no=30,missing=29
				29:leaf=0.00182889751
				30:leaf=0.0111604389
booster[41]:
0:[f5202<2.00466657] yes=1,no=2,missing=1
	1:[f7251<0.220324859] yes=3,no=4,missing=3
		3:[f430<0.870678842] yes=7,no=8,missing=7
			7:[f3245<6.55173349] yes=15,no=16,missing=15
				15:leaf=-0.0127524035
				16:leaf=-0.00590454321
			8:[f206<2.19093561] yes=17,no=18,missing=17
				17:leaf=-0.00875634607
				18:leaf=-0.000321172178
		4:[f222<2.49367905] yes=9,no=10,missing=9
			9:[f9236<0.341424644] yes=19,no=20,missing=19
				19:leaf=-0.00922450796
				20:leaf=-0.00258361152
			10:[f9261<0.528104305] yes=21,no=22,missing=21
				21:leaf=-0.00484486111
				22:leaf=0.000702779449
	2:[f7212<2.0999012] yes=5,no=6,missing=5
		5:[f420<0.0928296] yes=11,no=12,missing=11
			11:[f7212<1.7410686] yes=23,no=24,missing=23
				23:leaf=-0.00576366996
				24:leaf=-0.00113674381
			12:[f430<1.28882587] yes=25,no=26,missing=25
				25:leaf=-9.35224962e-05
				26:leaf=0.0051896642
		6:[f9214<2.44351053] yes=13,no=14,missing=13
			13:[f430<1.18633676] yes=27,no=28,missing=27
				27:leaf=0.00243375218
				28:leaf=0.00815733336
			14:[f4414<0.000283864501] yes=29,no=30,missing=29
				29:leaf=-0.000173327353
				30:leaf=0.0115272338
booster[42]:
0:[f9273<0.848406255] yes=1,no=2,missing=1
	1:[f3200<3.72899246] yes=3,no=4,missing=3
		3:[f9253<0.0855949] yes=7,no=8,missing=7
			7:[f8712<0.0864581019] yes=15,no=16,missing=15
				15:leaf=-0.0128642218
				16:leaf=0.0013436568
			8:[f210<0.25351131] yes=17,no=18,missing=17
				17:leaf=-0.0105336737
				18:leaf=-0.0068942951
		4:[f420<0.112453058] yes=9,no=10,missing=9
			9:[f4877<0.466713965] yes=19,no=20,missing=19
				19:leaf=-0.000596755068
				20:leaf=-0.00779474713
			10:[f3200<6.00721931] yes=21,no=22,missing=21
				21:leaf=-0.00246054446
				22:leaf=0.00345118926
	2:[f5210<4.1565094] yes=5,no=6,missing=5
		5:[f6127<0.213757396] yes=11,no=12,missing=11
			11:[f9753<0.0813357979] yes=23,no=24,missing=23
				23:leaf=9.44083222e-05
				24:leaf=-0.0060554347
			12:[f442<0.61444056] yes=25,no=26,missing=25
				25:leaf=-0.00201678369
				26:leaf=0.00378178339
		6:[f8230<0.168504477] yes=13,no=14,missing=13
			13:[f1253<17.6015244] yes=27,no=28,missing=27
				27:leaf=-0.000664244522
				28:leaf=0.00521760713
			14:[f8575<0.000260084169] yes=29,no=30,missing=29
				29:leaf=-0.00196890789
				30:leaf=0.0103502236
booster[43]:
0:[f5202<2.00466657] yes=1,no=2,missing=1
	1:[f7251<0.220324859] yes=3,no=4,missing=3
		3:[f430<0.870678842] yes=7,no=8,missing=7
			7:[f3245<6.55173349] yes=15,no=16,missing=15
				15:leaf=-0.012598074
				16:leaf=-0.00578868575
			8:[f206<2.19093561] yes=17,no=18,missing=17
				17:leaf=-0.00861698296
				18:leaf=-0.000289790798
		4:[f430<1.02590919] yes=9,no=10,missing=9
			9:[f3245<6.0673027] yes=19,no=20,missing=19
				19:leaf=-0.0089213904
				20:leaf=-0.0022807396
			10:[f8500<0.0907107815] yes=21,no=22,missing=21
				21:leaf=-0.00355613488
				22:leaf=0.00177291676
	2:[f7212<2.0999012] yes=5,no=6,missing=5
		5:[f420<0.0928296] yes=11,no=12,missing=11
			11:[f222<2.05923176] yes=23,no=24,missing=23
				23:leaf=-0.00687843189
				24:leaf=-0.0030103703
			12:[f207<0.964884162] yes=25,no=26,missing=25
				25:leaf=8.13548977e-05
				26:leaf=0.00562698394
		6:[f9214<2.44351053] yes=13,no=14,missing=13
			13:[f222<2.91708159] yes=27,no=28,missing=27
				27:leaf=0.00211748341
				28:leaf=0.00772488117
			14:[f2668<0.0359647349] yes=29,no=30,missing=29
				29:leaf=0.00131971063
				30:leaf=0.0115115438
booster[44]:
0:[f9273<0.848406255] yes=1,no=2,missing=1
	1:[f1198<8.20390701] yes=3,no=4,missing=3
		3:[f9253<0.0854665041] yes=7,no=8,missing=7
			7:[f8712<0.0864581019] yes=15,no=16,missing=15
				15:leaf=-0.0127694709
				16:leaf=0.00149903307
			8:[f210<0.25351131] yes=17,no=18,missing=17
				17:leaf=-0.01034078
				18:leaf=-0.00663308892
		4:[f697<1.11288762] yes=9,no=10,missing=9
			9:[f412<0.404365122] yes=19,no=20,missing=19
				19:leaf=-0.00281088729
				20:leaf=0.00364978868
			10:[f9253<0.0967149884] yes=21,no=22,missing=21
				21:leaf=-0.0100372443
				22:leaf=-0.00461870758
	2:[f5210<4.1565094] yes=5,no=6,missing=5
		5:[f6127<0.213757396] yes=11,no=12,missing=11
			11:[f9753<0.0813357979] yes=23,no=24,missing=23
				23:leaf=0.00011441332
				24:leaf=-0.00597097399
			12:[f442<0.61444056] yes=25,no=26,missing=25
				25:leaf=-0.0019699377
				26:leaf=0.00374501199
		6:[f8230<0.168504477] yes=13,no=14,missing=13
			13:[f1253<17.6015244] yes=27,no=28,missing=27
				27:leaf=-0.000686032465
				28:leaf=0.00514376583
			14:[f8575<0.000260084169] yes=29,no=30,missing=29
				29:leaf=-0.00197312608
				30:leaf=0.0102092847
booster[45]:
0:[f7271<1.41042829] yes=1,no=2,missing=1
	1:[f222<2.2092247] yes=3,no=4,missing=3
		3:[f9295<0.253968418] yes=7,no=8,missing=7
			7:[f2824<2.54289293] yes=15,no=16,missing=15
				15:leaf=-0.0121667897
				16:leaf=-0.00734417792
			8:[f9236<0.417765439] yes=17,no=18,missing=17
				17:leaf=-0.0067837378
				18:leaf=-0.00126670406
		4:[f9253<0.0965495706] yes=9,no=10,missing=9
			9:[f4933<4.29385757] yes=19,no=20,missing=19
				19:leaf=-0.00947183929
				20:leaf=0.000237597022
			10:[f430<1.06921458] yes=21,no=22,missing=21
				21:leaf=-0.00587941753
				22:leaf=-0.000744717079
	2:[f9261<1.33636189] yes=5,no=6,missing=5
		5:[f222<3.04864693] yes=11,no=12,missing=11
			11:[f8129<0.123028636] yes=23,no=24,missing=23
				23:leaf=-0.00521508604
				24:leaf=-0.00090112444
			12:[f7204<1.17293358] yes=25,no=26,missing=25
				25:leaf=-0.000694758142
				26:leaf=0.00561020197
		6:[f210<0.301499337] yes=13,no=14,missing=13
			13:[f8223<0.116188318] yes=27,no=28,missing=27
				27:leaf=-0.000231416721
				28:leaf=0.00535782613
			14:[f2123<1.05670691] yes=29,no=30,missing=29
				29:leaf=0.00171150931
				30:leaf=0.0108254459
booster[46]:
0:[f5202<2.00466657] yes=1,no=2,missing=1
	1:[f9253<0.126801178] yes=3,no=4,missing=3
		3:[f222<2.13158107] yes=7,no=8,missing=7
			7:[f8712<0.0871265829] yes=15,no=16,missing=15
				15:leaf=-0.0124221034
				16:leaf=0.00122833694
			8:[f3245<6.74695396] yes=17,no=18,missing=17
				17:leaf=-0.00911571458
				18:leaf=-0.00332328631
		4:[f1198<8.05484104] yes=9,no=10,missing=9
			9:[f9261<0.795912743] yes=19,no=20,missing=19
				19:leaf=-0.00843355153
				20:leaf=-0.00112256245
			10:[f4956<0.301604331] yes=21,no=22,missing=21
				21:leaf=0.00199808297
				22:leaf=-0.00337180449
	2:[f9273<1.52627397] yes=5,no=6,missing=5
		5:[f430<1.06562841] yes=11,no=12,missing=11
			11:[f4906<0.632325888] yes=23,no=24,missing=23
				23:leaf=0.00269318628
				24:leaf=-0.00429070462
			12:[f206<2.08478212] yes=25,no=26,missing=25
				25:leaf=0.00146853086
				26:leaf=0.00679374253
		6:[f4125<0.51804173] yes=13,no=14,missing=13
			13:[f8906<2.16590452] yes=27,no=28,missing=27
				27:leaf=0.00254884386
				28:leaf=-0.00323634828
			14:[f412<0.495407104] yes=29,no=30,missing=29
				29:leaf=0.00485398853
				30:leaf=0.0102740973
booster[47]:
0:[f9273<0.848406255] yes=1,no=2,missing=1
	1:[f1198<8.20390701] yes=3,no=4,missing=3
		3:[f9253<0.0854665041] yes=7,no=8,missing=7
			7:[f8712<0.0864581019] yes=15,no=16,missing=15
				15:leaf=-0.012550856
				16:leaf=0.00152240286
			8:[f210<0.25351131] yes=17,no=18,missing=17
				17:leaf=-0.0101240594
				18:leaf=-0.00645918772
		4:[f697<1.11288762] yes=9,no=10,missing=9
			9:[f412<0.404365122] yes=19,no=20,missing=19
				19:leaf=-0.00269531133
				20:leaf=0.0036540851
			10:[f9253<0.0967149884] yes=21,no=22,missing=21
				21:leaf=-0.00982789509
				22:leaf=-0.00450155372
	2:[f5210<4.1565094] yes=5,no=6,missing=5
		5:[f6127<0.213757396] yes=11,no=12,missing=11
			11:[f9126<0.0503056757] yes=23,no=24,missing=23
				23:leaf=0.000268563279
				24:leaf=-0.00580910593
			12:[f442<0.61444056] yes=25,no=26,missing=25
				25:leaf=-0.00192824542
				26:leaf=0.00368583878
		6:[f8438<0.0662479848] yes=13,no=14,missing=13
			13:[f1198<13.7249374] yes=27,no=28,missing=27
				27:leaf=-0.000975545612
				28:leaf=0.0052079116
			14:[f2123<1.13418555] yes=29,no=30,missing=29
				29:leaf=0.00171290827
				30:leaf=0.0102466708
booster[48]:
0:[f7271<1.41042829] yes=1,no=2,missing=1
	1:[f222<2.2092247] yes=3,no=4,missing=3
		3:[f9253<0.138783917] yes=7,no=8,missing=7
			7:[f8712<0.0790116489] yes=15,no=16,missing=15
				15:leaf=-0.0120576322
				16:leaf=0.00122062827
			8:[f3140<17.5477295] yes=17,no=18,missing=17
				17:leaf=-0.00870462134
				18:leaf=-1.06965208e-05
		4:[f9253<0.0965495706] yes=9,no=10,missing=9
			9:[f4933<4.29385757] yes=19,no=20,missing=19
				19:leaf=-0.00926370453
				20:leaf=0.000301504508
			10:[f430<1.06921458] yes=21,no=22,missing=21
				21:leaf=-0.00572214043
				22:leaf=-0.000676846714
	2:[f9261<1.33636189] yes=5,no=6,missing=5
		5:[f430<1.06209016] yes=11,no=12,missing=11
			11:[f1590<12.5712337] yes=23,no=24,missing=23
				23:leaf=-0.00461571105
				24:leaf=0.000288900308
			12:[f8500<0.0697790608] yes=25,no=26,missing=25
				25:leaf=0.00130589469
				26:leaf=0.00644153357
		6:[f210<0.301499337] yes=13,no=14,missing=13
			13:[f8215<0.0247464292] yes=27,no=28,missing=27
				27:leaf=-0.00170425605
				28:leaf=0.00468475884
			14:[f2123<1.05670691] yes=29,no=30,missing=29
				29:leaf=0.00167143077
				30:leaf=0.0106241489
booster[49]:
0:[f5202<2.00466657] yes=1,no=2,missing=1
	1:[f9253<0.108094633] yes=3,no=4,missing=3
		3:[f222<2.1322422] yes=7,no=8,missing=7
			7:[f8712<0.0769179463] yes=15,no=16,missing=15
				15:leaf=-0.0123698721
				16:leaf=0.000917478465
			8:[f3245<6.53229141] yes=17,no=18,missing=17
				17:leaf=-0.00936913118
				18:leaf=-0.00320725772
		4:[f412<0.273531437] yes=9,no=10,missing=9
			9:[f4296<0.0659745634] yes=19,no=20,missing=19
				19:leaf=-0.00487920316
				20:leaf=-0.00988506339
			10:[f9261<0.616513014] yes=21,no=22,missing=21
				21:leaf=-0.00495984731
				22:leaf=0.000551745645
	2:[f9273<1.52627397] yes=5,no=6,missing=5
		5:[f430<1.06562841] yes=11,no=12,missing=11
			11:[f4906<0.632325888] yes=23,no=24,missing=23
				23:leaf=0.00269999891
				24:leaf=-0.00419157464
			12:[f206<2.08478212] yes=25,no=26,missing=25
				25:leaf=0.00143187866
				26:leaf=0.0066964142
		6:[f4125<0.51804173] yes=13,no=14,missing=13
			13:[f8906<2.16590452] yes=27,no=28,missing=27
				27:leaf=0.00251414231
				28:leaf=-0.00321982428
			14:[f412<0.495407104] yes=29,no=30,missing=29
				29:leaf=0.00473823072
				30:leaf=0.0100769019
booster[50]:
0:[f9273<0.848406255] yes=1,no=2,missing=1
	1:[f1198<8.20390701] yes=3,no=4,missing=3
		3:[f9253<0.0854665041] yes=7,no=8,missing=7
			7:[f8712<0.0864581019] yes=15,no=16,missing=15
				15:leaf=-0.0123376036
				16:leaf=0.00151611608
			8:[f210<0.25351131] yes=17,no=18,missing=17
				17:leaf=-0.00991965737
				18:leaf=-0.0063009006
		4:[f697<1.11288762] yes=9,no=10,missing=9
			9:[f412<0.404365122] yes=19,no=20,missing=19
				19:leaf=-0.00257521123
				20:leaf=0.00366113568
			10:[f9253<0.0967149884] yes=21,no=22,missing=21
				21:leaf=-0.00962119363
				22:leaf=-0.00439002039
	2:[f5210<4.1565094] yes=5,no=6,missing=5
		5:[f6127<0.213757396] yes=11,no=12,missing=11
			11:[f8865<0.1790573] yes=23,no=24,missing=23
				23:leaf=0.000691478897
				24:leaf=-0.00554936612
			12:[f442<0.61444056] yes=25,no=26,missing=25
				25:leaf=-0.00186522154
				26:leaf=0.00362864998
		6:[f8215<0.0336930826] yes=13,no=14,missing=13
			13:[f3267<15.5862169] yes=27,no=28,missing=27
				27:leaf=-0.00118437305
				28:leaf=0.00469324319
			14:[f2123<1.13418555] yes=29,no=30,missing=29
				29:leaf=0.00126537483
				30:leaf=0.00981324818
booster[51]:
0:[f5202<2.00466657] yes=1,no=2,missing=1
	1:[f9253<0.126801178] yes=3,no=4,missing=3
		3:[f222<2.13158107] yes=7,no=8,missing=7
			7:[f3291<11.8666172] yes=15,no=16,missing=15
				15:leaf=-0.0121191032
				16:leaf=-0.0020616164
			8:[f3157<13.4954643] yes=17,no=18,missing=17
				17:leaf=-0.00890647527
				18:leaf=-0.00390167488
		4:[f412<0.272096038] yes=9,no=10,missing=9
			9:[f4227<0.0320971012] yes=19,no=20,missing=19
				19:leaf=-0.00149662048
				20:leaf=-0.00901124906
			10:[f3268<2.90503359] yes=21,no=22,missing=21
				21:leaf=0.000716868788
				22:leaf=-0.00459895376
	2:[f9273<1.52627397] yes=5,no=6,missing=5
		5:[f430<1.06562841] yes=11,no=12,missing=11
			11:[f4906<0.632325888] yes=23,no=24,missing=23
				23:leaf=0.00268972223
				24:leaf=-0.00413046312
			12:[f206<2.08478212] yes=25,no=26,missing=25
				25:leaf=0.00141616445
				26:leaf=0.00662212493
		6:[f4125<0.51804173] yes=13,no=14,missing=13
			13:[f8906<2.16590452] yes=27,no=28,missing=27
				27:leaf=0.00248779985
				28:leaf=-0.00319315377
			14:[f412<0.495407104] yes=29,no=30,missing=29
				29:leaf=0.00466554146
				30:leaf=0.00994356815
booster[52]:
0:[f9273<0.848406255] yes=1,no=2,missing=1
	1:[f3200<3.72899246] yes=3,no=4,missing=3
		3:[f9253<0.0855949] yes=7,no=8,missing=7
			7:[f8712<0.0864581019] yes=15,no=16,missing=15
				15:leaf=-0.0121425325
				16:leaf=0.0014180959
			8:[f6379<0.0106377406] yes=17,no=18,missing=17
				17:leaf=-0.00558807235
				18:leaf=-0.00967880245
		4:[f420<0.112453058] yes=9,no=10,missing=9
			9:[f4877<0.466713965] yes=19,no=20,missing=19
				19:leaf=-0.000251719059
				20:leaf=-0.00724070054
			10:[f8129<0.0689856708] yes=21,no=22,missing=21
				21:leaf=-0.00365954475
				22:leaf=0.00172123651
	2:[f9261<1.4208678] yes=5,no=6,missing=5
		5:[f204<1.59948301] yes=11,no=12,missing=11
			11:[f8129<0.162697494] yes=23,no=24,missing=23
				23:leaf=-0.00503444346
				24:leaf=-0.000962149643
			12:[f6127<0.197669059] yes=25,no=26,missing=25
				25:leaf=-0.00196998334
				26:leaf=0.00417626929
		6:[f430<0.842841506] yes=13,no=14,missing=13
			13:[f8223<0.116497837] yes=27,no=28,missing=27
				27:leaf=-0.000748042425
				28:leaf=0.00522444258
			14:[f416<0.0166683104] yes=29,no=30,missing=29
				29:leaf=-0.000688529515
				30:leaf=0.0104440497
booster[53]:
0:[f5202<2.00466657] yes=1,no=2,missing=1
	1:[f7251<0.220324859] yes=3,no=4,missing=3
		3:[f430<0.870678842] yes=7,no=8,missing=7
			7:[f3245<6.55173349] yes=15,no=16,missing=15
				15:leaf=-0.0119014103
				16:leaf=-0.0051616095
			8:[f2432<0.791278243] yes=17,no=18,missing=17
				17:leaf=-0.00801415276
				18:leaf=-0.00079743535
		4:[f3245<6.0673027] yes=9,no=10,missing=9
			9:[f430<1.02590919] yes=19,no=20,missing=19
				19:leaf=-0.00830155145
				20:leaf=-0.00223128474
			10:[f8129<0.0854268223] yes=21,no=22,missing=21
				21:leaf=-0.00406509638
				22:leaf=0.00241687964
	2:[f7212<2.0999012] yes=5,no=6,missing=5
		5:[f420<0.0928296] yes=11,no=12,missing=11
			11:[f222<2.05923176] yes=23,no=24,missing=23
				23:leaf=-0.00649787253
				24:leaf=-0.00276238611
			12:[f430<1.43597627] yes=25,no=26,missing=25
				25:leaf=0.000274703867
				26:leaf=0.00584145496
		6:[f9214<2.44351053] yes=13,no=14,missing=13
			13:[f430<1.18633676] yes=27,no=28,missing=27
				27:leaf=0.00210513524
				28:leaf=0.00750847301
			14:[f6416<0.000169454041] yes=29,no=30,missing=29
				29:leaf=0.000224744581
				30:leaf=0.0108155198
booster[54]:
0:[f7271<1.41042829] yes=1,no=2,missing=1
	1:[f222<2.2092247] yes=3,no=4,missing=3
		3:[f9295<0.253968418] yes=7,no=8,missing=7
			7:[f2824<2.54289293] yes=15,no=16,missing=15
				15:leaf=-0.0115555059
				16:leaf=-0.00673358655
			8:[f9236<0.417765439] yes=17,no=18,missing=17
				17:leaf=-0.00625554705
				18:leaf=-0.000877969665
		4:[f9253<0.0965495706] yes=9,no=10,missing=9
			9:[f5766<4.77114582] yes=19,no=20,missing=19
				19:leaf=-0.00895249844
				20:leaf=-0.000944553758
			10:[f430<1.06921458] yes=21,no=22,missing=21
				21:leaf=-0.00541047379
				22:leaf=-0.000531613361
	2:[f9261<1.33636189] yes=5,no=6,missing=5
		5:[f222<3.04864693] yes=11,no=12,missing=11
			11:[f219<0.302933753] yes=23,no=24,missing=23
				23:leaf=-0.0052559888
				24:leaf=-0.000978694297
			12:[f7204<1.17293358] yes=25,no=26,missing=25
				25:leaf=-0.000653561496
				26:leaf=0.00532079348
		6:[f234<4.65586042] yes=13,no=14,missing=13
			13:[f8129<0.288052589] yes=27,no=28,missing=27
				27:leaf=-0.000477894297
				28:leaf=0.00602427125
			14:[f3684<7.61460114] yes=29,no=30,missing=29
				29:leaf=0.0107019013
				30:leaf=-0.00182221516
booster[55]:
0:[f9273<0.848406255] yes=1,no=2,missing=1
	1:[f1198<8.20390701] yes=3,no=4,missing=3
		3:[f9253<0.0854665041] yes=7,no=8,missing=7
			7:[f8712<0.0864581019] yes=15,no=16,missing=15
				15:leaf=-0.0120040951
				16:leaf=0.00159363321
			8:[f210<0.25351131] yes=17,no=18,missing=17
				17:leaf=-0.00959387608
				18:leaf=-0.00602644775
		4:[f4761<0.0934459269] yes=9,no=10,missing=9
			9:[f222<2.7558434] yes=19,no=20,missing=19
				19:leaf=-0.00333330454
				20:leaf=0.00206718268
			10:[f9261<0.307333171] yes=21,no=22,missing=21
				21:leaf=-0.00916080456
				22:leaf=-0.00413079653
	2:[f9261<1.4208678] yes=5,no=6,missing=5
		5:[f204<1.59948301] yes=11,no=12,missing=11
			11:[f8129<0.162697494] yes=23,no=24,missing=23
				23:leaf=-0.00493124453
				24:leaf=-0.000896067824
			12:[f6127<0.197669059] yes=25,no=26,missing=25
				25:leaf=-0.00195253373
				26:leaf=0.0040975567
		6:[f430<0.842841506] yes=13,no=14,missing=13
			13:[f8223<0.116497837] yes=27,no=28,missing=27
				27:leaf=-0.000785628217
				28:leaf=0.00511059351
			14:[f416<0.0166683104] yes=29,no=30,missing=29
				29:leaf=-0.000732692366
				30:leaf=0.0102522466
booster[56]:
0:[f5202<2.00466657] yes=1,no=2,missing=1
	1:[f9253<0.108094633] yes=3,no=4,missing=3
		3:[f222<2.1322422] yes=7,no=8,missing=7
			7:[f8712<0.0769179463] yes=15,no=16,missing=15
				15:leaf=-0.0119065354
				16:leaf=0.001038027
			8:[f3245<6.53229141] yes=17,no=18,missing=17
				17:leaf=-0.0089173289
				18:leaf=-0.00289887097
		4:[f412<0.273531437] yes=9,no=10,missing=9
			9:[f4296<0.0659745634] yes=19,no=20,missing=19
				19:leaf=-0.00448716432
				20:leaf=-0.00943636801
			10:[f9261<0.616513014] yes=21,no=22,missing=21
				21:leaf=-0.00463560876
				22:leaf=0.000676945492
	2:[f9273<1.52627397] yes=5,no=6,missing=5
		5:[f430<1.06562841] yes=11,no=12,missing=11
			11:[f4906<0.632325888] yes=23,no=24,missing=23
				23:leaf=0.00273260684
				24:leaf=-0.00398247363
			12:[f206<2.08478212] yes=25,no=26,missing=25
				25:leaf=0.00137519359
				26:leaf=0.00646726182
		6:[f4125<0.51804173] yes=13,no=14,missing=13
			13:[f8906<2.16590452] yes=27,no=28,missing=27
				27:leaf=0.00243043946
				28:leaf=-0.00318561844
			14:[f412<0.495407104] yes=29,no=30,missing=29
				29:leaf=0.00445809169
				30:leaf=0.00964399055
booster[57]:
0:[f7259<1.02830338] yes=1,no=2,missing=1
	1:[f222<2.2288487] yes=3,no=4,missing=3
		3:[f2824<2.71250606] yes=7,no=8,missing=7
			7:[f9236<0.259174943] yes=15,no=16,missing=15
				15:leaf=-0.0112840589
				16:leaf=-0.00576695567
			8:[f9253<0.214582056] yes=17,no=18,missing=17
				17:leaf=-0.00637065293
				18:leaf=0.000215384804
		4:[f5594<2.313447] yes=9,no=10,missing=9
			9:[f207<0.971727431] yes=19,no=20,missing=19
				19:leaf=-0.00755650643
				20:leaf=-0.00121929205
			10:[f222<2.73487806] yes=21,no=22,missing=21
				21:leaf=-0.00321139605
				22:leaf=0.00166163035
	2:[f9273<1.84026408] yes=5,no=6,missing=5
		5:[f430<0.911126852] yes=11,no=12,missing=11
			11:[f1272<2.37353897] yes=23,no=24,missing=23
				23:leaf=-0.000425128877
				24:leaf=-0.00457272213
			12:[f222<3.25513697] yes=25,no=26,missing=25
				25:leaf=0.000997163472
				26:leaf=0.00576292817
		6:[f210<0.278841555] yes=13,no=14,missing=13
			13:[f9864<1.03366923] yes=27,no=28,missing=27
				27:leaf=0.0046017603
				28:leaf=-0.00186054723
			14:[f6127<0.288600475] yes=29,no=30,missing=29
				29:leaf=0.000710377004
				30:leaf=0.0098129129
booster[58]:
0:[f9273<0.848406255] yes=1,no=2,missing=1
	1:[f1198<8.20390701] yes=3,no=4,missing=3
		3:[f9253<0.0854665041] yes=7,no=8,missing=7
			7:[f8712<0.0864581019] yes=15,no=16,missing=15
				15:leaf=-0.0118150907
				16:leaf=0.00161500333
			8:[f210<0.25351131] yes=17,no=18,missing=17
				17:leaf=-0.00940126833
				18:leaf=-0.00587217836
		4:[f2205<0.223873854] yes=9,no=10,missing=9
			9:[f1287<4.19201899] yes=19,no=20,missing=19
				19:leaf=-0.0018670928
				20:leaf=0.00428525545
			10:[f9253<0.0967349708] yes=21,no=22,missing=21
				21:leaf=-0.00906837452
				22:leaf=-0.00392604154
	2:[f9261<1.4208678] yes=5,no=6,missing=5
		5:[f204<1.59948301] yes=11,no=12,missing=11
			11:[f8129<0.162697494] yes=23,no=24,missing=23
				23:leaf=-0.00482836319
				24:leaf=-0.000840491615
			12:[f6127<0.197669059] yes=25,no=26,missing=25
				25:leaf=-0.00191812776
				26:leaf=0.0040145088
		6:[f215<1.38723278] yes=13,no=14,missing=13
			13:[f9985<0.497519374] yes=27,no=28,missing=27
				27:leaf=0.00415114732
				28:leaf=-0.00263656932
			14:[f8215<0.0352119915] yes=29,no=30,missing=29
				29:leaf=0.00278162002
				30:leaf=0.0102769183
booster[59]:
0:[f5202<2.00466657] yes=1,no=2,missing=1
	1:[f9253<0.126801178] yes=3,no=4,missing=3
		3:[f222<2.13158107] yes=7,no=8,missing=7
			7:[f3291<11.8666172] yes=15,no=16,missing=15
				15:leaf=-0.0116087086
				16:leaf=-0.00174692122
			8:[f3157<13.4954643] yes=17,no=18,missing=17
				17:leaf=-0.00842212047
				18:leaf=-0.00353347207
		4:[f1198<8.05484104] yes=9,no=10,missing=9
			9:[f9261<0.795912743] yes=19,no=20,missing=19
				19:leaf=-0.00763458665
				20:leaf=-0.000826103147
			10:[f4956<0.301604331] yes=21,no=22,missing=21
				21:leaf=0.00227419916
				22:leaf=-0.00293649011
	2:[f9273<1.84026408] yes=5,no=6,missing=5
		5:[f430<1.06562841] yes=11,no=12,missing=11
			11:[f1666<0.580120564] yes=23,no=24,missing=23
				23:leaf=-6.21174913e-05
				24:leaf=-0.00415764283
			12:[f206<2.05946922] yes=25,no=26,missing=25
				25:leaf=0.00191824278
				26:leaf=0.00655946555
		6:[f210<0.278841555] yes=13,no=14,missing=13
			13:[f9077<2.79542923] yes=27,no=28,missing=27
				27:leaf=0.0044255862
				28:leaf=-0.00179168326
			14:[f6127<0.288600475] yes=29,no=30,missing=29
				29:leaf=0.000733168155
				30:leaf=0.00969835091
booster[60]:
0:[f7259<1.02748942] yes=1,no=2,missing=1
	1:[f222<2.2288487] yes=3,no=4,missing=3
		3:[f2824<2.71250606] yes=7,no=8,missing=7
			7:[f9236<0.186584353] yes=15,no=16,missing=15
				15:leaf=-0.0113315163
				16:leaf=-0.00753215933
			8:[f9253<0.214582056] yes=17,no=18,missing=17
				17:leaf=-0.00619267859
				18:leaf=0.000249322882
		4:[f5594<2.17795253] yes=9,no=10,missing=9
			9:[f207<0.971727431] yes=19,no=20,missing=19
				19:leaf=-0.00751782116
				20:leaf=-0.00132572174
			10:[f430<1.04833806] yes=21,no=22,missing=21
				21:leaf=-0.00259261811
				22:leaf=0.0030223236
	2:[f9261<1.4208678] yes=5,no=6,missing=5
		5:[f222<2.96809292] yes=11,no=12,missing=11
			11:[f222<1.89743972] yes=23,no=24,missing=23
				23:leaf=-0.0050573349
				24:leaf=-0.000433951034
			12:[f8500<0.0528729782] yes=25,no=26,missing=25
				25:leaf=0.0015681549
				26:leaf=0.00597992772
		6:[f430<0.842841506] yes=13,no=14,missing=13
			13:[f8223<0.116497837] yes=27,no=28,missing=27
				27:leaf=-0.000911356416
				28:leaf=0.00494933547
			14:[f416<0.0166683104] yes=29,no=30,missing=29
				29:leaf=-0.000869320473
				30:leaf=0.00994168129
booster[61]:
0:[f9273<0.848406255] yes=1,no=2,missing=1
	1:[f222<2.4253931] yes=3,no=4,missing=3
		3:[f9253<0.10492976] yes=7,no=8,missing=7
			7:[f3245<6.55798054] yes=15,no=16,missing=15
				15:leaf=-0.0114323068
				16:leaf=-0.00481899502
			8:[f3041<11.0653334] yes=17,no=18,missing=17
				17:leaf=-0.00866432022
				18:leaf=-0.00409851363
		4:[f9253<0.119188003] yes=9,no=10,missing=9
			9:[f281<0.17851463] yes=19,no=20,missing=19
				19:leaf=-0.00373041024
				20:leaf=-0.0080063697
			10:[f430<1.06997144] yes=21,no=22,missing=21
				21:leaf=-0.00394838629
				22:leaf=0.000895739184
	2:[f5210<4.1565094] yes=5,no=6,missing=5
		5:[f8129<0.125640482] yes=11,no=12,missing=11
			11:[f9667<0.151105642] yes=23,no=24,missing=23
				23:leaf=7.94637745e-05
				24:leaf=-0.005812224
			12:[f442<0.614299238] yes=25,no=26,missing=25
				25:leaf=-0.00172751676
				26:leaf=0.00349746575
		6:[f8215<0.0336930826] yes=13,no=14,missing=13
			13:[f9726<0.36947459] yes=27,no=28,missing=27
				27:leaf=-0.00152742304
				28:leaf=0.00416985666
			14:[f121<2.60063863] yes=29,no=30,missing=29
				29:leaf=0.00459320331
				30:leaf=0.00986379571
booster[62]:
0:[f5202<2.00466657] yes=1,no=2,missing=1
	1:[f9253<0.104787476] yes=3,no=4,missing=3
		3:[f430<0.868279219] yes=7,no=8,missing=7
			7:[f3245<6.04740953] yes=15,no=16,missing=15
				15:leaf=-0.0115981111
				16:leaf=-0.00528653478
			8:[f832<3.77953649] yes=17,no=18,missing=17
				17:leaf=-0.00281092152
				18:leaf=-0.00807972159
		4:[f412<0.273531437] yes=9,no=10,missing=9
			9:[f4296<0.0659745634] yes=19,no=20,missing=19
				19:leaf=-0.00423026877
				20:leaf=-0.00914214458
			10:[f9261<0.516198874] yes=21,no=22,missing=21
				21:leaf=-0.00474166544
				22:leaf=-0.000266056042
	2:[f9273<1.52627397] yes=5,no=6,missing=5
		5:[f430<1.06562841] yes=11,no=12,missing=11
			11:[f4906<0.632325888] yes=23,no=24,missing=23
				23:leaf=0.00279974332
				24:leaf=-0.00380981714
			12:[f206<2.08478212] yes=25,no=26,missing=25
				25:leaf=0.00130954059
				26:leaf=0.00626977719
		6:[f4125<0.715834498] yes=13,no=14,missing=13
			13:[f8129<0.156421214] yes=27,no=28,missing=27
				27:leaf=-0.00163995102
				28:leaf=0.00421384675
			14:[f8215<0.0397252142] yes=29,no=30,missing=29
				29:leaf=0.00271135173
				30:leaf=0.00986584183
booster[63]:
0:[f5202<2.36067772] yes=1,no=2,missing=1
	1:[f7251<0.235558093] yes=3,no=4,missing=3
		3:[f430<0.870302379] yes=7,no=8,missing=7
			7:[f3245<6.55173349] yes=15,no=16,missing=15
				15:leaf=-0.0111879427
				16:leaf=-0.00449007982
			8:[f5277<5.1172924] yes=17,no=18,missing=17
				17:leaf=-0.00717657618
				18:leaf=-0.000869611569
		4:[f222<2.39831042] yes=9,no=10,missing=9
			9:[f9236<0.457399011] yes=19,no=20,missing=19
				19:leaf=-0.00745190494
				20:leaf=0.000112294707
			10:[f9253<0.191586375] yes=21,no=22,missing=21
				21:leaf=-0.00415405072
				22:leaf=-0.000193062908
	2:[f430<1.05123186] yes=5,no=6,missing=5
		5:[f9273<1.83245349] yes=11,no=12,missing=11
			11:[f204<1.21143913] yes=23,no=24,missing=23
				23:leaf=-0.00496438518
				24:leaf=-0.000641388004
			12:[f8129<0.197043553] yes=25,no=26,missing=25
				25:leaf=-0.0011342084
				26:leaf=0.00569659099
		6:[f9273<1.7390343] yes=13,no=14,missing=13
			13:[f430<1.44902694] yes=27,no=28,missing=27
				27:leaf=0.00224365457
				28:leaf=0.00671347557
			14:[f556<0.00202836934] yes=29,no=30,missing=29
				29:leaf=0.000178499016
				30:leaf=0.0101030562
booster[64]:
0:[f9273<0.848406255] yes=1,no=2,missing=1
	1:[f1198<8.20390701] yes=3,no=4,missing=3
		3:[f9253<0.0854665041] yes=7,no=8,missing=7
			7:[f8712<0.0864581019] yes=15,no=16,missing=15
				15:leaf=-0.0114589734
				16:leaf=0.00174714997
			8:[f210<0.25351131] yes=17,no=18,missing=17
				17:leaf=-0.00903834868
				18:leaf=-0.00557524804
		4:[f4761<0.0934459269] yes=9,no=10,missing=9
			9:[f430<1.04840875] yes=19,no=20,missing=19
				19:leaf=-0.00254315906
				20:leaf=0.00269834907
			10:[f9261<0.307333171] yes=21,no=22,missing=21
				21:leaf=-0.00869274326
				22:leaf=-0.00377995358
	2:[f9261<1.4208678] yes=5,no=6,missing=5
		5:[f222<2.82020497] yes=11,no=12,missing=11
			11:[f219<0.277275801] yes=23,no=24,missing=23
				23:leaf=-0.00496185711
				24:leaf=-0.000677044736
			12:[f6127<0.197669059] yes=25,no=26,missing=25
				25:leaf=-0.00124125974
				26:leaf=0.00451471005
		6:[f215<1.38723278] yes=13,no=14,missing=13
			13:[f9985<0.497519374] yes=27,no=28,missing=27
				27:leaf=0.00397160649
				28:leaf=-0.00268106535
			14:[f8215<0.0352119915] yes=29,no=30,missing=29
				29:leaf=0.00262263929
				30:leaf=0.00993010029
booster[65]:
0:[f5202<2.00466657] yes=1,no=2,missing=1
	1:[f9253<0.108094633] yes=3,no=4,missing=3
		3:[f222<2.1322422] yes=7,no=8,missing=7
			7:[f8712<0.064715378] yes=15,no=16,missing=15
				15:leaf=-0.0113674682
				16:leaf=0.000795536966
			8:[f3245<6.53229141] yes=17,no=18,missing=17
				17:leaf=-0.00839405041
				18:leaf=-0.00251752883
		4:[f412<0.273531437] yes=9,no=10,missing=9
			9:[f4296<0.0659745634] yes=19,no=20,missing=19
				19:leaf=-0.00400719186
				20:leaf=-0.0089073386
			10:[f964<2.76388168] yes=21,no=22,missing=21
				21:leaf=-0.00121894921
				22:leaf=-0.0051965462
	2:[f7212<2.0999012] yes=5,no=6,missing=5
		5:[f420<0.0928296] yes=11,no=12,missing=11
			11:[f8438<0.0454129055] yes=23,no=24,missing=23
				23:leaf=-0.00554996729
				24:leaf=-0.00198623794
			12:[f430<1.43597627] yes=25,no=26,missing=25
				25:leaf=0.000313788798
				26:leaf=0.00553976418
		6:[f9214<2.49751902] yes=13,no=14,missing=13
			13:[f430<1.18633676] yes=27,no=28,missing=27
				27:leaf=0.00187741721
				28:leaf=0.0070493645
			14:[f2668<0.0359647349] yes=29,no=30,missing=29
				29:leaf=0.000641482475
				30:leaf=0.0103272721
booster[66]:
0:[f7271<1.2565074] yes=1,no=2,missing=1
	1:[f222<2.1325531] yes=3,no=4,missing=3
		3:[f9236<0.259136885] yes=7,no=8,missing=7
			7:[f2824<2.48189783] yes=15,no=16,missing=15
				15:leaf=-0.0110115986
				16:leaf=-0.00655557215
			8:[f8379<0.0196852535] yes=17,no=18,missing=17
				17:leaf=-0.00559306191
				18:leaf=0.000134620073
		4:[f9253<0.095934242] yes=9,no=10,missing=9
			9:[f207<0.87539053] yes=19,no=20,missing=19
				19:leaf=-0.00900166389
				20:leaf=-0.0043180529
			10:[f430<1.0691216] yes=21,no=22,missing=21
				21:leaf=-0.00546969986
				22:leaf=-0.000523107417
	2:[f7212<2.08115864] yes=5,no=6,missing=5
		5:[f222<2.86148882] yes=11,no=12,missing=11
			11:[f8160<0.00233221077] yes=23,no=24,missing=23
				23:leaf=0.00143320544
				24:leaf=-0.00413124776
			12:[f6764<0.109013692] yes=25,no=26,missing=25
				25:leaf=0.00317861373
				26:leaf=-0.00281270733
		6:[f430<1.18162632] yes=13,no=14,missing=13
			13:[f9273<1.81622207] yes=27,no=28,missing=27
				27:leaf=0.000164817422
				28:leaf=0.0055196248
			14:[f3247<2.01593018] yes=29,no=30,missing=29
				29:leaf=-0.000827242795
				30:leaf=0.0092520453
booster[67]:
0:[f7259<1.02748942] yes=1,no=2,missing=1
	1:[f222<2.1325531] yes=3,no=4,missing=3
		3:[f2824<2.71250606] yes=7,no=8,missing=7
			7:[f9236<0.18439129] yes=15,no=16,missing=15
				15:leaf=-0.0111016547
				16:leaf=-0.00727502769
			8:[f9253<0.214704499] yes=17,no=18,missing=17
				17:leaf=-0.00608147774
				18:leaf=0.000449314859
		4:[f5594<2.34212065] yes=9,no=10,missing=9
			9:[f207<0.971727431] yes=19,no=20,missing=19
				19:leaf=-0.00718272617
				20:leaf=-0.000953873619
			10:[f222<2.73487806] yes=21,no=22,missing=21
				21:leaf=-0.00311321323
				22:leaf=0.00181935215
	2:[f9261<1.4208678] yes=5,no=6,missing=5
		5:[f204<1.59837306] yes=11,no=12,missing=11
			11:[f8912<0.0623685755] yes=23,no=24,missing=23
				23:leaf=-0.000411523273
				24:leaf=-0.00428670831
			12:[f222<3.3297739] yes=25,no=26,missing=25
				25:leaf=0.0011074004
				26:leaf=0.00570048625
		6:[f215<1.38723278] yes=13,no=14,missing=13
			13:[f9985<0.497519374] yes=27,no=28,missing=27
				27:leaf=0.00383325503
				28:leaf=-0.00269798306
			14:[f8215<0.0352119915] yes=29,no=30,missing=29
				29:leaf=0.00254009548
				30:leaf=0.00975276157
booster[68]:
0:[f7271<1.2565074] yes=1,no=2,missing=1
	1:[f222<2.11052322] yes=3,no=4,missing=3
		3:[f9295<0.291208327] yes=7,no=8,missing=7
			7:[f6405<0.0034141643] yes=15,no=16,missing=15
				15:leaf=-6.62857638e-05
				16:leaf=-0.0105963666
			8:[f216<0.206262648] yes=17,no=18,missing=17
				17:leaf=-0.00413258607
				18:leaf=0.00165066554
		4:[f9253<0.095934242] yes=9,no=10,missing=9
			9:[f206<1.82473874] yes=19,no=20,missing=19
				19:leaf=-0.0089178104
				20:leaf=-0.00420709886
			10:[f430<1.0691216] yes=21,no=22,missing=21
				21:leaf=-0.00542319799
				22:leaf=-0.000499815797
	2:[f7212<2.08115864] yes=5,no=6,missing=5
		5:[f222<2.86148882] yes=11,no=12,missing=11
			11:[f8160<0.00233221077] yes=23,no=24,missing=23
				23:leaf=0.00144322694
				24:leaf=-0.00406132499
			12:[f6764<0.109013692] yes=25,no=26,missing=25
				25:leaf=0.00313262665
				26:leaf=-0.00278900308
		6:[f430<1.18162632] yes=13,no=14,missing=13
			13:[f9273<1.81622207] yes=27,no=28,missing=27
				27:leaf=0.000164624274
				28:leaf=0.005432643
			14:[f3247<2.01593018] yes=29,no=30,missing=29
				29:leaf=-0.000843263348
				30:leaf=0.00913857482
booster[69]:
0:[f7271<1.2565074] yes=1,no=2,missing=1
	1:[f222<2.11052322] yes=3,no=4,missing=3
		3:[f9236<0.184667215] yes=7,no=8,missing=7
			7:[f1155<23.2504501] yes=15,no=16,missing=15
				15:leaf=-0.0110708959
				16:leaf=-0.0058588055
			8:[f9295<0.341764331] yes=17,no=18,missing=17
				17:leaf=-0.00736884447
				18:leaf=-0.00126537168
		4:[f9253<0.095934242] yes=9,no=10,missing=9
			9:[f207<0.87539053] yes=19,no=20,missing=19
				19:leaf=-0.00886919163
				20:leaf=-0.0042181043
			10:[f430<1.0691216] yes=21,no=22,missing=21
				21:leaf=-0.00537775457
				22:leaf=-0.00049513852
	2:[f7212<2.08115864] yes=5,no=6,missing=5
		5:[f222<2.86148882] yes=11,no=12,missing=11
			11:[f8129<0.086221084] yes=23,no=24,missing=23
				23:leaf=-0.00626847148
				24:leaf=-0.00207962352
			12:[f6764<0.109013692] yes=25,no=26,missing=25
				25:leaf=0.00310312165
				26:leaf=-0.0027647051
		6:[f9214<2.49751902] yes=13,no=14,missing=13
			13:[f222<2.91698194] yes=27,no=28,missing=27
				27:leaf=0.0014248119
				28:leaf=0.00657530315
			14:[f2668<0.0359647349] yes=29,no=30,missing=29
				29:leaf=0.000284679176
				30:leaf=0.0101111541
booster[70]:
0:[f5202<1.82840896] yes=1,no=2,missing=1
	1:[f9253<0.0978744328] yes=3,no=4,missing=3
		3:[f207<0.730638981] yes=7,no=8,missing=7
			7:[f3245<7.33585644] yes=15,no=16,missing=15
				15:leaf=-0.0110547887
				16:leaf=-0.00359268207
			8:[f6498<0.214631289] yes=17,no=18,missing=17
				17:leaf=-0.00699141389
				18:leaf=-0.000190327963
		4:[f412<0.253608912] yes=9,no=10,missing=9
			9:[f4296<0.0659745634] yes=19,no=20,missing=19
				19:leaf=-0.0046300143
				20:leaf=-0.0092125982
			10:[f3268<4.62735176] yes=21,no=22,missing=21
				21:leaf=-0.00215879106
				22:leaf=-0.00659222575
	2:[f9261<1.10233951] yes=5,no=6,missing=5
		5:[f222<2.85736132] yes=11,no=12,missing=11
			11:[f1288<3.51677847] yes=23,no=24,missing=23
				23:leaf=-0.00118405535
				24:leaf=-0.00520024635
			12:[f2480<0.182134345] yes=25,no=26,missing=25
				25:leaf=0.00357538392
				26:leaf=-0.00156077906
		6:[f412<0.495407104] yes=13,no=14,missing=13
			13:[f8129<0.266609401] yes=27,no=28,missing=27
				27:leaf=-0.00145282038
				28:leaf=0.00394355832
			14:[f8215<0.0327071175] yes=29,no=30,missing=29
				29:leaf=0.00193946727
				30:leaf=0.00936165638
booster[71]:
0:[f9273<0.848406255] yes=1,no=2,missing=1
	1:[f1198<8.20390701] yes=3,no=4,missing=3
		3:[f9253<0.0854665041] yes=7,no=8,missing=7
			7:[f8712<0.0864581019] yes=15,no=16,missing=15
				15:leaf=-0.0110734869
				16:leaf=0.00186459324
			8:[f6298<0.0320917852] yes=17,no=18,missing=17
				17:leaf=-0.00449412409
				18:leaf=-0.00844805501
		4:[f697<1.11288762] yes=9,no=10,missing=9
			9:[f412<0.404365122] yes=19,no=20,missing=19
				19:leaf=-0.00181768835
				20:leaf=0.00384875736
			10:[f8129<0.0669046193] yes=21,no=22,missing=21
				21:leaf=-0.00818292797
				22:leaf=-0.00342233386
	2:[f9261<1.4208678] yes=5,no=6,missing=5
		5:[f210<0.270931721] yes=11,no=12,missing=11
			11:[f1186<3.51604462] yes=23,no=24,missing=23
				23:leaf=-6.55899203e-05
				24:leaf=-0.00486942846
			12:[f6127<0.235174686] yes=25,no=26,missing=25
				25:leaf=-0.00114983111
				26:leaf=0.00358500355
		6:[f430<0.842841506] yes=13,no=14,missing=13
			13:[f8223<0.116497837] yes=27,no=28,missing=27
				27:leaf=-0.00100842759
				28:leaf=0.00458628451
			14:[f410<0.00143910223] yes=29,no=30,missing=29
				29:leaf=-0.000229206329
				30:leaf=0.00942073483
booster[72]:
0:[f7271<1.2565074] yes=1,no=2,missing=1
	1:[f222<2.11052322] yes=3,no=4,missing=3
		3:[f9236<0.184667215] yes=7,no=8,missing=7
			7:[f1155<23.2504501] yes=15,no=16,missing=15
				15:leaf=-0.0109083159
				16:leaf=-0.00571645983
			8:[f9295<0.341764331] yes=17,no=18,missing=17
				17:leaf=-0.00720860157
				18:leaf=-0.00116022618
		4:[f9253<0.095934242] yes=9,no=10,missing=9
			9:[f206<1.82473874] yes=19,no=20,missing=19
				19:leaf=-0.00868438743
				20:leaf=-0.00403327821
			10:[f430<1.0691216] yes=21,no=22,missing=21
				21:leaf=-0.00523924176
				22:leaf=-0.000431477121
	2:[f9273<1.52627397] yes=5,no=6,missing=5
		5:[f430<1.11771798] yes=11,no=12,missing=11
			11:[f8756<0.0162124317] yes=23,no=24,missing=23
				23:leaf=-3.71374335e-05
				24:leaf=-0.00440615322
			12:[f206<2.08041] yes=25,no=26,missing=25
				25:leaf=0.000927216315
				26:leaf=0.00598013587
		6:[f430<1.01319039] yes=13,no=14,missing=13
			13:[f8129<0.197031677] yes=27,no=28,missing=27
				27:leaf=-0.0015772006
				28:leaf=0.00420518825
			14:[f8418<0.000130274027] yes=29,no=30,missing=29
				29:leaf=0.003547
				30:leaf=0.00943671539
booster[73]:
0:[f5202<1.82840896] yes=1,no=2,missing=1
	1:[f9253<0.104619175] yes=3,no=4,missing=3
		3:[f430<0.870302379] yes=7,no=8,missing=7
			7:[f3245<6.04740953] yes=15,no=16,missing=15
				15:leaf=-0.0110020656
				16:leaf=-0.004878846
			8:[f832<3.76224613] yes=17,no=18,missing=17
				17:leaf=-0.00218212884
				18:leaf=-0.00758925732
		4:[f412<0.253608912] yes=9,no=10,missing=9
			9:[f4227<0.0309032537] yes=19,no=20,missing=19
				19:leaf=-0.00149562862
				20:leaf=-0.00861410983
			10:[f3268<4.62585688] yes=21,no=22,missing=21
				21:leaf=-0.00181478576
				22:leaf=-0.00625254912
	2:[f7212<2.0999012] yes=5,no=6,missing=5
		5:[f420<0.0928296] yes=11,no=12,missing=11
			11:[f9236<0.449404091] yes=23,no=24,missing=23
				23:leaf=-0.00480786152
				24:leaf=-6.30977956e-05
			12:[f430<1.29396713] yes=25,no=26,missing=25
				25:leaf=-0.000282145251
				26:leaf=0.00425706385
		6:[f9214<2.49751902] yes=13,no=14,missing=13
			13:[f430<1.18633676] yes=27,no=28,missing=27
				27:leaf=0.00167418958
				28:leaf=0.00665086927
			14:[f2668<0.0359647349] yes=29,no=30,missing=29
				29:leaf=0.000412206777
				30:leaf=0.00992002524
booster[74]:
0:[f7259<1.02748942] yes=1,no=2,missing=1
	1:[f222<2.1325531] yes=3,no=4,missing=3
		3:[f9253<0.127866656] yes=7,no=8,missing=7
			7:[f8712<0.0790116489] yes=15,no=16,missing=15
				15:leaf=-0.0107034128
				16:leaf=0.00161625724
			8:[f822<5.68341208] yes=17,no=18,missing=17
				17:leaf=-0.00793774705
				18:leaf=-0.00118635781
		4:[f5594<2.34212065] yes=9,no=10,missing=9
			9:[f207<0.971727431] yes=19,no=20,missing=19
				19:leaf=-0.00684747566
				20:leaf=-0.00081142952
			10:[f222<2.73487806] yes=21,no=22,missing=21
				21:leaf=-0.0028664337
				22:leaf=0.00185982464
	2:[f9261<1.4208678] yes=5,no=6,missing=5
		5:[f204<1.59837306] yes=11,no=12,missing=11
			11:[f8129<0.160214335] yes=23,no=24,missing=23
				23:leaf=-0.00482133962
				24:leaf=-0.00099433423
			12:[f222<3.3297739] yes=25,no=26,missing=25
				25:leaf=0.00107338466
				26:leaf=0.00547818886
		6:[f215<1.38723278] yes=13,no=14,missing=13
			13:[f9985<0.497519374] yes=27,no=28,missing=27
				27:leaf=0.00363079947
				28:leaf=-0.00276200287
			14:[f8215<0.0352119915] yes=29,no=30,missing=29
				29:leaf=0.00233243941
				30:leaf=0.00938730128
booster[75]:
0:[f7271<1.2565074] yes=1,no=2,missing=1
	1:[f222<2.11052322] yes=3,no=4,missing=3
		3:[f9236<0.184667215] yes=7,no=8,missing=7
			7:[f2824<2.54289293] yes=15,no=16,missing=15
				15:leaf=-0.0107875559
				16:leaf=-0.00602167845
			8:[f9295<0.341764331] yes=17,no=18,missing=17
				17:leaf=-0.00704588089
				18:leaf=-0.00106776261
		4:[f9253<0.095934242] yes=9,no=10,missing=9
			9:[f206<1.82473874] yes=19,no=20,missing=19
				19:leaf=-0.00852897298
				20:leaf=-0.00392786693
			10:[f430<1.0691216] yes=21,no=22,missing=21
				21:leaf=-0.00510923797
				22:leaf=-0.000379360659
	2:[f9261<1.33636189] yes=5,no=6,missing=5
		5:[f222<3.04864693] yes=11,no=12,missing=11
			11:[f8129<0.086221084] yes=23,no=24,missing=23
				23:leaf=-0.0057710479
				24:leaf=-0.00137984927
			12:[f7204<1.18086457] yes=25,no=26,missing=25
				25:leaf=-0.000601936656
				26:leaf=0.00471961591
		6:[f234<4.65586042] yes=13,no=14,missing=13
			13:[f8129<0.288052589] yes=27,no=28,missing=27
				27:leaf=-0.000787608675
				28:leaf=0.00516877742
			14:[f3684<7.61460114] yes=29,no=30,missing=29
				29:leaf=0.0095558688
				30:leaf=-0.00213663839
booster[76]:
0:[f5202<1.82840896] yes=1,no=2,missing=1
	1:[f9253<0.0978744328] yes=3,no=4,missing=3
		3:[f207<0.730638981] yes=7,no=8,missing=7
			7:[f3245<7.33585644] yes=15,no=16,missing=15
				15:leaf=-0.0107341167
				16:leaf=-0.00331737055
			8:[f6498<0.214631289] yes=17,no=18,missing=17
				17:leaf=-0.00669543957
				18:leaf=1.28696138e-05
		4:[f412<0.253608912] yes=9,no=10,missing=9
			9:[f4296<0.0662899166] yes=19,no=20,missing=19
				19:leaf=-0.00440251641
				20:leaf=-0.00890072715
			10:[f3268<4.62735176] yes=21,no=22,missing=21
				21:leaf=-0.00195902819
				22:leaf=-0.00632008119
	2:[f9261<1.10233951] yes=5,no=6,missing=5
		5:[f222<2.85736132] yes=11,no=12,missing=11
			11:[f1288<3.51677847] yes=23,no=24,missing=23
				23:leaf=-0.00105255842
				24:leaf=-0.00500206836
			12:[f2480<0.182134345] yes=25,no=26,missing=25
				25:leaf=0.00348643772
				26:leaf=-0.00157155609
		6:[f412<0.495407104] yes=13,no=14,missing=13
			13:[f8129<0.266609401] yes=27,no=28,missing=27
				27:leaf=-0.00147460483
				28:leaf=0.00373769342
			14:[f8215<0.0327071175] yes=29,no=30,missing=29
				29:leaf=0.00179451238
				30:leaf=0.00905852951
booster[77]:
0:[f7271<1.23943591] yes=1,no=2,missing=1
	1:[f222<2.1325531] yes=3,no=4,missing=3
		3:[f9295<0.225339174] yes=7,no=8,missing=7
			7:[f2824<2.54289293] yes=15,no=16,missing=15
				15:leaf=-0.0104724383
				16:leaf=-0.00587428268
			8:[f9407<0.496711791] yes=17,no=18,missing=17
				17:leaf=-0.00611577695
				18:leaf=-3.13437272e-06
		4:[f9253<0.0961688608] yes=9,no=10,missing=9
			9:[f207<0.87539053] yes=19,no=20,missing=19
				19:leaf=-0.00839860737
				20:leaf=-0.00394277601
			10:[f1198<8.04741096] yes=21,no=22,missing=21
				21:leaf=-0.00550867431
				22:leaf=-0.00124905899
	2:[f9261<0.88206625] yes=5,no=6,missing=5
		5:[f420<0.0989332423] yes=11,no=12,missing=11
			11:[f8160<0.00319395051] yes=23,no=24,missing=23
				23:leaf=-6.99037555e-05
				24:leaf=-0.00474826153
			12:[f1198<11.2927227] yes=25,no=26,missing=25
				25:leaf=-0.00158288295
				26:leaf=0.00294839079
		6:[f412<0.527886868] yes=13,no=14,missing=13
			13:[f8418<0.000137472118] yes=27,no=28,missing=27
				27:leaf=-0.00126234768
				28:leaf=0.00340836099
			14:[f8215<0.0381036475] yes=29,no=30,missing=29
				29:leaf=0.0023486584
				30:leaf=0.00888355542
booster[78]:
0:[f5202<1.82840896] yes=1,no=2,missing=1
	1:[f9253<0.104787476] yes=3,no=4,missing=3
		3:[f430<0.870302379] yes=7,no=8,missing=7
			7:[f3245<6.04740953] yes=15,no=16,missing=15
				15:leaf=-0.0107415663
				16:leaf=-0.00462497119
			8:[f832<3.76224613] yes=17,no=18,missing=17
				17:leaf=-0.00198803912
				18:leaf=-0.00733222114
		4:[f412<0.253608912] yes=9,no=10,missing=9
			9:[f4296<0.0662966073] yes=19,no=20,missing=19
				19:leaf=-0.00400903169
				20:leaf=-0.00869049411
			10:[f3268<4.62585688] yes=21,no=22,missing=21
				21:leaf=-0.00165353413
				22:leaf=-0.00603240309
	2:[f9273<1.52627397] yes=5,no=6,missing=5
		5:[f430<1.04129338] yes=11,no=12,missing=11
			11:[f4906<0.632325888] yes=23,no=24,missing=23
				23:leaf=0.00276612607
				24:leaf=-0.00392393069
			12:[f2324<0.0400659814] yes=25,no=26,missing=25
				25:leaf=0.00380676356
				26:leaf=-0.000593093224
		6:[f4125<0.715834498] yes=13,no=14,missing=13
			13:[f8129<0.156421214] yes=27,no=28,missing=27
				27:leaf=-0.00181909837
				28:leaf=0.00361109036
			14:[f8215<0.0397204831] yes=29,no=30,missing=29
				29:leaf=0.00223259511
				30:leaf=0.00907523837
booster[79]:
0:[f7271<1.23943591] yes=1,no=2,missing=1
	1:[f222<2.1325531] yes=3,no=4,missing=3
		3:[f9253<0.128901064] yes=7,no=8,missing=7
			7:[f8712<0.0790116489] yes=15,no=16,missing=15
				15:leaf=-0.0105118426
				16:leaf=0.00178992143
			8:[f1825<21.0042629] yes=17,no=18,missing=17
				17:leaf=-0.00806627236
				18:leaf=-0.00339695485
		4:[f9253<0.0961688608] yes=9,no=10,missing=9
			9:[f207<0.87539053] yes=19,no=20,missing=19
				19:leaf=-0.00829034112
				20:leaf=-0.00386963715
			10:[f1198<8.04741096] yes=21,no=22,missing=21
				21:leaf=-0.00542221218
				22:leaf=-0.0012145238
	2:[f9261<0.88206625] yes=5,no=6,missing=5
		5:[f420<0.0989332423] yes=11,no=12,missing=11
			11:[f8160<0.00233221077] yes=23,no=24,missing=23
				23:leaf=0.000972762704
				24:leaf=-0.00449847244
			12:[f1198<11.2927227] yes=25,no=26,missing=25
				25:leaf=-0.00155843236
				26:leaf=0.00291752839
		6:[f412<0.527886868] yes=13,no=14,missing=13
			13:[f8418<0.000137472118] yes=27,no=28,missing=27
				27:leaf=-0.0012627549
				28:leaf=0.00336145191
			14:[f8215<0.0381036475] yes=29,no=30,missing=29
				29:leaf=0.0023258354
				30:leaf=0.00877964683
booster[80]:
0:[f9273<0.704679489] yes=1,no=2,missing=1
	1:[f222<2.42546701] yes=3,no=4,missing=3
		3:[f2824<2.42591619] yes=7,no=8,missing=7
			7:[f9236<0.174064159] yes=15,no=16,missing=15
				15:leaf=-0.0101896795
				16:leaf=-0.00660799677
			8:[f6754<0.0201591626] yes=17,no=18,missing=17
				17:leaf=0.000113232592
				18:leaf=-0.00590358954
		4:[f5594<2.23703432] yes=9,no=10,missing=9
			9:[f207<0.980285704] yes=19,no=20,missing=19
				19:leaf=-0.00636843778
				20:leaf=-0.000734779343
			10:[f430<1.0483768] yes=21,no=22,missing=21
				21:leaf=-0.00213631336
				22:leaf=0.00251549296
	2:[f5210<4.1565094] yes=5,no=6,missing=5
		5:[f8129<0.0849956647] yes=11,no=12,missing=11
			11:[f8758<0.0121027762] yes=23,no=24,missing=23
				23:leaf=0.000124225146
				24:leaf=-0.00739891408
			12:[f412<0.399937332] yes=25,no=26,missing=25
				25:leaf=-0.00219656923
				26:leaf=0.00260070735
		6:[f8214<0.103607729] yes=13,no=14,missing=13
			13:[f1654<16.6563263] yes=27,no=28,missing=27
				27:leaf=-0.000712380686
				28:leaf=0.00463077193
			14:[f1834<5.11724472] yes=29,no=30,missing=29
				29:leaf=0.00250237016
				30:leaf=0.0089867739
booster[81]:
0:[f5202<1.82840896] yes=1,no=2,missing=1
	1:[f9253<0.0978744328] yes=3,no=4,missing=3
		3:[f207<0.730638981] yes=7,no=8,missing=7
			7:[f3245<6.55116558] yes=15,no=16,missing=15
				15:leaf=-0.0105295302
				16:leaf=-0.00397112826
			8:[f6498<0.214631289] yes=17,no=18,missing=17
				17:leaf=-0.00646306248
				18:leaf=0.000163794786
		4:[f412<0.253608912] yes=9,no=10,missing=9
			9:[f4296<0.0662899166] yes=19,no=20,missing=19
				19:leaf=-0.0041837818
				20:leaf=-0.0086352611
			10:[f3268<4.62735176] yes=21,no=22,missing=21
				21:leaf=-0.00181553536
				22:leaf=-0.00609896053
	2:[f9273<1.84026408] yes=5,no=6,missing=5
		5:[f430<1.04156089] yes=11,no=12,missing=11
			11:[f1666<0.580120564] yes=23,no=24,missing=23
				23:leaf=-3.84585655e-05
				24:leaf=-0.0041784998
			12:[f8500<0.0528919026] yes=25,no=26,missing=25
				25:leaf=0.000188620295
				26:leaf=0.00439492613
		6:[f210<0.278841555] yes=13,no=14,missing=13
			13:[f9852<0.144789979] yes=27,no=28,missing=27
				27:leaf=0.00416990137
				28:leaf=-0.00162158965
			14:[f2123<1.08173442] yes=29,no=30,missing=29
				29:leaf=0.0016271621
				30:leaf=0.00872211531
booster[82]:
0:[f9261<0.516508639] yes=1,no=2,missing=1
	1:[f1198<8.58014107] yes=3,no=4,missing=3
		3:[f1590<9.99970818] yes=7,no=8,missing=7
			7:[f430<0.870474696] yes=15,no=16,missing=15
				15:leaf=-0.00993052963
				16:leaf=-0.0066256756
			8:[f4227<0.0321025737] yes=17,no=18,missing=17
				17:leaf=-0.000465028308
				18:leaf=-0.00600973237
		4:[f2875<2.31296873] yes=9,no=10,missing=9
			9:[f8756<0.0159101933] yes=19,no=20,missing=19
				19:leaf=0.00229658
				20:leaf=-0.00247137272
			10:[f9261<0.31235534] yes=21,no=22,missing=21
				21:leaf=-0.00785066094
				22:leaf=-0.00349263428
	2:[f210<0.3440139] yes=5,no=6,missing=5
		5:[f9273<1.29000211] yes=11,no=12,missing=11
			11:[f4296<0.0770041496] yes=23,no=24,missing=23
				23:leaf=-0.000344227097
				24:leaf=-0.00442929473
			12:[f8129<0.159601405] yes=25,no=26,missing=25
				25:leaf=-0.0026654359
				26:leaf=0.00303335697
		6:[f9261<1.41479075] yes=13,no=14,missing=13
			13:[f222<3.38440371] yes=27,no=28,missing=27
				27:leaf=0.00141087221
				28:leaf=0.00567320874
			14:[f416<0.0166683104] yes=29,no=30,missing=29
				29:leaf=-0.00128826627
				30:leaf=0.0090446854
booster[83]:
0:[f9261<0.516508639] yes=1,no=2,missing=1
	1:[f1198<8.58014107] yes=3,no=4,missing=3
		3:[f3917<0.466388524] yes=7,no=8,missing=7
			7:[f429<0.233931452] yes=15,no=16,missing=15
				15:leaf=-0.00986688025
				16:leaf=-0.0064162272
			8:[f6683<0.0248295944] yes=17,no=18,missing=17
				17:leaf=-0.000212056926
				18:leaf=-0.00592382578
		4:[f2875<2.31296873] yes=9,no=10,missing=9
			9:[f8756<0.0159101933] yes=19,no=20,missing=19
				19:leaf=0.00227431045
				20:leaf=-0.0024491942
			10:[f8129<0.0645827875] yes=21,no=22,missing=21
				21:leaf=-0.00811261684
				22:leaf=-0.00375027652
	2:[f210<0.3440139] yes=5,no=6,missing=5
		5:[f9273<1.29000211] yes=11,no=12,missing=11
			11:[f4296<0.0770041496] yes=23,no=24,missing=23
				23:leaf=-0.000341090403
				24:leaf=-0.00439063972
			12:[f8129<0.159601405] yes=25,no=26,missing=25
				25:leaf=-0.00264356984
				26:leaf=0.00300544966
		6:[f9261<1.41479075] yes=13,no=14,missing=13
			13:[f222<3.38440371] yes=27,no=28,missing=27
				27:leaf=0.00139745243
				28:leaf=0.0056262603
			14:[f416<0.0166683104] yes=29,no=30,missing=29
				29:leaf=-0.0012846943
				30:leaf=0.00898847356
booster[84]:
0:[f7271<1.23943591] yes=1,no=2,missing=1
	1:[f222<2.11052322] yes=3,no=4,missing=3
		3:[f9295<0.225339174] yes=7,no=8,missing=7
			7:[f6405<0.0034141643] yes=15,no=16,missing=15
				15:leaf=0.000376555836
				16:leaf=-0.00991918985
			8:[f9407<0.496711791] yes=17,no=18,missing=17
				17:leaf=-0.00576809281
				18:leaf=0.000355928642
		4:[f9253<0.0965495706] yes=9,no=10,missing=9
			9:[f3157<15.6901474] yes=19,no=20,missing=19
				19:leaf=-0.00773992296
				20:leaf=-0.00123129855
			10:[f430<1.0691216] yes=21,no=22,missing=21
				21:leaf=-0.0047534355
				22:leaf=-0.000181762298
	2:[f9261<1.33636189] yes=5,no=6,missing=5
		5:[f430<0.906859517] yes=11,no=12,missing=11
			11:[f3719<0.425042033] yes=23,no=24,missing=23
				23:leaf=0.000737856084
				24:leaf=-0.00448131561
			12:[f1198<11.0869799] yes=25,no=26,missing=25
				25:leaf=-0.000980683253
				26:leaf=0.0033774178
		6:[f234<4.65586042] yes=13,no=14,missing=13
			13:[f8129<0.364254981] yes=27,no=28,missing=27
				27:leaf=0.000354666292
				28:leaf=0.00540230423
			14:[f3684<7.61460114] yes=29,no=30,missing=29
				29:leaf=0.00912290718
				30:leaf=-0.00220020371
booster[85]:
0:[f9261<0.516508639] yes=1,no=2,missing=1
	1:[f1198<8.58014107] yes=3,no=4,missing=3
		3:[f8381<0.00479219481] yes=7,no=8,missing=7
			7:[f8336<0.0497910492] yes=15,no=16,missing=15
				15:leaf=-0.00545902178
				16:leaf=0.00723077357
			8:[f420<0.085934177] yes=17,no=18,missing=17
				17:leaf=-0.0100264987
				18:leaf=-0.0069914558
		4:[f2875<2.31296873] yes=9,no=10,missing=9
			9:[f8756<0.0159101933] yes=19,no=20,missing=19
				19:leaf=0.00227437913
				20:leaf=-0.0024043459
			10:[f8129<0.0645827875] yes=21,no=22,missing=21
				21:leaf=-0.00801881589
				22:leaf=-0.00368935452
	2:[f220<1.18952513] yes=5,no=6,missing=5
		5:[f9273<1.36414456] yes=11,no=12,missing=11
			11:[f420<0.0710777491] yes=23,no=24,missing=23
				23:leaf=-0.00479976088
				24:leaf=-0.000895855657
			12:[f8418<0.000137425348] yes=25,no=26,missing=25
				25:leaf=-0.000958953227
				26:leaf=0.00387585117
		6:[f9214<2.28806973] yes=13,no=14,missing=13
			13:[f222<3.26104593] yes=27,no=28,missing=27
				27:leaf=0.00171948783
				28:leaf=0.0057751704
			14:[f228<1.27996159] yes=29,no=30,missing=29
				29:leaf=0.000311112148
				30:leaf=0.00998696685
booster[86]:
0:[f3200<4.8206563] yes=1,no=2,missing=1
	1:[f9253<0.126873434] yes=3,no=4,missing=3
		3:[f222<2.07417154] yes=7,no=8,missing=7
			7:[f3911<11.8673038] yes=15,no=16,missing=15
				15:leaf=-0.0103089726
				16:leaf=-0.000668530585
			8:[f4453<0.00978327356] yes=17,no=18,missing=17
				17:leaf=-0.00349881779
				18:leaf=-0.00772692775
		4:[f9261<0.844809115] yes=9,no=10,missing=9
			9:[f822<5.54041576] yes=19,no=20,missing=19
				19:leaf=-0.00606084289
				20:leaf=-0.000191567393
			10:[f8418<0.000194087639] yes=21,no=22,missing=21
				21:leaf=-0.00247355946
				22:leaf=0.00328877848
	2:[f8218<0.0163479745] yes=5,no=6,missing=5
		5:[f6754<0.0327469893] yes=11,no=12,missing=11
			11:[f1198<14.1006889] yes=23,no=24,missing=23
				23:leaf=-0.00090702821
				24:leaf=0.00412746612
			12:[f8129<0.0863671675] yes=25,no=26,missing=25
				25:leaf=-0.0057421946
				26:leaf=-0.00149345503
		6:[f5202<4.22344685] yes=13,no=14,missing=13
			13:[f442<0.608476698] yes=27,no=28,missing=27
				27:leaf=-0.000705444545
				28:leaf=0.00366084813
			14:[f220<1.39671469] yes=29,no=30,missing=29
				29:leaf=0.004833607
				30:leaf=0.00974878017
booster[87]:
0:[f9273<0.704679489] yes=1,no=2,missing=1
	1:[f222<2.42546701] yes=3,no=4,missing=3
		3:[f2824<2.42591619] yes=7,no=8,missing=7
			7:[f9236<0.174064159] yes=15,no=16,missing=15
				15:leaf=-0.00984868966
				16:leaf=-0.00625525601
			8:[f6754<0.0201591626] yes=17,no=18,missing=17
				17:leaf=0.000336689525
				18:leaf=-0.00557359681
		4:[f9253<0.108390421] yes=9,no=10,missing=9
			9:[f281<0.178563982] yes=19,no=20,missing=19
				19:leaf=-0.00279417634
				20:leaf=-0.00721814437
			10:[f207<0.979370832] yes=21,no=22,missing=21
				21:leaf=-0.00289127044
				22:leaf=0.00234233518
	2:[f5210<4.1565094] yes=5,no=6,missing=5
		5:[f8129<0.0849956647] yes=11,no=12,missing=11
			11:[f8758<0.0121027762] yes=23,no=24,missing=23
