booster[0]:
0:[f7271<1.43442011] yes=1,no=2,missing=1
	1:[f7271<0.751891255] yes=3,no=4,missing=3
		3:[f9253<0.0803818852] yes=7,no=8,missing=7
			7:[f5217<1.54530287] yes=15,no=16,missing=15
				15:leaf=-0.00474489806
				16:leaf=0.00190231367
			8:[f9127<4.61152458] yes=17,no=18,missing=17
				17:leaf=0.00367797934
				18:leaf=-0.00177874183
		4:[f5249<0.465793967] yes=9,no=10,missing=9
			9:[f5010<7.5625658] yes=19,no=20,missing=19
				19:leaf=-0.00114114105
				20:leaf=0.00550847454
			10:[f1198<4.51753521] yes=21,no=22,missing=21
				21:leaf=0.000199335554
				22:leaf=0.00905962661
	2:[f412<0.208832741] yes=5,no=6,missing=5
		5:[f6415<0.0307440124] yes=11,no=12,missing=11
			11:[f6464<0.00356689747] yes=23,no=24,missing=23
				23:leaf=0.000384615385
				24:leaf=-0.00113207544
			12:[f9342<0.0457761958] yes=25,no=26,missing=25
				25:leaf=-0.000380952377
				26:leaf=0.00299212593
		6:[f5255<1.36892354] yes=13,no=14,missing=13
			13:[f699<1.70643687] yes=27,no=28,missing=27
				27:leaf=0.00213114754
				28:leaf=-0.000669856439
			14:[f5446<0.049535647] yes=29,no=30,missing=29
				29:leaf=-0.000392156857
				30:leaf=0.018225627
booster[1]:
0:[f9273<0.76766026] yes=1,no=2,missing=1
	1:[f3227<9.88279152] yes=3,no=4,missing=3
		3:[f7251<0.199306905] yes=7,no=8,missing=7
			7:[f3245<3.94370699] yes=15,no=16,missing=15
				15:leaf=-0.0041912836
				16:leaf=0.00316350837
			8:[f2401<0.226304084] yes=17,no=18,missing=17
				17:leaf=0.00540780043
				18:leaf=5.51182493e-05
		4:[f7253<0.969051242] yes=9,no=10,missing=9
			9:[f1705<5.3639102] yes=19,no=20,missing=19
				19:leaf=-0.00259345933
				20:leaf=0.00184586237
			10:[f8923<0.507813811] yes=21,no=22,missing=21
				21:leaf=0.00947954971
				22:leaf=0.00219845539
	2:[f5255<1.34142065] yes=5,no=6,missing=5
		5:[f393<0.435470551] yes=11,no=12,missing=11
			11:[f842<2.83942175] yes=23,no=24,missing=23
				23:leaf=0.00403120974
				24:leaf=-0.000566938717
			12:[f8759<0.12602219] yes=25,no=26,missing=25
				25:leaf=-0.00138651289
				26:leaf=0.000575733604
		6:[f99<1.6791172] yes=13,no=14,missing=13
			13:[f6292<0.0641109049] yes=27,no=28,missing=27
				27:leaf=-0.000661677099
				28:leaf=0.000765143195
			14:[f9204<2.51376486] yes=29,no=30,missing=29
				29:leaf=0.0180779211
				30:leaf=0.000437661773
booster[2]:
0:[f7271<1.43442011] yes=1,no=2,missing=1
	1:[f7271<0.751891255] yes=3,no=4,missing=3
		3:[f9253<0.0803818852] yes=7,no=8,missing=7
			7:[f5217<1.54530287] yes=15,no=16,missing=15
				15:leaf=-0.00468925899
				16:leaf=0.00188001897
			8:[f9127<4.61152458] yes=17,no=18,missing=17
				17:leaf=0.00362409255
				18:leaf=-0.00177896197
		4:[f5249<0.465793967] yes=9,no=10,missing=9
			9:[f5010<7.5625658] yes=19,no=20,missing=19
				19:leaf=-0.00114329241
				20:leaf=0.00544028403
			10:[f1245<2.64279175] yes=21,no=22,missing=21
				21:leaf=0.00167013332
				22:leaf=0.00906241033
	2:[f9279<1.41163623] yes=5,no=6,missing=5
		5:[f430<0.418225378] yes=11,no=12,missing=11
			11:[f6211<0.00407774188] yes=23,no=24,missing=23
				23:leaf=-0.000985822524
				24:leaf=0.00206196611
			12:[f5030<12.1923952] yes=25,no=26,missing=25
				25:leaf=0.0140308691
				26:leaf=-2.82103611e-05
		6:[f874<14.5916462] yes=13,no=14,missing=13
			13:[f1718<0.960177481] yes=27,no=28,missing=27
				27:leaf=8.96220081e-05
				28:leaf=0.018920511
			14:leaf=8.87081551e-05
booster[3]:
0:[f9273<0.76766026] yes=1,no=2,missing=1
	1:[f3227<9.88279152] yes=3,no=4,missing=3
		3:[f7251<0.199306905] yes=7,no=8,missing=7
			7:[f3245<3.94370699] yes=15,no=16,missing=15
				15:leaf=-0.00414330931
				16:leaf=0.00313318567
			8:[f2401<0.226304084] yes=17,no=18,missing=17
				17:leaf=0.00532315206
				18:leaf=2.52445625e-05
		4:[f7253<0.969051242] yes=9,no=10,missing=9
			9:[f1705<5.3639102] yes=19,no=20,missing=19
				19:leaf=-0.00258220965
				20:leaf=0.00184190506
			10:[f8923<0.507813811] yes=21,no=22,missing=21
				21:leaf=0.00931446627
				22:leaf=0.00213300483
	2:[f5255<1.3712709] yes=5,no=6,missing=5
		5:[f393<0.435470551] yes=11,no=12,missing=11
			11:[f8749<0.485130459] yes=23,no=24,missing=23
				23:leaf=0.00432934053
				24:leaf=-0.00057740428
			12:[f4231<0.0799538046] yes=25,no=26,missing=25
				25:leaf=-0.00139079639
				26:leaf=0.000565881084
		6:[f99<1.6791172] yes=13,no=14,missing=13
			13:[f6292<0.0641109049] yes=27,no=28,missing=27
				27:leaf=-0.000665785221
				28:leaf=0.000760887342
			14:[f9204<2.51376486] yes=29,no=30,missing=29
				29:leaf=0.0177487079
				30:leaf=0.000428768806
booster[4]:
0:[f7271<1.43442011] yes=1,no=2,missing=1
	1:[f7271<0.751891255] yes=3,no=4,missing=3
		3:[f9253<0.0803818852] yes=7,no=8,missing=7
			7:[f5217<1.54530287] yes=15,no=16,missing=15
				15:leaf=-0.00463435426
				16:leaf=0.00185805256
			8:[f9752<0.171499193] yes=17,no=18,missing=17
				17:leaf=0.00351100089
				18:leaf=-0.00195749453
		4:[f5249<0.465793967] yes=9,no=10,missing=9
			9:[f5010<7.5625658] yes=19,no=20,missing=19
				19:leaf=-0.00114555086
				20:leaf=0.00537356408
			10:[f1198<4.51753521] yes=21,no=22,missing=21
				21:leaf=0.00014405961
				22:leaf=0.00873746537
	2:[f9279<1.41163623] yes=5,no=6,missing=5
		5:[f430<0.418225378] yes=11,no=12,missing=11
			11:[f6211<0.00407774188] yes=23,no=24,missing=23
				23:leaf=-0.00100433349
				24:leaf=0.00203454471
			12:[f5030<12.1923952] yes=25,no=26,missing=25
				25:leaf=0.0137530137
				26:leaf=-3.96124597e-05
		6:[f874<14.5916462] yes=13,no=14,missing=13
			13:[f547<0.175319314] yes=27,no=28,missing=27
				27:leaf=8.50557335e-05
				28:leaf=0.0185795464
			14:leaf=8.43606031e-05
booster[5]:
0:[f9273<0.76766026] yes=1,no=2,missing=1
	1:[f3227<9.88279152] yes=3,no=4,missing=3
		3:[f7251<0.199306905] yes=7,no=8,missing=7
			7:[f3245<3.94370699] yes=15,no=16,missing=15
				15:leaf=-0.00409593014
				16:leaf=0.00310328975
			8:[f2401<0.226304084] yes=17,no=18,missing=17
				17:leaf=0.00523785641
				18:leaf=-4.12563895e-06
		4:[f7253<0.969051242] yes=9,no=10,missing=9
			9:[f1705<5.3639102] yes=19,no=20,missing=19
				19:leaf=-0.00257054646
				20:leaf=0.00183509942
			10:[f8923<0.507813811] yes=21,no=22,missing=21
				21:leaf=0.00915395096
				22:leaf=0.00206877827
	2:[f5255<1.3712709] yes=5,no=6,missing=5
		5:[f393<0.435470551] yes=11,no=12,missing=11
			11:[f8749<0.485130459] yes=23,no=24,missing=23
				23:leaf=0.00427871291
				24:leaf=-0.000582581735
			12:[f8759<0.12602219] yes=25,no=26,missing=25
				25:leaf=-0.00138795504
				26:leaf=0.000572377234
		6:[f99<1.6791172] yes=13,no=14,missing=13
			13:[f6292<0.0641109049] yes=27,no=28,missing=27
				27:leaf=-0.000668832276
				28:leaf=0.000756457564
			14:[f9204<2.51376486] yes=29,no=30,missing=29
				29:leaf=0.0174267665
				30:leaf=0.000420096098
booster[6]:
0:[f7259<1.06271911] yes=1,no=2,missing=1
	1:[f5247<2.10965109] yes=3,no=4,missing=3
		3:[f9253<0.114098385] yes=7,no=8,missing=7
			7:[f204<1.04441547] yes=15,no=16,missing=15
				15:leaf=-0.00479281088
				16:leaf=0.000654885895
			8:[f204<1.09495068] yes=17,no=18,missing=17
				17:leaf=0.0015541265
				18:leaf=0.0072424924
		4:[f3928<5.56737566] yes=9,no=10,missing=9
			9:[f2555<0.16332832] yes=19,no=20,missing=19
				19:leaf=0.00208583404
				20:leaf=-0.00128436787
			10:[f7698<0.0309111904] yes=21,no=22,missing=21
				21:leaf=-0.00022315637
				22:leaf=0.0119922645
	2:[f1400<1.33544469] yes=5,no=6,missing=5
		5:[f9236<0.702293456] yes=11,no=12,missing=11
			11:[f6714<0.189611048] yes=23,no=24,missing=23
				23:leaf=0.000374881492
				24:leaf=-0.00139685674
			12:[f870<4.17504168] yes=25,no=26,missing=25
				25:leaf=0.00125588756
				26:leaf=-0.000116348339
		6:[f4125<0.298783481] yes=13,no=14,missing=13
			13:[f5228<2.8428998] yes=27,no=28,missing=27
				27:leaf=-0.00129145326
				28:leaf=0.00298069254
			14:[f5843<2.39001322] yes=29,no=30,missing=29
				29:leaf=-3.83652841e-05
				30:leaf=0.0172963981
booster[7]:
0:[f9273<0.76766026] yes=1,no=2,missing=1
	1:[f3227<9.88279152] yes=3,no=4,missing=3
		3:[f7251<0.199306905] yes=7,no=8,missing=7
			7:[f3245<3.94370699] yes=15,no=16,missing=15
				15:leaf=-0.00404560845
				16:leaf=0.00306892651
			8:[f2401<0.226304084] yes=17,no=18,missing=17
				17:leaf=0.00515778828
				18:leaf=-2.69866723e-05
		4:[f9697<3.44019651] yes=9,no=10,missing=9
			9:[f4660<0.08517766] yes=19,no=20,missing=19
				19:leaf=0.00901494455
				20:leaf=0.00242566247
			10:[f2462<0.267577767] yes=21,no=22,missing=21
				21:leaf=-0.00279258681
				22:leaf=0.00164731673
	2:[f5255<1.34142065] yes=5,no=6,missing=5
		5:[f393<0.435470551] yes=11,no=12,missing=11
			11:[f842<2.83942175] yes=23,no=24,missing=23
				23:leaf=0.00389472651
				24:leaf=-0.000579657848
			12:[f8759<0.12602219] yes=25,no=26,missing=25
				25:leaf=-0.00139896327
				26:leaf=0.000568334537
		6:[f99<1.6791172] yes=13,no=14,missing=13
			13:[f6292<0.0641109049] yes=27,no=28,missing=27
				27:leaf=-0.00067394384
				28:leaf=0.00075124955
			14:[f1532<0.210367292] yes=29,no=30,missing=29
				29:leaf=0.000113426177
				30:leaf=0.0171074551
booster[8]:
0:[f7259<1.06271911] yes=1,no=2,missing=1
	1:[f5247<2.10965109] yes=3,no=4,missing=3
		3:[f9253<0.114098385] yes=7,no=8,missing=7
			7:[f204<1.04441547] yes=15,no=16,missing=15
				15:leaf=-0.00474534696
				16:leaf=0.00063253555
			8:[f204<1.09495068] yes=17,no=18,missing=17
				17:leaf=0.00150288071
				18:leaf=0.00712053245
		4:[f3928<5.56737566] yes=9,no=10,missing=9
			9:[f2555<0.16332832] yes=19,no=20,missing=19
				19:leaf=0.00205813488
				20:leaf=-0.00128886208
			10:[f7698<0.0309111904] yes=21,no=22,missing=21
				21:leaf=-0.000229761019
				22:leaf=0.011798976
	2:[f1400<1.33544469] yes=5,no=6,missing=5
		5:[f9236<0.702293456] yes=11,no=12,missing=11
			11:[f6714<0.189611048] yes=23,no=24,missing=23
				23:leaf=0.000373263203
				24:leaf=-0.00140757649
			12:[f3153<2.23988962] yes=25,no=26,missing=25
				25:leaf=0.00124440412
				26:leaf=-0.00011971713
		6:[f4125<0.298783481] yes=13,no=14,missing=13
			13:[f5228<2.8428998] yes=27,no=28,missing=27
				27:leaf=-0.00130728737
				28:leaf=0.00294411741
			14:[f5843<2.39001322] yes=29,no=30,missing=29
				29:leaf=-4.42150813e-05
				30:leaf=0.0169976763
booster[9]:
0:[f7271<1.43442011] yes=1,no=2,missing=1
	1:[f7271<0.751891255] yes=3,no=4,missing=3
		3:[f9253<0.0803818852] yes=7,no=8,missing=7
			7:[f5217<1.54530287] yes=15,no=16,missing=15
				15:leaf=-0.00452961121
				16:leaf=0.00180859014
			8:[f9127<4.61152458] yes=17,no=18,missing=17
				17:leaf=0.00345878932
				18:leaf=-0.001827467
		4:[f5249<0.465793967] yes=9,no=10,missing=9
			9:[f5010<7.5625658] yes=19,no=20,missing=19
				19:leaf=-0.00117102708
				20:leaf=0.00519144069
			10:[f1245<2.70085621] yes=21,no=22,missing=21
				21:leaf=0.00168764649
				22:leaf=0.00854154676
	2:[f9279<1.41163623] yes=5,no=6,missing=5
		5:[f430<0.418225378] yes=11,no=12,missing=11
			11:[f6211<0.00407774188] yes=23,no=24,missing=23
				23:leaf=-0.00107385183
				24:leaf=0.00193606876
			12:[f5030<12.1923952] yes=25,no=26,missing=25
				25:leaf=0.0130816018
				26:leaf=-9.54725037e-05
		6:[f1885<1.49251294] yes=13,no=14,missing=13
			13:leaf=6.6641609e-05
			14:[f874<14.5916462] yes=27,no=28,missing=27
				27:leaf=0.0178138036
				28:leaf=6.75919364e-05
booster[10]:
0:[f9273<0.76766026] yes=1,no=2,missing=1
	1:[f3227<9.88279152] yes=3,no=4,missing=3
		3:[f7251<0.199306905] yes=7,no=8,missing=7
			7:[f3245<3.94370699] yes=15,no=16,missing=15
				15:leaf=-0.00398272695
				16:leaf=0.00302358111
			8:[f2401<0.226304084] yes=17,no=18,missing=17
				17:leaf=0.00504307542
				18:leaf=-7.6498749e-05
		4:[f9697<3.44019651] yes=9,no=10,missing=9
			9:[f4660<0.08517766] yes=19,no=20,missing=19
				19:leaf=0.00878667273
				20:leaf=0.00230696565
			10:[f2462<0.267577767] yes=21,no=22,missing=21
				21:leaf=-0.00279057724
				22:leaf=0.0016320087
	2:[f5255<1.3712709] yes=5,no=6,missing=5
		5:[f393<0.435470551] yes=11,no=12,missing=11
			11:[f7912<0.12648949] yes=23,no=24,missing=23
				23:leaf=-0.000420448981
				24:leaf=0.00428379327
			12:[f8759<0.12602219] yes=25,no=26,missing=25
				25:leaf=-0.00140111218
				26:leaf=0.000563060457
		6:[f2222<0.23312518] yes=13,no=14,missing=13
			13:[f4673<0.0552569255] yes=27,no=28,missing=27
				27:leaf=0.00174762064
				28:leaf=-0.000909198716
			14:[f3200<2.53161311] yes=29,no=30,missing=29
				29:leaf=0.000884630892
				30:leaf=0.0167145804
booster[11]:
0:[f7259<1.06271911] yes=1,no=2,missing=1
	1:[f5247<2.10965109] yes=3,no=4,missing=3
		3:[f9253<0.114098385] yes=7,no=8,missing=7
			7:[f204<1.04441547] yes=15,no=16,missing=15
				15:leaf=-0.00469282409
				16:leaf=0.000596555299
			8:[f204<1.09495068] yes=17,no=18,missing=17
				17:leaf=0.00141784782
				18:leaf=0.0069453558
		4:[f3928<5.49868107] yes=9,no=10,missing=9
			9:[f8669<0.00212788861] yes=19,no=20,missing=19
				19:leaf=-0.00115971942
				20:leaf=0.0022989728
			10:[f7698<0.0309111904] yes=21,no=22,missing=21
				21:leaf=-0.000242295166
				22:leaf=0.0115161175
	2:[f1400<1.33544469] yes=5,no=6,missing=5
		5:[f9236<0.702293456] yes=11,no=12,missing=11
			11:[f6714<0.189611048] yes=23,no=24,missing=23
				23:leaf=0.000368989102
				24:leaf=-0.00142335496
			12:[f3153<2.23988962] yes=25,no=26,missing=25
				25:leaf=0.0012286976
				26:leaf=-0.000123809121
		6:[f4125<0.298783481] yes=13,no=14,missing=13
			13:[f5228<2.8428998] yes=27,no=28,missing=27
				27:leaf=-0.0013376592
				28:leaf=0.00288556819
			14:[f5843<2.39001322] yes=29,no=30,missing=29
				29:leaf=-5.62259775e-05
				30:leaf=0.0165778063
booster[12]:
0:[f9273<0.76766026] yes=1,no=2,missing=1
	1:[f3227<9.88279152] yes=3,no=4,missing=3
		3:[f7251<0.199306905] yes=7,no=8,missing=7
			7:[f3245<3.94370699] yes=15,no=16,missing=15
				15:leaf=-0.00393361039
				16:leaf=0.00299155875
			8:[f2401<0.226304084] yes=17,no=18,missing=17
				17:leaf=0.00496696867
				18:leaf=-9.75594303e-05
		4:[f9697<3.44019651] yes=9,no=10,missing=9
			9:[f8923<0.507813811] yes=19,no=20,missing=19
				19:leaf=0.00854799151
				20:leaf=0.0017668365
			10:[f2462<0.267577767] yes=21,no=22,missing=21
				21:leaf=-0.00278822775
				22:leaf=0.00162094331
	2:[f9236<0.720824361] yes=5,no=6,missing=5
		5:[f430<0.433975101] yes=11,no=12,missing=11
			11:[f1288<7.88602734] yes=23,no=24,missing=23
				23:leaf=0.00139275857
				24:leaf=-0.00103885704
			12:[f3247<1.36956644] yes=25,no=26,missing=25
				25:leaf=0.00181998045
				26:leaf=0.0124550145
		6:[f6606<0.00921020191] yes=13,no=14,missing=13
			13:[f1124<3.31853914] yes=27,no=28,missing=27
				27:leaf=-0.000528333941
				28:leaf=0.000620199018
			14:[f8242<0.0876631886] yes=29,no=30,missing=29
				29:leaf=0.000179984345
				30:leaf=0.0172364097
booster[13]:
0:[f7259<1.06271911] yes=1,no=2,missing=1
	1:[f5247<2.10965109] yes=3,no=4,missing=3
		3:[f9261<0.341691613] yes=7,no=8,missing=7
			7:[f440<0.187287658] yes=15,no=16,missing=15
				15:leaf=-0.00373856304
				16:leaf=0.00134670897
			8:[f9985<0.128976643] yes=17,no=18,missing=17
				17:leaf=0.00693775574
				18:leaf=0.000992080197
		4:[f3928<5.56737566] yes=9,no=10,missing=9
			9:[f8669<0.00212788861] yes=19,no=20,missing=19
				19:leaf=-0.0010115304
				20:leaf=0.00225858367
			10:[f7698<0.0309111904] yes=21,no=22,missing=21
				21:leaf=-0.000250688754
				22:leaf=0.0113656642
	2:[f9236<0.720824361] yes=5,no=6,missing=5
		5:[f1400<1.33544469] yes=11,no=12,missing=11
			11:[f6714<0.189611048] yes=23,no=24,missing=23
				23:leaf=0.000367642584
				24:leaf=-0.00142856478
			12:[f5843<2.49822807] yes=25,no=26,missing=25
				25:leaf=-0.000180880001
				26:leaf=0.0120876487
		6:[f6606<0.00921020191] yes=13,no=14,missing=13
			13:[f581<0.0621632561] yes=27,no=28,missing=27
				27:leaf=-0.000626899826
				28:leaf=0.000619359838
			14:[f7768<0.0698284656] yes=29,no=30,missing=29
				29:leaf=-5.07354962e-05
				30:leaf=0.017095102
booster[14]:
0:[f7271<1.61412311] yes=1,no=2,missing=1
	1:[f7271<0.933097005] yes=3,no=4,missing=3
		3:[f9253<0.0803818852] yes=7,no=8,missing=7
			7:[f5722<1.08545411] yes=15,no=16,missing=15
				15:leaf=-0.00408464391
				16:leaf=0.0033989998
			8:[f218<0.568138421] yes=17,no=18,missing=17
				17:leaf=0.00076921127
				18:leaf=0.00542071229
		4:[f8923<0.5090729] yes=9,no=10,missing=9
			9:[f8540<0.0515370443] yes=19,no=20,missing=19
				19:leaf=0.00938951503
				20:leaf=0.00117207959
			10:[f2081<1.98515987] yes=21,no=22,missing=21
				21:leaf=-0.00222277478
				22:leaf=0.00421235524
	2:[f4223<0.0157820545] yes=5,no=6,missing=5
		5:[f820<1.43445241] yes=11,no=12,missing=11
			11:leaf=0.00082578999
			12:leaf=-0.000822040194
		6:[f1532<0.210367292] yes=13,no=14,missing=13
			13:[f8045<0.489640415] yes=23,no=24,missing=23
				23:leaf=-0.000545633608
				24:leaf=0.000521454553
			14:[f9204<2.6756258] yes=25,no=26,missing=25
				25:leaf=0.0163707212
				26:leaf=-1.08740721e-06
booster[15]:
0:[f7259<1.06271911] yes=1,no=2,missing=1
	1:[f5247<2.10965109] yes=3,no=4,missing=3
		3:[f9253<0.129661724] yes=7,no=8,missing=7
			7:[f440<0.220109969] yes=15,no=16,missing=15
				15:leaf=-0.00397834368
				16:leaf=0.00134913006
			8:[f204<0.988137066] yes=17,no=18,missing=17
				17:leaf=0.000939690974
				18:leaf=0.00652039237
		4:[f3928<5.49868107] yes=9,no=10,missing=9
			9:[f8669<0.00212788861] yes=19,no=20,missing=19
				19:leaf=-0.00118036754
				20:leaf=0.00225760019
			10:[f7698<0.0309111904] yes=21,no=22,missing=21
				21:leaf=-0.000257946958
				22:leaf=0.0111746043
	2:[f9236<0.720824361] yes=5,no=6,missing=5
		5:[f1400<1.33544469] yes=11,no=12,missing=11
			11:[f6714<0.189611048] yes=23,no=24,missing=23
				23:leaf=0.000364809996
				24:leaf=-0.00143810327
			12:[f5843<2.49822807] yes=25,no=26,missing=25
				25:leaf=-0.000186630277
				26:leaf=0.0118794795
		6:[f6606<0.00921020191] yes=13,no=14,missing=13
			13:[f581<0.0621632561] yes=27,no=28,missing=27
				27:leaf=-0.00063054089
				28:leaf=0.000614361663
			14:[f7768<0.0698284656] yes=29,no=30,missing=29
				29:leaf=-5.37700289e-05
				30:leaf=0.0168355256
booster[16]:
0:[f9273<0.76766026] yes=1,no=2,missing=1
	1:[f3227<9.88279152] yes=3,no=4,missing=3
		3:[f7251<0.199306905] yes=7,no=8,missing=7
			7:[f3245<3.94370699] yes=15,no=16,missing=15
				15:leaf=-0.00387001527
				16:leaf=0.00292873685
			8:[f2401<0.226304084] yes=17,no=18,missing=17
				17:leaf=0.00482964003
				18:leaf=-0.00016286796
		4:[f9697<3.44019651] yes=9,no=10,missing=9
			9:[f4660<0.08517766] yes=19,no=20,missing=19
				19:leaf=0.00837285165
				20:leaf=0.00207077339
			10:[f2462<0.267577767] yes=21,no=22,missing=21
				21:leaf=-0.00279027666
				22:leaf=0.00160161918
	2:[f9236<0.720824361] yes=5,no=6,missing=5
		5:[f430<0.433975101] yes=11,no=12,missing=11
			11:[f1288<7.88602734] yes=23,no=24,missing=23
				23:leaf=0.00132876984
				24:leaf=-0.00106258062
			12:[f3247<1.36956644] yes=25,no=26,missing=25
				25:leaf=0.00171603868
				26:leaf=0.0120580392
		6:[f4550<0.000466754544] yes=13,no=14,missing=13
			13:leaf=-0.000237670436
			14:[f8242<0.0876631886] yes=27,no=28,missing=27
				27:leaf=0.000156214024
				28:leaf=0.0167048965
booster[17]:
0:[f7259<1.06271911] yes=1,no=2,missing=1
	1:[f5247<2.10965109] yes=3,no=4,missing=3
		3:[f9261<0.341691613] yes=7,no=8,missing=7
			7:[f440<0.187287658] yes=15,no=16,missing=15
				15:leaf=-0.00369598204
				16:leaf=0.00127462589
			8:[f9985<0.128976643] yes=17,no=18,missing=17
				17:leaf=0.00674437871
				18:leaf=0.000890508294
		4:[f3928<5.56737566] yes=9,no=10,missing=9
			9:[f8669<0.00212788861] yes=19,no=20,missing=19
				19:leaf=-0.00103455421
				20:leaf=0.00221506297
			10:[f7698<0.0309111904] yes=21,no=22,missing=21
				21:leaf=-0.000264179311
				22:leaf=0.0110325851
	2:[f9236<0.720824361] yes=5,no=6,missing=5
		5:[f1400<1.33544469] yes=11,no=12,missing=11
			11:[f6714<0.189611048] yes=23,no=24,missing=23
				23:leaf=0.00036351048
				24:leaf=-0.00144307548
			12:[f5843<2.49822807] yes=25,no=26,missing=25
				25:leaf=-0.000192744526
				26:leaf=0.0116997166
		6:[f6606<0.00921020191] yes=13,no=14,missing=13
			13:[f581<0.0621632561] yes=27,no=28,missing=27
				27:leaf=-0.000633053307
				28:leaf=0.000608594622
			14:[f7768<0.0698284656] yes=29,no=30,missing=29
				29:leaf=-5.81755303e-05
				30:leaf=0.016582476
booster[18]:
0:[f7271<1.61412311] yes=1,no=2,missing=1
	1:[f7271<0.933097005] yes=3,no=4,missing=3
		3:[f9253<0.0803818852] yes=7,no=8,missing=7
			7:[f5201<2.45861363] yes=15,no=16,missing=15
				15:leaf=-0.00401068898
				16:leaf=0.00334400055
			8:[f1826<8.63786793] yes=17,no=18,missing=17
				17:leaf=-0.00132832758
				18:leaf=0.00413311739
		4:[f8923<0.5090729] yes=9,no=10,missing=9
			9:[f8540<0.0515370443] yes=19,no=20,missing=19
				19:leaf=0.00909350999
				20:leaf=0.00107844977
			10:[f2081<1.98515987] yes=21,no=22,missing=21
				21:leaf=-0.00225951942
				22:leaf=0.00403762562
	2:[f412<0.208121866] yes=5,no=6,missing=5
		5:[f8443<0.0127499439] yes=11,no=12,missing=11
			11:[f442<0.296758473] yes=23,no=24,missing=23
				23:leaf=0.000143591038
				24:leaf=-0.00101993314
			12:[f8493<0.0594031997] yes=25,no=26,missing=25
				25:leaf=0.00216443697
				26:leaf=-0.000179818395
		6:[f9543<0.0171064939] yes=13,no=14,missing=13
			13:[f4729<0.0228855833] yes=27,no=28,missing=27
				27:leaf=-0.000745290949
				28:leaf=0.000948556641
			14:[f1532<0.210367292] yes=29,no=30,missing=29
				29:leaf=-4.82445903e-05
				30:leaf=0.0159089174
booster[19]:
0:[f7259<1.06271911] yes=1,no=2,missing=1
	1:[f5247<2.10965109] yes=3,no=4,missing=3
		3:[f9261<0.341691613] yes=7,no=8,missing=7
			7:[f440<0.187287658] yes=15,no=16,missing=15
				15:leaf=-0.00367040141
				16:leaf=0.00124639238
			8:[f9985<0.128976643] yes=17,no=18,missing=17
				17:leaf=0.00663483795
				18:leaf=0.000845063012
		4:[f3928<5.56737566] yes=9,no=10,missing=9
			9:[f8669<0.00212788861] yes=19,no=20,missing=19
				19:leaf=-0.0010467578
				20:leaf=0.00219271518
			10:[f7698<0.0309111904] yes=21,no=22,missing=21
				21:leaf=-0.000270771241
				22:leaf=0.0108700451
	2:[f9236<0.720824361] yes=5,no=6,missing=5
		5:[f1400<1.33544469] yes=11,no=12,missing=11
			11:[f7752<1.54964876] yes=23,no=24,missing=23
				23:leaf=-0.00145060208
				24:leaf=0.000361061306
			12:[f5843<2.49822807] yes=25,no=26,missing=25
				25:leaf=-0.000196901456
				26:leaf=0.0115033099
		6:[f6606<0.00921020191] yes=13,no=14,missing=13
			13:[f581<0.0621632561] yes=27,no=28,missing=27
				27:leaf=-0.000635959499
				28:leaf=0.000604413799
			14:[f7768<0.0698284656] yes=29,no=30,missing=29
				29:leaf=-6.11072537e-05
				30:leaf=0.016345745
booster[20]:
0:[f7271<1.61412311] yes=1,no=2,missing=1
	1:[f7271<0.933097005] yes=3,no=4,missing=3
		3:[f9253<0.0803818852] yes=7,no=8,missing=7
			7:[f5722<1.08545411] yes=15,no=16,missing=15
				15:leaf=-0.00398860173
				16:leaf=0.00329141039
			8:[f218<0.568138421] yes=17,no=18,missing=17
				17:leaf=0.000688496453
				18:leaf=0.00522161415
		4:[f8923<0.5090729] yes=9,no=10,missing=9
			9:[f8540<0.0515370443] yes=19,no=20,missing=19
				19:leaf=0.00894427486
				20:leaf=0.00104174146
			10:[f2081<1.98515987] yes=21,no=22,missing=21
				21:leaf=-0.00226507918
				22:leaf=0.00396709284
	2:[f412<0.208121866] yes=5,no=6,missing=5
		5:[f8443<0.0127499439] yes=11,no=12,missing=11
			11:[f442<0.296758473] yes=23,no=24,missing=23
				23:leaf=0.000141489552
				24:leaf=-0.00102206948
			12:[f8493<0.0594031997] yes=25,no=26,missing=25
				25:leaf=0.00214460539
				26:leaf=-0.000184743883
		6:[f9543<0.0171064939] yes=13,no=14,missing=13
			13:[f4729<0.0228855833] yes=27,no=28,missing=27
				27:leaf=-0.000748588005
				28:leaf=0.000939839927
			14:[f1532<0.210367292] yes=29,no=30,missing=29
				29:leaf=-5.55615588e-05
				30:leaf=0.0156777091
booster[21]:
0:[f7259<1.06271911] yes=1,no=2,missing=1
	1:[f5247<2.10965109] yes=3,no=4,missing=3
		3:[f9253<0.129661724] yes=7,no=8,missing=7
			7:[f440<0.220109969] yes=15,no=16,missing=15
				15:leaf=-0.00391737325
				16:leaf=0.00126395747
			8:[f204<0.988137066] yes=17,no=18,missing=17
				17:leaf=0.000815665117
				18:leaf=0.0062390212
		4:[f3928<5.49868107] yes=9,no=10,missing=9
			9:[f8669<0.00212788861] yes=19,no=20,missing=19
				19:leaf=-0.00121152413
				20:leaf=0.00219465769
			10:[f7698<0.0309111904] yes=21,no=22,missing=21
				21:leaf=-0.000277663232
				22:leaf=0.0106936647
	2:[f9236<0.720824361] yes=5,no=6,missing=5
		5:[f1400<1.33544469] yes=11,no=12,missing=11
			11:[f7752<1.54964876] yes=23,no=24,missing=23
				23:leaf=-0.00145775662
				24:leaf=0.000358585035
			12:[f4125<0.284637213] yes=25,no=26,missing=25
				25:leaf=0.000441237557
				26:leaf=0.0113699688
		6:[f6606<0.00921020191] yes=13,no=14,missing=13
			13:[f581<0.0621632561] yes=27,no=28,missing=27
				27:leaf=-0.000638650788
				28:leaf=0.000600301777
			14:[f7768<0.0698284656] yes=29,no=30,missing=29
				29:leaf=-6.39879145e-05
				30:leaf=0.0161192715
booster[22]:
0:[f9273<0.76766026] yes=1,no=2,missing=1
	1:[f3227<9.88279152] yes=3,no=4,missing=3
		3:[f7251<0.199306905] yes=7,no=8,missing=7
			7:[f3245<3.94370699] yes=15,no=16,missing=15
				15:leaf=-0.00379147287
				16:leaf=0.00283732964
			8:[f2401<0.226304084] yes=17,no=18,missing=17
				17:leaf=0.00464214059
				18:leaf=-0.000273296871
		4:[f9697<3.44019651] yes=9,no=10,missing=9
			9:[f4660<0.0848425627] yes=19,no=20,missing=19
				19:leaf=0.00800522324
				20:leaf=0.00189261651
			10:[f2462<0.267577767] yes=21,no=22,missing=21
				21:leaf=-0.00280306907
				22:leaf=0.00156957621
	2:[f9279<1.41163623] yes=5,no=6,missing=5
		5:[f3247<1.36956644] yes=11,no=12,missing=11
			11:[f9317<0.0971381962] yes=23,no=24,missing=23
				23:leaf=-0.000936240365
				24:leaf=0.00271420553
			12:[f430<0.419659376] yes=25,no=26,missing=25
				25:leaf=0.000954692427
				26:leaf=0.0119106667
		6:[f1885<1.49251294] yes=13,no=14,missing=13
			13:leaf=1.97161098e-05
			14:[f874<14.5916462] yes=27,no=28,missing=27
				27:leaf=0.0161758643
				28:leaf=2.14917418e-05
booster[23]:
0:[f7259<1.06271911] yes=1,no=2,missing=1
	1:[f5247<2.03813362] yes=3,no=4,missing=3
		3:[f9261<0.341691613] yes=7,no=8,missing=7
			7:[f440<0.242662817] yes=15,no=16,missing=15
				15:leaf=-0.00256332848
				16:leaf=0.00214388967
			8:[f9985<0.128976643] yes=17,no=18,missing=17
				17:leaf=0.00641232915
				18:leaf=0.00063499622
		4:[f3928<5.56737566] yes=9,no=10,missing=9
			9:[f1817<6.16362429] yes=19,no=20,missing=19
				19:leaf=0.00221377681
				20:leaf=-0.00135546026
			10:[f9757<2.08920813] yes=21,no=22,missing=21
				21:leaf=0.0106158024
				22:leaf=0.000716366689
	2:[f9236<0.720824361] yes=5,no=6,missing=5
		5:[f1400<1.33544469] yes=11,no=12,missing=11
			11:[f7752<1.54964876] yes=23,no=24,missing=23
				23:leaf=-0.00146269973
				24:leaf=0.000357196346
			12:[f4125<0.284637213] yes=25,no=26,missing=25
				25:leaf=0.000419100281
				26:leaf=0.0112021072
		6:[f6606<0.00921020191] yes=13,no=14,missing=13
			13:[f581<0.0621632561] yes=27,no=28,missing=27
				27:leaf=-0.000642017403
				28:leaf=0.000595557911
			14:[f8242<0.0876631886] yes=29,no=30,missing=29
				29:leaf=0.00011059449
				30:leaf=0.0159027781
booster[24]:
0:[f7271<1.61412311] yes=1,no=2,missing=1
	1:[f9273<0.432525903] yes=3,no=4,missing=3
		3:[f3245<3.98573017] yes=7,no=8,missing=7
			7:[f7828<0.227090374] yes=15,no=16,missing=15
				15:leaf=-0.00383666949
				16:leaf=0.00182891591
			8:[f6739<0.0895334929] yes=17,no=18,missing=17
				17:leaf=0.00594314514
				18:leaf=-0.000633947668
		4:[f8923<0.390689075] yes=9,no=10,missing=9
			9:[f3200<2.176126] yes=19,no=20,missing=19
				19:leaf=0.000193498054
				20:leaf=0.00869338121
			10:[f4078<0.614633799] yes=21,no=22,missing=21
				21:leaf=-0.00135529228
				22:leaf=0.00461446354
	2:[f412<0.208121866] yes=5,no=6,missing=5
		5:[f8443<0.0127499439] yes=11,no=12,missing=11
			11:[f442<0.296758473] yes=23,no=24,missing=23
				23:leaf=0.000135582843
				24:leaf=-0.00102994323
			12:[f8493<0.0594031997] yes=25,no=26,missing=25
				25:leaf=0.00209663832
				26:leaf=-0.000198215726
		6:[f9543<0.0171064939] yes=13,no=14,missing=13
			13:[f4729<0.0228855833] yes=27,no=28,missing=27
				27:leaf=-0.00075632357
				28:leaf=0.00091708597
			14:[f1532<0.210367292] yes=29,no=30,missing=29
				29:leaf=-7.60063849e-05
				30:leaf=0.0152463531
booster[25]:
0:[f7259<1.06271911] yes=1,no=2,missing=1
	1:[f5247<2.10965109] yes=3,no=4,missing=3
		3:[f9253<0.129661724] yes=7,no=8,missing=7
			7:[f429<0.169650465] yes=15,no=16,missing=15
				15:leaf=-0.00346289668
				16:leaf=0.00173135288
			8:[f204<0.988137066] yes=17,no=18,missing=17
				17:leaf=0.000738332339
				18:leaf=0.00605842751
		4:[f3928<5.56737566] yes=9,no=10,missing=9
			9:[f8669<0.00212788861] yes=19,no=20,missing=19
				19:leaf=-0.00108470558
				20:leaf=0.002132172
			10:[f7698<0.0309111904] yes=21,no=22,missing=21
				21:leaf=-0.00030323767
				22:leaf=0.0104121016
	2:[f9279<1.41163623] yes=5,no=6,missing=5
		5:[f1400<1.33544469] yes=11,no=12,missing=11
			11:[f469<0.0643215477] yes=23,no=24,missing=23
				23:leaf=0.000732487359
				24:leaf=-0.00124370353
			12:[f5843<2.39001322] yes=25,no=26,missing=25
				25:leaf=-0.000547764648
				26:leaf=0.0114882505
		6:[f1718<0.960177481] yes=13,no=14,missing=13
			13:leaf=1.16188166e-05
			14:[f874<14.5916462] yes=27,no=28,missing=27
				27:leaf=0.01585925
				28:leaf=1.4314106e-05
booster[26]:
0:[f9273<0.76766026] yes=1,no=2,missing=1
	1:[f3227<9.88279152] yes=3,no=4,missing=3
		3:[f7251<0.199306905] yes=7,no=8,missing=7
			7:[f2824<2.34827614] yes=15,no=16,missing=15
				15:leaf=-0.00368098589
				16:leaf=0.00289040967
			8:[f2401<0.226304084] yes=17,no=18,missing=17
				17:leaf=0.0045203031
				18:leaf=-0.000331363408
		4:[f9697<3.44019651] yes=9,no=10,missing=9
			9:[f4660<0.0848425627] yes=19,no=20,missing=19
				19:leaf=0.00776809966
				20:leaf=0.00176258024
			10:[f2462<0.267577767] yes=21,no=22,missing=21
				21:leaf=-0.00280302321
				22:leaf=0.00155124138
	2:[f9279<1.41163623] yes=5,no=6,missing=5
		5:[f3247<1.36956644] yes=11,no=12,missing=11
			11:[f9661<0.632873774] yes=23,no=24,missing=23
				23:leaf=-0.000565719558
				24:leaf=0.00297191669
			12:[f430<0.419659376] yes=25,no=26,missing=25
				25:leaf=0.000865539012
				26:leaf=0.0115538687
		6:[f1885<1.49251294] yes=13,no=14,missing=13
			13:leaf=1.1579742e-05
			14:[f874<14.5916462] yes=27,no=28,missing=27
				27:leaf=0.0157560501
				28:leaf=1.43107327e-05
booster[27]:
0:[f7259<1.06271911] yes=1,no=2,missing=1
	1:[f5247<2.10965109] yes=3,no=4,missing=3
		3:[f9261<0.341691613] yes=7,no=8,missing=7
			7:[f440<0.187287658] yes=15,no=16,missing=15
				15:leaf=-0.00360042183
				16:leaf=0.00112794305
			8:[f9985<0.128976643] yes=17,no=18,missing=17
				17:leaf=0.00627572648
				18:leaf=0.000659922021
		4:[f3928<5.49868107] yes=9,no=10,missing=9
			9:[f8669<0.00212788861] yes=19,no=20,missing=19
				19:leaf=-0.00123759173
				20:leaf=0.00214028335
			10:[f7698<0.0309111904] yes=21,no=22,missing=21
				21:leaf=-0.00030889592
				22:leaf=0.0102539752
	2:[f9236<0.720824361] yes=5,no=6,missing=5
		5:[f1400<1.33544469] yes=11,no=12,missing=11
			11:[f6714<0.189611048] yes=23,no=24,missing=23
				23:leaf=0.000353801384
				24:leaf=-0.00147399527
			12:[f4125<0.284637213] yes=25,no=26,missing=25
				25:leaf=0.000351483788
				26:leaf=0.0108601851
		6:[f6606<0.00921020191] yes=13,no=14,missing=13
			13:[f581<0.0621632561] yes=27,no=28,missing=27
				27:leaf=-0.000652039191
				28:leaf=0.000583354384
			14:[f8242<0.0876631886] yes=29,no=30,missing=29
				29:leaf=9.03967812e-05
				30:leaf=0.015494098
booster[28]:
0:[f7271<1.61412311] yes=1,no=2,missing=1
	1:[f9273<0.432525903] yes=3,no=4,missing=3
		3:[f3245<3.98573017] yes=7,no=8,missing=7
			7:[f7828<0.227090374] yes=15,no=16,missing=15
				15:leaf=-0.00378501113
				16:leaf=0.00176286721
			8:[f6739<0.0895334929] yes=17,no=18,missing=17
				17:leaf=0.00580798276
				18:leaf=-0.000643961015
		4:[f8923<0.390689075] yes=9,no=10,missing=9
			9:[f3200<2.176126] yes=19,no=20,missing=19
				19:leaf=0.000164348661
				20:leaf=0.00843813922
			10:[f4078<0.614633799] yes=21,no=22,missing=21
				21:leaf=-0.00140153267
				22:leaf=0.00443460792
	2:[f412<0.208121866] yes=5,no=6,missing=5
		5:[f8443<0.0127499439] yes=11,no=12,missing=11
			11:[f442<0.296758473] yes=23,no=24,missing=23
				23:leaf=0.000130000524
				24:leaf=-0.00103826355
			12:[f8493<0.0594031997] yes=25,no=26,missing=25
				25:leaf=0.00205323962
				26:leaf=-0.000211129867
		6:[f9543<0.0171064939] yes=13,no=14,missing=13
			13:[f4729<0.0228855833] yes=27,no=28,missing=27
				27:leaf=-0.000764919969
				28:leaf=0.000895002915
			14:[f9204<2.6756258] yes=29,no=30,missing=29
				29:leaf=0.0148477908
				30:leaf=-0.000102904713
booster[29]:
0:[f7259<1.06271911] yes=1,no=2,missing=1
	1:[f5247<2.03813362] yes=3,no=4,missing=3
		3:[f9261<0.341691613] yes=7,no=8,missing=7
			7:[f207<0.599680543] yes=15,no=16,missing=15
				15:leaf=-0.00224396703
				16:leaf=0.00266596559
			8:[f9985<0.128976643] yes=17,no=18,missing=17
				17:leaf=0.00613622414
				18:leaf=0.00051408913
		4:[f3928<5.56737566] yes=9,no=10,missing=9
			9:[f1817<6.16362429] yes=19,no=20,missing=19
				19:leaf=0.00215002336
				20:leaf=-0.00138811639
			10:[f9757<2.08920813] yes=21,no=22,missing=21
				21:leaf=0.0101819346
				22:leaf=0.000610668503
	2:[f9236<0.720824361] yes=5,no=6,missing=5
		5:[f1400<1.33544469] yes=11,no=12,missing=11
			11:[f6714<0.189611048] yes=23,no=24,missing=23
				23:leaf=0.000351257564
				24:leaf=-0.00147962919
			12:[f4125<0.284637213] yes=25,no=26,missing=25
				25:leaf=0.000327485352
				26:leaf=0.0106898779
		6:[f6606<0.00921020191] yes=13,no=14,missing=13
			13:[f581<0.0621632561] yes=27,no=28,missing=27
				27:leaf=-0.000654598
				28:leaf=0.000579502434
			14:[f8242<0.0876631886] yes=29,no=30,missing=29
				29:leaf=8.43966482e-05
				30:leaf=0.0153027559
booster[30]:
0:[f7271<1.61412311] yes=1,no=2,missing=1
	1:[f9273<0.432525903] yes=3,no=4,missing=3
		3:[f3245<3.98573017] yes=7,no=8,missing=7
			7:[f7828<0.227090374] yes=15,no=16,missing=15
				15:leaf=-0.00374843087
				16:leaf=0.00173990882
			8:[f6739<0.0895334929] yes=17,no=18,missing=17
				17:leaf=0.00573940901
				18:leaf=-0.000647639623
		4:[f8923<0.514142752] yes=9,no=10,missing=9
			9:[f3200<2.5426836] yes=19,no=20,missing=19
				19:leaf=0.000846882816
				20:leaf=0.00821141805
			10:[f8930<0.364203334] yes=21,no=22,missing=21
				21:leaf=-0.00269345823
				22:leaf=0.00355108315
	2:[f412<0.208121866] yes=5,no=6,missing=5
		5:[f8443<0.0127499439] yes=11,no=12,missing=11
			11:[f442<0.296758473] yes=23,no=24,missing=23
				23:leaf=0.000128075641
				24:leaf=-0.00103999604
			12:[f8493<0.0594031997] yes=25,no=26,missing=25
				25:leaf=0.0020350148
				26:leaf=-0.000215657055
		6:[f7250<2.35638356] yes=13,no=14,missing=13
			13:[f9630<0.489796281] yes=27,no=28,missing=27
				27:leaf=0.00190380448
				28:leaf=-0.000835641986
			14:[f9204<2.6756258] yes=29,no=30,missing=29
				29:leaf=0.014676257
				30:leaf=-0.000110262881
booster[31]:
0:[f7259<1.06271911] yes=1,no=2,missing=1
	1:[f5247<2.10965109] yes=3,no=4,missing=3
		3:[f9253<0.129661724] yes=7,no=8,missing=7
			7:[f429<0.169650465] yes=15,no=16,missing=15
				15:leaf=-0.00342695415
				16:leaf=0.00166273513
			8:[f204<0.988137066] yes=17,no=18,missing=17
				17:leaf=0.000625810819
				18:leaf=0.00581158604
		4:[f3928<5.56737566] yes=9,no=10,missing=9
			9:[f8669<0.00212788861] yes=19,no=20,missing=19
				19:leaf=-0.00111750222
				20:leaf=0.00207566796
			10:[f7698<0.0309111904] yes=21,no=22,missing=21
				21:leaf=-0.000335549645
				22:leaf=0.00998483505
	2:[f9279<1.45680249] yes=5,no=6,missing=5
		5:[f1400<1.33544469] yes=11,no=12,missing=11
			11:[f469<0.0643215477] yes=23,no=24,missing=23
				23:leaf=0.000705330283
				24:leaf=-0.00119570619
			12:[f5843<2.39001322] yes=25,no=26,missing=25
				25:leaf=-0.000574039412
				26:leaf=0.0110230716
		6:[f1959<0.914292216] yes=13,no=14,missing=13
			13:[f8079<0.66228497] yes=27,no=28,missing=27
				27:leaf=-0.000404168211
				28:leaf=0.000588679919
			14:[f874<14.5916462] yes=29,no=30,missing=29
				29:leaf=0.0153130405
				30:leaf=5.28113617e-07
booster[32]:
0:[f9273<0.76766026] yes=1,no=2,missing=1
	1:[f3227<9.88279152] yes=3,no=4,missing=3
		3:[f7251<0.199306905] yes=7,no=8,missing=7
			7:[f2824<2.34827614] yes=15,no=16,missing=15
				15:leaf=-0.00361803849
				16:leaf=0.00280834152
			8:[f2401<0.226304084] yes=17,no=18,missing=17
				17:leaf=0.00435281685
				18:leaf=-0.000424594473
		4:[f9697<3.44019651] yes=9,no=10,missing=9
			9:[f4660<0.0848425627] yes=19,no=20,missing=19
				19:leaf=0.0074365777
				20:leaf=0.00156368315
			10:[f2462<0.267577767] yes=21,no=22,missing=21
				21:leaf=-0.00280599971
				22:leaf=0.00152762199
	2:[f9279<1.41163623] yes=5,no=6,missing=5
		5:[f3247<1.36956644] yes=11,no=12,missing=11
			11:[f9661<0.632873774] yes=23,no=24,missing=23
				23:leaf=-0.000656197895
				24:leaf=0.00286565325
			12:[f430<0.419659376] yes=25,no=26,missing=25
				25:leaf=0.000724678219
				26:leaf=0.0110476054
		6:[f1959<0.914292216] yes=13,no=14,missing=13
			13:[f2137<0.711770654] yes=27,no=28,missing=27
				27:leaf=0.000721361488
				28:leaf=-0.000400188175
			14:[f874<14.5916462] yes=29,no=30,missing=29
				29:leaf=0.0151991006
				30:leaf=5.27997202e-07
booster[33]:
0:[f7259<1.06271911] yes=1,no=2,missing=1
	1:[f5247<2.03813362] yes=3,no=4,missing=3
		3:[f9261<0.341691613] yes=7,no=8,missing=7
			7:[f341<1.48528552] yes=15,no=16,missing=15
				15:leaf=0.00138514652
				16:leaf=-0.00303129526
			8:[f9985<0.128976643] yes=17,no=18,missing=17
				17:leaf=0.00597021496
				18:leaf=0.00042974684
		4:[f3928<5.49868107] yes=9,no=10,missing=9
			9:[f2326<0.130848646] yes=19,no=20,missing=19
				19:leaf=0.00216032285
				20:leaf=-0.00160536554
			10:[f9757<2.08920813] yes=21,no=22,missing=21
				21:leaf=0.00989376754
				22:leaf=0.000549361517
	2:[f9279<1.45680249] yes=5,no=6,missing=5
		5:[f1400<1.33544469] yes=11,no=12,missing=11
			11:[f469<0.0643215477] yes=23,no=24,missing=23
				23:leaf=0.000699429773
				24:leaf=-0.00120125513
			12:[f5843<2.39001322] yes=25,no=26,missing=25
				25:leaf=-0.000577477389
				26:leaf=0.0108717214
		6:[f1959<0.914292216] yes=13,no=14,missing=13
			13:[f8512<0.00568403304] yes=27,no=28,missing=27
				27:leaf=-0.000404078135
				28:leaf=0.00058830512
			14:[f874<14.5916462] yes=29,no=30,missing=29
				29:leaf=0.0151322084
				30:leaf=5.27927341e-07
booster[34]:
0:[f7271<1.61412311] yes=1,no=2,missing=1
	1:[f9273<0.432525903] yes=3,no=4,missing=3
		3:[f3245<3.98573017] yes=7,no=8,missing=7
			7:[f7828<0.227090374] yes=15,no=16,missing=15
				15:leaf=-0.00369680929
				16:leaf=0.00167614757
			8:[f6739<0.0895334929] yes=17,no=18,missing=17
				17:leaf=0.00561284786
				18:leaf=-0.000656991091
		4:[f8923<0.390689075] yes=9,no=10,missing=9
			9:[f3200<2.176126] yes=19,no=20,missing=19
				19:leaf=0.000120455086
				20:leaf=0.00807219371
			10:[f4078<0.614633799] yes=21,no=22,missing=21
				21:leaf=-0.00147951883
				22:leaf=0.00418417156
	2:[f412<0.208121866] yes=5,no=6,missing=5
		5:[f8443<0.0127499439] yes=11,no=12,missing=11
			11:[f442<0.296758473] yes=23,no=24,missing=23
				23:leaf=0.000122735786
				24:leaf=-0.00104941137
			12:[f8493<0.0594031997] yes=25,no=26,missing=25
				25:leaf=0.00199630158
				26:leaf=-0.000226324439
		6:[f7250<2.35638356] yes=13,no=14,missing=13
			13:[f9630<0.489796281] yes=27,no=28,missing=27
				27:leaf=0.0018596641
				28:leaf=-0.000857519277
			14:[f5376<0.0431459323] yes=29,no=30,missing=29
				29:leaf=-0.000109128305
				30:leaf=0.01432034
booster[35]:
0:[f7259<1.06271911] yes=1,no=2,missing=1
	1:[f5247<2.10965109] yes=3,no=4,missing=3
		3:[f9253<0.129661724] yes=7,no=8,missing=7
			7:[f429<0.169650465] yes=15,no=16,missing=15
				15:leaf=-0.00339986198
				16:leaf=0.00162979797
			8:[f204<1.09527636] yes=17,no=18,missing=17
				17:leaf=0.00109206361
				18:leaf=0.00612484897
		4:[f3928<5.56737566] yes=9,no=10,missing=9
			9:[f8669<0.00212788861] yes=19,no=20,missing=19
				19:leaf=-0.00113693648
				20:leaf=0.00203987793
			10:[f7698<0.0309111904] yes=21,no=22,missing=21
				21:leaf=-0.000359052006
				22:leaf=0.00972068962
	2:[f9236<0.720824361] yes=5,no=6,missing=5
		5:[f1400<1.33544469] yes=11,no=12,missing=11
			11:[f6714<0.189611048] yes=23,no=24,missing=23
				23:leaf=0.000345743465
				24:leaf=-0.00149593654
			12:[f4125<0.284637213] yes=25,no=26,missing=25
				25:leaf=0.000218318397
				26:leaf=0.0102127809
		6:[f6606<0.00921020191] yes=13,no=14,missing=13
			13:[f581<0.0621632561] yes=27,no=28,missing=27
				27:leaf=-0.000670622918
				28:leaf=0.000560823013
			14:[f9086<0.0201566927] yes=29,no=30,missing=29
				29:leaf=4.79922892e-05
				30:leaf=0.0147718806
booster[36]:
0:[f7271<1.61412311] yes=1,no=2,missing=1
	1:[f9273<0.432525903] yes=3,no=4,missing=3
		3:[f1198<6.28361511] yes=7,no=8,missing=7
			7:[f8710<0.0478482693] yes=15,no=16,missing=15
				15:leaf=-0.00249587372
				16:leaf=0.00258039613
			8:[f835<3.9202714] yes=17,no=18,missing=17
				17:leaf=0.00448426837
				18:leaf=-0.000456778333
		4:[f8923<0.390689075] yes=9,no=10,missing=9
			9:[f1198<4.64762259] yes=19,no=20,missing=19
				19:leaf=0.000894706696
				20:leaf=0.00803772826
			10:[f7283<0.0689254105] yes=21,no=22,missing=21
				21:leaf=-0.00192965381
				22:leaf=0.00396772241
	2:[f412<0.208121866] yes=5,no=6,missing=5
		5:[f8443<0.0127499439] yes=11,no=12,missing=11
			11:[f442<0.296758473] yes=23,no=24,missing=23
				23:leaf=0.000121139623
				24:leaf=-0.00105103641
			12:[f8493<0.0594031997] yes=25,no=26,missing=25
				25:leaf=0.00197932776
				26:leaf=-0.000230641323
		6:[f9543<0.0171064939] yes=13,no=14,missing=13
			13:[f4729<0.0228855833] yes=27,no=28,missing=27
				27:leaf=-0.000783242518
				28:leaf=0.000842263747
			14:[f1532<0.210367292] yes=29,no=30,missing=29
				29:leaf=-0.000153389687
				30:leaf=0.0141325928
booster[37]:
0:[f7259<1.06271911] yes=1,no=2,missing=1
	1:[f5247<2.10965109] yes=3,no=4,missing=3
		3:[f9253<0.129222006] yes=7,no=8,missing=7
			7:[f429<0.169650465] yes=15,no=16,missing=15
				15:leaf=-0.00338945864
				16:leaf=0.00158794387
			8:[f204<1.09527636] yes=17,no=18,missing=17
				17:leaf=0.00101925828
				18:leaf=0.00605710689
		4:[f3928<5.56737566] yes=9,no=10,missing=9
			9:[f8669<0.00212788861] yes=19,no=20,missing=19
				19:leaf=-0.00114272744
				20:leaf=0.00202287873
			10:[f7698<0.0309111904] yes=21,no=22,missing=21
				21:leaf=-0.000365347194
				22:leaf=0.00958997663
	2:[f9279<1.45680249] yes=5,no=6,missing=5
		5:[f1400<1.33544469] yes=11,no=12,missing=11
			11:[f469<0.0643215477] yes=23,no=24,missing=23
				23:leaf=0.000684125756
				24:leaf=-0.00121944852
			12:[f5843<2.39001322] yes=25,no=26,missing=25
				25:leaf=-0.000591544784
				26:leaf=0.0105482265
		6:[f1959<0.914292216] yes=13,no=14,missing=13
			13:[f8512<0.00568403304] yes=27,no=28,missing=27
				27:leaf=-0.000414030947
				28:leaf=0.000572679273
			14:[f874<14.5916462] yes=29,no=30,missing=29
				29:leaf=0.0148007246
				30:leaf=-9.34992295e-06
booster[38]:
0:[f7271<1.61412311] yes=1,no=2,missing=1
	1:[f9273<0.432525903] yes=3,no=4,missing=3
		3:[f3245<3.98573017] yes=7,no=8,missing=7
			7:[f7828<0.227090374] yes=15,no=16,missing=15
				15:leaf=-0.00364708854
				16:leaf=0.00162995944
			8:[f6739<0.0895334929] yes=17,no=18,missing=17
				17:leaf=0.00550560514
				18:leaf=-0.000663588755
		4:[f8923<0.514142752] yes=9,no=10,missing=9
			9:[f3200<2.5426836] yes=19,no=20,missing=19
				19:leaf=0.000710208842
				20:leaf=0.00774061773
			10:[f8930<0.364203334] yes=21,no=22,missing=21
				21:leaf=-0.0027497001
				22:leaf=0.00328658009
	2:[f4223<0.0157820545] yes=5,no=6,missing=5
		5:[f820<1.43445241] yes=11,no=12,missing=11
			11:leaf=0.000672643015
			12:leaf=-0.000882303051
		6:[f1532<0.210367292] yes=13,no=14,missing=13
			13:[f8045<0.489640415] yes=23,no=24,missing=23
				23:leaf=-0.000615757599
				24:leaf=0.000453764631
			14:[f9204<2.6756258] yes=25,no=26,missing=25
				25:leaf=0.0139431143
				26:leaf=-0.000159261777
booster[39]:
0:[f7259<1.06271911] yes=1,no=2,missing=1
	1:[f3720<3.08001328] yes=3,no=4,missing=3
		3:[f9261<0.341691613] yes=7,no=8,missing=7
			7:[f4745<0.423530489] yes=15,no=16,missing=15
				15:leaf=0.000639006612
				16:leaf=-0.00381779298
			8:[f9985<0.128976643] yes=17,no=18,missing=17
				17:leaf=0.00547692226
				18:leaf=0.000295952603
		4:[f6307<0.149072587] yes=9,no=10,missing=9
			9:[f5889<1.1055268] yes=19,no=20,missing=19
				19:leaf=-0.000632768788
				20:leaf=0.00870277826
			10:[f6706<0.068484731] yes=21,no=22,missing=21
				21:leaf=-0.00142597256
				22:leaf=0.00151495438
	2:[f9279<1.45680249] yes=5,no=6,missing=5
		5:[f1400<1.33544469] yes=11,no=12,missing=11
			11:[f469<0.0643215477] yes=23,no=24,missing=23
				23:leaf=0.000676094263
				24:leaf=-0.0012274211
			12:[f5843<2.39001322] yes=25,no=26,missing=25
				25:leaf=-0.000595626305
				26:leaf=0.0103932768
		6:[f1959<0.914292216] yes=13,no=14,missing=13
			13:[f8079<0.66228497] yes=27,no=28,missing=27
				27:leaf=-0.000417201692
				28:leaf=0.000567584706
			14:[f874<14.5916462] yes=29,no=30,missing=29
				29:leaf=0.014643658
				30:leaf=-1.258458e-05
booster[40]:
0:[f9273<0.76766026] yes=1,no=2,missing=1
	1:[f3227<9.88279152] yes=3,no=4,missing=3
		3:[f7251<0.199306905] yes=7,no=8,missing=7
			7:[f2824<2.34827614] yes=15,no=16,missing=15
				15:leaf=-0.00354394782
				16:leaf=0.00270097377
			8:[f2401<0.226304084] yes=17,no=18,missing=17
				17:leaf=0.00413808273
				18:leaf=-0.000549070421
		4:[f204<1.00451553] yes=9,no=10,missing=9
			9:[f9809<1.14680326] yes=19,no=20,missing=19
				19:leaf=-0.00171821739
				20:leaf=0.00495780259
			10:[f4660<0.0848425627] yes=21,no=22,missing=21
				21:leaf=0.00780656561
				22:leaf=0.00184086093
	2:[f9279<1.45680249] yes=5,no=6,missing=5
		5:[f430<0.423888445] yes=11,no=12,missing=11
			11:[f8602<0.00325454678] yes=23,no=24,missing=23
				23:leaf=-0.00116496952
				24:leaf=0.00191737374
			12:[f3247<1.36956644] yes=25,no=26,missing=25
				25:leaf=0.00147287594
				26:leaf=0.0104819844
		6:[f1959<0.914292216] yes=13,no=14,missing=13
			13:[f8079<0.66228497] yes=27,no=28,missing=27
				27:leaf=-0.000417105446
				28:leaf=0.000567384297
			14:[f874<14.5916462] yes=29,no=30,missing=29
				29:leaf=0.0145651679
				30:leaf=-1.2581655e-05
booster[41]:
0:[f7259<1.06271911] yes=1,no=2,missing=1
	1:[f5247<2.10965109] yes=3,no=4,missing=3
		3:[f9253<0.129661724] yes=7,no=8,missing=7
			7:[f429<0.169650465] yes=15,no=16,missing=15
				15:leaf=-0.0033519445
				16:leaf=0.00156042643
			8:[f204<1.09527636] yes=17,no=18,missing=17
				17:leaf=0.000985227758
				18:leaf=0.00586912781
		4:[f3928<5.56737566] yes=9,no=10,missing=9
			9:[f8669<0.00212788861] yes=19,no=20,missing=19
				19:leaf=-0.00117318088
				20:leaf=0.00197757687
			10:[f7698<0.0309111904] yes=21,no=22,missing=21
				21:leaf=-0.000388157583
				22:leaf=0.00934805814
	2:[f9236<0.720824361] yes=5,no=6,missing=5
		5:[f1400<1.33544469] yes=11,no=12,missing=11
			11:[f6714<0.189611048] yes=23,no=24,missing=23
				23:leaf=0.000340574887
				24:leaf=-0.00151168392
			12:[f4125<0.284637213] yes=25,no=26,missing=25
				25:leaf=0.000115197923
				26:leaf=0.00976768974
		6:[f6606<0.00921020191] yes=13,no=14,missing=13
			13:[f581<0.0621632561] yes=27,no=28,missing=27
				27:leaf=-0.000686476589
				28:leaf=0.00054250937
			14:[f6073<0.303146899] yes=29,no=30,missing=29
				29:leaf=0.000191861822
				30:leaf=0.0143016344
booster[42]:
0:[f7271<1.61412311] yes=1,no=2,missing=1
	1:[f9273<0.432525903] yes=3,no=4,missing=3
		3:[f1198<6.28361511] yes=7,no=8,missing=7
			7:[f8710<0.0478482693] yes=15,no=16,missing=15
				15:leaf=-0.00247016596
				16:leaf=0.00253459648
			8:[f835<3.9202714] yes=17,no=18,missing=17
				17:leaf=0.00434271106
				18:leaf=-0.000501822913
		4:[f8923<0.390689075] yes=9,no=10,missing=9
			9:[f1198<4.64762259] yes=19,no=20,missing=19
				19:leaf=0.000824193645
				20:leaf=0.00770116504
			10:[f7283<0.0689254105] yes=21,no=22,missing=21
				21:leaf=-0.00198743329
				22:leaf=0.00373871857
	2:[f412<0.208121866] yes=5,no=6,missing=5
		5:[f8443<0.0127499439] yes=11,no=12,missing=11
			11:[f442<0.296758473] yes=23,no=24,missing=23
				23:leaf=0.00011146313
				24:leaf=-0.00106651348
			12:[f8493<0.0594031997] yes=25,no=26,missing=25
				25:leaf=0.00191076158
				26:leaf=-0.000248536991
		6:[f7250<2.35638356] yes=13,no=14,missing=13
			13:[f9630<0.489796281] yes=27,no=28,missing=27
				27:leaf=0.00175535632
				28:leaf=-0.000910344534
			14:[f5376<0.0431459323] yes=29,no=30,missing=29
				29:leaf=-0.000158466923
				30:leaf=0.013676662
booster[43]:
0:[f7259<1.06271911] yes=1,no=2,missing=1
	1:[f5247<2.03813362] yes=3,no=4,missing=3
		3:[f9261<0.341691613] yes=7,no=8,missing=7
			7:[f341<1.48528552] yes=15,no=16,missing=15
				15:leaf=0.00131246925
				16:leaf=-0.00304062059
			8:[f9985<0.128976643] yes=17,no=18,missing=17
				17:leaf=0.00558525743
				18:leaf=0.000238629786
		4:[f3928<5.49868107] yes=9,no=10,missing=9
			9:[f2326<0.130848646] yes=19,no=20,missing=19
				19:leaf=0.00204649451
				20:leaf=-0.00164678774
			10:[f9757<2.08920813] yes=21,no=22,missing=21
				21:leaf=0.009273028
				22:leaf=0.000384921383
	2:[f9279<1.45680249] yes=5,no=6,missing=5
		5:[f1400<1.33544469] yes=11,no=12,missing=11
			11:[f469<0.0643215477] yes=23,no=24,missing=23
				23:leaf=0.000662035425
				24:leaf=-0.00124242145
			12:[f5843<2.39001322] yes=25,no=26,missing=25
				25:leaf=-0.000609926588
				26:leaf=0.010106557
		6:[f1959<0.914292216] yes=13,no=14,missing=13
			13:[f8512<0.00568403304] yes=27,no=28,missing=27
				27:leaf=-0.00042348876
				28:leaf=0.000557384221
			14:[f874<14.5916462] yes=29,no=30,missing=29
				29:leaf=0.0143433167
				30:leaf=-1.88333252e-05
booster[44]:
0:[f7271<1.61412311] yes=1,no=2,missing=1
	1:[f9273<0.432525903] yes=3,no=4,missing=3
		3:[f3245<3.98573017] yes=7,no=8,missing=7
			7:[f9261<0.233237296] yes=15,no=16,missing=15
				15:leaf=-0.00284277764
				16:leaf=0.00220187358
			8:[f6739<0.0895334929] yes=17,no=18,missing=17
				17:leaf=0.00533149345
				18:leaf=-0.000683188206
		4:[f8923<0.390689075] yes=9,no=10,missing=9
			9:[f3200<2.176126] yes=19,no=20,missing=19
				19:leaf=5.55440492e-05
				20:leaf=0.00750181125
			10:[f4078<0.614633799] yes=21,no=22,missing=21
				21:leaf=-0.0015928963
				22:leaf=0.00381840486
	2:[f1245<3.87186337] yes=5,no=6,missing=5
		5:[f9253<0.177198827] yes=11,no=12,missing=11
			11:[f4752<0.117145404] yes=23,no=24,missing=23
				23:leaf=-0.00135981641
				24:leaf=0.000284234527
			12:[f1122<11.0253334] yes=25,no=26,missing=25
				25:leaf=0.00518699829
				26:leaf=-0.000584940892
		6:[f5803<0.0515467525] yes=13,no=14,missing=13
			13:[f439<0.134699881] yes=27,no=28,missing=27
				27:leaf=0.000424980622
				28:leaf=-0.000663217972
			14:[f9204<2.6756258] yes=29,no=30,missing=29
				29:leaf=0.0135971354
				30:leaf=-0.000191623316
booster[45]:
0:[f7259<1.06271911] yes=1,no=2,missing=1
	1:[f5247<2.10965109] yes=3,no=4,missing=3
		3:[f9253<0.129222006] yes=7,no=8,missing=7
			7:[f429<0.169650465] yes=15,no=16,missing=15
				15:leaf=-0.00334058097
				16:leaf=0.00151328754
			8:[f204<1.09527636] yes=17,no=18,missing=17
				17:leaf=0.000873265555
				18:leaf=0.00574471662
		4:[f3928<5.56737566] yes=9,no=10,missing=9
			9:[f8669<0.00212788861] yes=19,no=20,missing=19
				19:leaf=-0.00119265215
				20:leaf=0.00194392749
			10:[f7698<0.0309111904] yes=21,no=22,missing=21
				21:leaf=-0.000410510285
				22:leaf=0.00910675153
	2:[f9279<1.45680249] yes=5,no=6,missing=5
		5:[f1400<1.33544469] yes=11,no=12,missing=11
			11:[f469<0.0643215477] yes=23,no=24,missing=23
				23:leaf=0.000656819029
				24:leaf=-0.00124907808
			12:[f4125<0.298783481] yes=25,no=26,missing=25
				25:leaf=0.000461034826
				26:leaf=0.0100439424
		6:[f1959<0.914292216] yes=13,no=14,missing=13
			13:[f8512<0.00568403304] yes=27,no=28,missing=27
				27:leaf=-0.000426504121
				28:leaf=0.000552434183
			14:[f874<14.5916462] yes=29,no=30,missing=29
				29:leaf=0.0142021431
				30:leaf=-2.19571539e-05
booster[46]:
0:[f9273<0.893686235] yes=1,no=2,missing=1
	1:[f7271<0.933097005] yes=3,no=4,missing=3
		3:[f9253<0.0803818852] yes=7,no=8,missing=7
			7:[f5201<2.45861363] yes=15,no=16,missing=15
				15:leaf=-0.00374307646
				16:leaf=0.00295034889
			8:[f1826<8.63786793] yes=17,no=18,missing=17
				17:leaf=-0.00147587922
				18:leaf=0.00349443848
		4:[f219<0.212725565] yes=9,no=10,missing=9
			9:[f5213<7.8485899] yes=19,no=20,missing=19
				19:leaf=-0.00224049296
				20:leaf=0.00471007591
			10:[f1800<1.53092074] yes=21,no=22,missing=21
				21:leaf=-0.000581128581
				22:leaf=0.0074344282
	2:[f3247<1.45054197] yes=5,no=6,missing=5
		5:[f9252<1.39002013] yes=11,no=12,missing=11
			11:leaf=-0.00110101083
			12:[f9200<0.346396834] yes=23,no=24,missing=23
				23:leaf=-0.000485221884
				24:leaf=0.00294724735
		6:[f444<0.0506702513] yes=13,no=14,missing=13
			13:[f9699<0.466015756] yes=25,no=26,missing=25
				25:leaf=0.00102565542
				26:leaf=-0.000842353213
			14:[f8223<0.0259309169] yes=27,no=28,missing=27
				27:leaf=0.00111061276
				28:leaf=0.0134711657
booster[47]:
0:[f7259<1.06271911] yes=1,no=2,missing=1
	1:[f3720<3.08001328] yes=3,no=4,missing=3
		3:[f9285<0.0317742527] yes=7,no=8,missing=7
			7:[f6600<0.00169663946] yes=15,no=16,missing=15
				15:leaf=0.00102096482
				16:leaf=-0.00567534612
			8:[f440<0.226541221] yes=17,no=18,missing=17
				17:leaf=0.000376696727
				18:leaf=0.00494912034
		4:[f6307<0.149072587] yes=9,no=10,missing=9
			9:[f5889<1.1055268] yes=19,no=20,missing=19
				19:leaf=-0.000644145592
				20:leaf=0.00826342311
			10:[f6706<0.068484731] yes=21,no=22,missing=21
				21:leaf=-0.00148684846
				22:leaf=0.0014292018
	2:[f9279<1.45680249] yes=5,no=6,missing=5
		5:[f1400<1.33544469] yes=11,no=12,missing=11
			11:[f469<0.0643215477] yes=23,no=24,missing=23
				23:leaf=0.000651899492
				24:leaf=-0.00125149242
			12:[f4125<0.298783481] yes=25,no=26,missing=25
				25:leaf=0.000437406881
				26:leaf=0.00990393385
		6:[f1959<0.914292216] yes=13,no=14,missing=13
			13:[f8079<0.66228497] yes=27,no=28,missing=27
				27:leaf=-0.000429524458
				28:leaf=0.000547591946
			14:[f874<14.5916462] yes=29,no=30,missing=29
				29:leaf=0.0140656494
				30:leaf=-2.50415833e-05
booster[48]:
0:[f9273<0.893686235] yes=1,no=2,missing=1
	1:[f9273<0.432525903] yes=3,no=4,missing=3
		3:[f1198<6.28361511] yes=7,no=8,missing=7
			7:[f173<1.34040213] yes=15,no=16,missing=15
				15:leaf=-0.00249805511
				16:leaf=0.00242872024
			8:[f835<3.9202714] yes=17,no=18,missing=17
				17:leaf=0.00421842793
				18:leaf=-0.00053848105
		4:[f3246<10.1148415] yes=9,no=10,missing=9
			9:[f2186<0.303352207] yes=19,no=20,missing=19
				19:leaf=0.00519335503
				20:leaf=0.000156986454
			10:[f7868<4.75111675] yes=21,no=22,missing=21
				21:leaf=0.00764237391
				22:leaf=-0.000266101066
	2:[f3247<1.46955812] yes=5,no=6,missing=5
		5:[f9252<1.39002013] yes=11,no=12,missing=11
			11:[f207<0.522663772] yes=23,no=24,missing=23
				23:leaf=2.66131665e-05
				24:leaf=-0.00108556787
			12:[f9200<0.346396834] yes=25,no=26,missing=25
				25:leaf=-0.000537391868
				26:leaf=0.00308332825
		6:[f444<0.0506702513] yes=13,no=14,missing=13
			13:[f9699<0.466015756] yes=27,no=28,missing=27
				27:leaf=0.00102271268
				28:leaf=-0.000844756956
			14:[f8223<0.0259309169] yes=29,no=30,missing=29
				29:leaf=0.00108799187
				30:leaf=0.0133366305
booster[49]:
0:[f7271<1.61412311] yes=1,no=2,missing=1
	1:[f9273<0.432525903] yes=3,no=4,missing=3
		3:[f3245<3.98573017] yes=7,no=8,missing=7
			7:[f9261<0.233237296] yes=15,no=16,missing=15
				15:leaf=-0.0028088945
				16:leaf=0.0021379143
			8:[f6739<0.0895334929] yes=17,no=18,missing=17
				17:leaf=0.00519878743
				18:leaf=-0.000700902485
		4:[f8923<0.390689075] yes=9,no=10,missing=9
			9:[f8358<0.144617274] yes=19,no=20,missing=19
				19:leaf=0.00735704228
				20:leaf=0.000891207193
			10:[f2081<1.98596334] yes=21,no=22,missing=21
				21:leaf=-0.00118378655
				22:leaf=0.00382778072
	2:[f9279<1.45680249] yes=5,no=6,missing=5
		5:[f430<0.418225378] yes=11,no=12,missing=11
			11:[f4704<0.266454667] yes=23,no=24,missing=23
				23:leaf=-0.00131991657
				24:leaf=0.00115168933
			12:[f5090<11.1226158] yes=25,no=26,missing=25
				25:leaf=0.00995559338
				26:leaf=-0.000496273162
		6:[f1959<0.914292216] yes=13,no=14,missing=13
			13:[f8512<0.00568403304] yes=27,no=28,missing=27
				27:leaf=-0.000432459987
				28:leaf=0.000542775844
			14:[f874<14.5916462] yes=29,no=30,missing=29
				29:leaf=0.0139335291
				30:leaf=-2.80847362e-05
booster[50]:
0:[f7259<1.06271911] yes=1,no=2,missing=1
	1:[f2824<2.57769251] yes=3,no=4,missing=3
		3:[f9261<0.232546419] yes=7,no=8,missing=7
			7:[f415<2.17377186] yes=15,no=16,missing=15
				15:leaf=-0.00352985738
				16:leaf=0.00177836418
			8:[f204<1.09495068] yes=17,no=18,missing=17
				17:leaf=0.000270185439
				18:leaf=0.00505316723
		4:[f1975<22.5441933] yes=9,no=10,missing=9
			9:[f6756<0.0352826826] yes=19,no=20,missing=19
				19:leaf=0.00327274855
				20:leaf=-0.0017457311
			10:[f7259<1.04698062] yes=21,no=22,missing=21
				21:leaf=0.00895443931
				22:leaf=-0.000224019663
	2:[f9279<1.45680249] yes=5,no=6,missing=5
		5:[f1400<1.33544469] yes=11,no=12,missing=11
			11:[f469<0.0643215477] yes=23,no=24,missing=23
				23:leaf=0.000641073915
				24:leaf=-0.00126527145
			12:[f4125<0.298783481] yes=25,no=26,missing=25
				25:leaf=0.000394283707
				26:leaf=0.00971042924
		6:[f1959<0.914292216] yes=13,no=14,missing=13
			13:[f8079<0.66228497] yes=27,no=28,missing=27
				27:leaf=-0.000432405417
				28:leaf=0.000542629801
			14:[f874<14.5916462] yes=29,no=30,missing=29
				29:leaf=0.0138678905
				30:leaf=-2.80783606e-05
booster[51]:
0:[f9273<0.893686235] yes=1,no=2,missing=1
	1:[f7271<0.933097005] yes=3,no=4,missing=3
		3:[f9253<0.0803818852] yes=7,no=8,missing=7
			7:[f5201<2.45861363] yes=15,no=16,missing=15
				15:leaf=-0.00369758601
				16:leaf=0.00287239184
			8:[f1826<8.63786793] yes=17,no=18,missing=17
				17:leaf=-0.00146386831
				18:leaf=0.00339663471
		4:[f8923<0.5090729] yes=9,no=10,missing=9
			9:[f1416<1.05940866] yes=19,no=20,missing=19
				19:leaf=-0.000270706427
				20:leaf=0.00711451285
			10:[f2114<1.77809119] yes=21,no=22,missing=21
				21:leaf=-0.00261450047
				22:leaf=0.00289662066
	2:[f3247<1.46955812] yes=5,no=6,missing=5
		5:[f9252<1.39002013] yes=11,no=12,missing=11
			11:[f207<0.522663772] yes=23,no=24,missing=23
				23:leaf=2.45366209e-05
				24:leaf=-0.00108994136
			12:[f9200<0.346396834] yes=25,no=26,missing=25
				25:leaf=-0.000549584744
				26:leaf=0.00303300284
		6:[f444<0.0506702513] yes=13,no=14,missing=13
			13:[f9699<0.466015756] yes=27,no=28,missing=27
				27:leaf=0.00101411715
				28:leaf=-0.000852712954
			14:[f8223<0.0259309169] yes=29,no=30,missing=29
				29:leaf=0.00104472111
				30:leaf=0.0131364306
booster[52]:
0:[f7271<1.61412311] yes=1,no=2,missing=1
	1:[f9273<0.432525903] yes=3,no=4,missing=3
		3:[f3245<3.98573017] yes=7,no=8,missing=7
			7:[f7828<0.227090374] yes=15,no=16,missing=15
				15:leaf=-0.00351312896
				16:leaf=0.00149303419
			8:[f6566<0.105753973] yes=17,no=18,missing=17
				17:leaf=0.00523576001
				18:leaf=-0.00042843062
		4:[f8923<0.390689075] yes=9,no=10,missing=9
			9:[f8358<0.144617274] yes=19,no=20,missing=19
				19:leaf=0.007200683
				20:leaf=0.000829582219
			10:[f8093<0.233045295] yes=21,no=22,missing=21
				21:leaf=-0.00128598535
				22:leaf=0.00370017998
	2:[f9279<1.45680249] yes=5,no=6,missing=5
		5:[f204<0.857047617] yes=11,no=12,missing=11
			11:[f8583<0.0135548096] yes=23,no=24,missing=23
				23:leaf=-0.00173569552
				24:leaf=0.00241444889
			12:[f4821<9.37151718] yes=25,no=26,missing=25
				25:leaf=0.00989960972
				26:leaf=-6.39092468e-05
		6:[f1959<0.914292216] yes=13,no=14,missing=13
			13:[f8079<0.66228497] yes=27,no=28,missing=27
				27:leaf=-0.00043528559
				28:leaf=0.000537905144
			14:[f874<14.5916462] yes=29,no=30,missing=29
				29:leaf=0.013742323
				30:leaf=-3.10653741e-05
booster[53]:
0:[f9273<0.893686235] yes=1,no=2,missing=1
	1:[f3200<3.39761233] yes=3,no=4,missing=3
		3:[f2839<0.372585893] yes=7,no=8,missing=7
			7:[f1823<3.57356501] yes=15,no=16,missing=15
				15:leaf=-0.0029537566
				16:leaf=0.00505145593
			8:[f8260<0.0101180933] yes=17,no=18,missing=17
				17:leaf=-0.00341289607
				18:leaf=0.00246196752
		4:[f7253<0.86911422] yes=9,no=10,missing=9
			9:[f8866<0.142652616] yes=19,no=20,missing=19
				19:leaf=-0.00280254893
				20:leaf=0.000981789897
			10:[f639<0.0166434031] yes=21,no=22,missing=21
				21:leaf=0.000118221127
				22:leaf=0.00661575003
	2:[f3247<1.46955812] yes=5,no=6,missing=5
		5:[f9252<1.39002013] yes=11,no=12,missing=11
			11:[f207<0.522663772] yes=23,no=24,missing=23
				23:leaf=2.36642991e-05
				24:leaf=-0.00109219376
			12:[f9200<0.346396834] yes=25,no=26,missing=25
				25:leaf=-0.000555846957
				26:leaf=0.00300476304
		6:[f444<0.0506702513] yes=13,no=14,missing=13
			13:[f9699<0.466015756] yes=27,no=28,missing=27
				27:leaf=0.00100871176
				28:leaf=-0.000856276078
			14:[f8223<0.0259309169] yes=29,no=30,missing=29
				29:leaf=0.00102315145
				30:leaf=0.0130069042
booster[54]:
0:[f7259<1.06271911] yes=1,no=2,missing=1
	1:[f2824<2.57769251] yes=3,no=4,missing=3
		3:[f9261<0.232546419] yes=7,no=8,missing=7
			7:[f415<2.17377186] yes=15,no=16,missing=15
				15:leaf=-0.00349765085
				16:leaf=0.00175921782
			8:[f204<1.09495068] yes=17,no=18,missing=17
				17:leaf=0.000195062559
				18:leaf=0.00490032788
		4:[f1975<22.5441933] yes=9,no=10,missing=9
			9:[f6756<0.0352826826] yes=19,no=20,missing=19
				19:leaf=0.00320242508
				20:leaf=-0.00177224039
			10:[f8548<0.0239029657] yes=21,no=22,missing=21
				21:leaf=0.00895943958
				22:leaf=0.000946449698
	2:[f9279<1.45680249] yes=5,no=6,missing=5
		5:[f1400<1.33544469] yes=11,no=12,missing=11
			11:[f469<0.0643215477] yes=23,no=24,missing=23
				23:leaf=0.000625514542
				24:leaf=-0.00128306891
			12:[f4125<0.298783481] yes=25,no=26,missing=25
				25:leaf=0.000330903073
				26:leaf=0.00945787784
		6:[f1959<0.914292216] yes=13,no=14,missing=13
			13:[f8512<0.00568403304] yes=27,no=28,missing=27
				27:leaf=-0.00043816978
				28:leaf=0.000533287704
			14:[f874<14.5916462] yes=29,no=30,missing=29
				29:leaf=0.0136213237
				30:leaf=-3.40125553e-05
booster[55]:
0:[f9273<0.893686235] yes=1,no=2,missing=1
	1:[f3200<3.39761233] yes=3,no=4,missing=3
		3:[f2839<0.372585893] yes=7,no=8,missing=7
			7:[f1823<3.57356501] yes=15,no=16,missing=15
				15:leaf=-0.00293455529
				16:leaf=0.0049945293
			8:[f8260<0.0101180933] yes=17,no=18,missing=17
				17:leaf=-0.00338237872
				18:leaf=0.00242328574
		4:[f7253<0.86911422] yes=9,no=10,missing=9
			9:[f8866<0.142652616] yes=19,no=20,missing=19
				19:leaf=-0.00278592948
				20:leaf=0.000981105259
			10:[f639<0.0166434031] yes=21,no=22,missing=21
				21:leaf=9.95530281e-05
				22:leaf=0.00651406171
	2:[f3247<1.46955812] yes=5,no=6,missing=5
		5:[f9252<1.39002013] yes=11,no=12,missing=11
			11:[f207<0.522663772] yes=23,no=24,missing=23
				23:leaf=2.23391617e-05
				24:leaf=-0.00109387434
			12:[f9200<0.346396834] yes=25,no=26,missing=25
				25:leaf=-0.000561279652
				26:leaf=0.00297597167
		6:[f444<0.0506702513] yes=13,no=14,missing=13
			13:[f4933<1.05059528] yes=27,no=28,missing=27
				27:leaf=0.00100591604
				28:leaf=-0.00085835479
			14:[f8223<0.0259309169] yes=29,no=30,missing=29
				29:leaf=0.00100170262
				30:leaf=0.0128811141
booster[56]:
0:[f7259<1.06271911] yes=1,no=2,missing=1
	1:[f5247<2.10965109] yes=3,no=4,missing=3
		3:[f9253<0.129661724] yes=7,no=8,missing=7
			7:[f429<0.169650465] yes=15,no=16,missing=15
				15:leaf=-0.00333083444
				16:leaf=0.00139902974
			8:[f9752<0.14643541] yes=17,no=18,missing=17
				17:leaf=0.00408945885
				18:leaf=-0.00160739268
		4:[f3928<5.56737566] yes=9,no=10,missing=9
			9:[f8669<0.00212788861] yes=19,no=20,missing=19
				19:leaf=-0.00126291276
				20:leaf=0.00183688395
			10:[f7259<1.05026746] yes=21,no=22,missing=21
				21:leaf=0.00854733121
				22:leaf=-0.000390680972
	2:[f9279<1.45680249] yes=5,no=6,missing=5
		5:[f1400<1.33544469] yes=11,no=12,missing=11
			11:[f469<0.0643215477] yes=23,no=24,missing=23
				23:leaf=0.000620145991
				24:leaf=-0.00128829177
			12:[f4125<0.298783481] yes=25,no=26,missing=25
				25:leaf=0.000308946561
				26:leaf=0.009330092
		6:[f1959<0.914292216] yes=13,no=14,missing=13
			13:[f8512<0.00568403304] yes=27,no=28,missing=27
				27:leaf=-0.000440972275
				28:leaf=0.000528692908
			14:[f874<14.5916462] yes=29,no=30,missing=29
				29:leaf=0.0135039454
				30:leaf=-3.69209483e-05
booster[57]:
0:[f7271<1.61412311] yes=1,no=2,missing=1
	1:[f9273<0.432525903] yes=3,no=4,missing=3
		3:[f3245<3.98573017] yes=7,no=8,missing=7
			7:[f7828<0.227090374] yes=15,no=16,missing=15
				15:leaf=-0.00347021013
				16:leaf=0.00143065222
			8:[f6566<0.105753973] yes=17,no=18,missing=17
				17:leaf=0.00509847375
				18:leaf=-0.000463022006
		4:[f8923<0.390689075] yes=9,no=10,missing=9
			9:[f8358<0.144617274] yes=19,no=20,missing=19
				19:leaf=0.00696589984
				20:leaf=0.000726640224
			10:[f224<0.109607905] yes=21,no=22,missing=21
				21:leaf=-0.00057201233
				22:leaf=0.00403803214
	2:[f9279<1.45680249] yes=5,no=6,missing=5
		5:[f204<0.857047617] yes=11,no=12,missing=11
			11:[f8583<0.0135548096] yes=23,no=24,missing=23
				23:leaf=-0.00176940812
				24:leaf=0.00230590324
			12:[f4821<9.37151718] yes=25,no=26,missing=25
				25:leaf=0.00958404783
				26:leaf=-0.000134658098
		6:[f1959<0.914292216] yes=13,no=14,missing=13
			13:[f8079<0.66228497] yes=27,no=28,missing=27
				27:leaf=-0.00044091593
				28:leaf=0.00052855321
			14:[f874<14.5916462] yes=29,no=30,missing=29
				29:leaf=0.0134448791
				30:leaf=-3.69125955e-05
booster[58]:
0:[f9273<0.893686235] yes=1,no=2,missing=1
	1:[f3200<3.39761233] yes=3,no=4,missing=3
		3:[f2839<0.372585893] yes=7,no=8,missing=7
			7:[f1823<3.57356501] yes=15,no=16,missing=15
				15:leaf=-0.00293084979
				16:leaf=0.00491097802
			8:[f8260<0.0101180933] yes=17,no=18,missing=17
				17:leaf=-0.00335312029
				18:leaf=0.00235496974
		4:[f7253<0.86911422] yes=9,no=10,missing=9
			9:[f8866<0.142652616] yes=19,no=20,missing=19
				19:leaf=-0.00277664722
				20:leaf=0.000975942123
			10:[f639<0.0156136295] yes=21,no=22,missing=21
				21:leaf=-0.000581512053
				22:leaf=0.00630598608
	2:[f1245<4.20007038] yes=5,no=6,missing=5
		5:[f1223<2.24037695] yes=11,no=12,missing=11
			11:[f5249<0.577892184] yes=23,no=24,missing=23
				23:leaf=-0.000414205104
				24:leaf=0.0058181542
			12:[f1266<16.8832016] yes=25,no=26,missing=25
				25:leaf=-0.00139578758
				26:leaf=0.000851397053
		6:[f5376<0.0431459323] yes=13,no=14,missing=13
			13:[f129<1.0735147] yes=27,no=28,missing=27
				27:leaf=-0.000650857051
				28:leaf=0.000124679384
			14:[f8223<0.0259309169] yes=29,no=30,missing=29
				29:leaf=0.000899555336
				30:leaf=0.0128297592
booster[59]:
0:[f7259<1.06271911] yes=1,no=2,missing=1
	1:[f2824<2.57769251] yes=3,no=4,missing=3
		3:[f9261<0.232546419] yes=7,no=8,missing=7
			7:[f415<2.17377186] yes=15,no=16,missing=15
				15:leaf=-0.0034652676
				16:leaf=0.00173751172
			8:[f204<1.09495068] yes=17,no=18,missing=17
				17:leaf=0.000114389732
				18:leaf=0.00472844299
		4:[f1975<22.5441933] yes=9,no=10,missing=9
			9:[f6756<0.0352826826] yes=19,no=20,missing=19
				19:leaf=0.00312177022
				20:leaf=-0.00179917424
			10:[f8548<0.0239029657] yes=21,no=22,missing=21
				21:leaf=0.00871137064
				22:leaf=0.000846230192
	2:[f9279<1.45680249] yes=5,no=6,missing=5
		5:[f1400<1.33544469] yes=11,no=12,missing=11
			11:[f469<0.0643215477] yes=23,no=24,missing=23
				23:leaf=0.000609261333
				24:leaf=-0.00130214053
			12:[f4125<0.298783481] yes=25,no=26,missing=25
				25:leaf=0.000270240445
				26:leaf=0.0091565391
		6:[f1959<0.914292216] yes=13,no=14,missing=13
			13:[f8512<0.00568403304] yes=27,no=28,missing=27
				27:leaf=-0.000443697179
				28:leaf=0.000523997704
			14:[f874<14.5916462] yes=29,no=30,missing=29
				29:leaf=0.0133328587
				30:leaf=-3.97990261e-05
booster[60]:
0:[f7271<1.75079906] yes=1,no=2,missing=1
	1:[f7271<0.933097005] yes=3,no=4,missing=3
		3:[f9253<0.0803818852] yes=7,no=8,missing=7
			7:[f5201<2.45861363] yes=15,no=16,missing=15
				15:leaf=-0.0036276551
				16:leaf=0.00274224137
			8:[f218<0.568138421] yes=17,no=18,missing=17
				17:leaf=0.000274445978
				18:leaf=0.00421490474
		4:[f3247<1.3708775] yes=9,no=10,missing=9
			9:[f5987<1.71893573] yes=19,no=20,missing=19
				19:leaf=0.00316845113
				20:leaf=-0.00212819804
			10:[f9870<2.36608601] yes=21,no=22,missing=21
				21:leaf=0.00684299739
				22:leaf=0.00117377669
	2:[f5830<2.81991673] yes=5,no=6,missing=5
		5:[f3612<3.36096907] yes=11,no=12,missing=11
			11:[f8126<0.0374725014] yes=23,no=24,missing=23
				23:leaf=-0.000382156053
				24:leaf=0.00147817552
			12:leaf=-0.000805238786
		6:[f4550<0.000465072051] yes=13,no=14,missing=13
			13:leaf=-0.000399381039
			14:[f5376<0.0431459323] yes=25,no=26,missing=25
				25:leaf=-0.000206167548
				26:leaf=0.012657457
booster[61]:
0:[f9273<0.893686235] yes=1,no=2,missing=1
	1:[f3200<3.39761233] yes=3,no=4,missing=3
		3:[f2839<0.372585893] yes=7,no=8,missing=7
			7:[f1823<3.57356501] yes=15,no=16,missing=15
				15:leaf=-0.00291562313
				16:leaf=0.0048375167
			8:[f8260<0.0101180933] yes=17,no=18,missing=17
				17:leaf=-0.00332351238
				18:leaf=0.00230043172
		4:[f7253<0.86911422] yes=9,no=10,missing=9
			9:[f8866<0.142652616] yes=19,no=20,missing=19
				19:leaf=-0.00276218983
				20:leaf=0.000974566385
			10:[f639<0.0166434031] yes=21,no=22,missing=21
				21:leaf=2.85785063e-05
				22:leaf=0.00623357296
	2:[f1245<4.20007038] yes=5,no=6,missing=5
		5:[f1223<2.24037695] yes=11,no=12,missing=11
			11:[f9252<1.46369767] yes=23,no=24,missing=23
				23:leaf=-0.000466123398
				24:leaf=0.00569068408
			12:[f1266<16.8832016] yes=25,no=26,missing=25
				25:leaf=-0.00140827429
				26:leaf=0.000837208412
		6:[f5376<0.0431459323] yes=13,no=14,missing=13
			13:[f129<1.0735147] yes=27,no=28,missing=27
				27:leaf=-0.000652681105
				28:leaf=0.000122795405
			14:[f8223<0.0259309169] yes=29,no=30,missing=29
				29:leaf=0.00085428654
				30:leaf=0.0126564689
booster[62]:
0:[f7271<1.75079906] yes=1,no=2,missing=1
	1:[f7271<0.933097005] yes=3,no=4,missing=3
		3:[f9253<0.0803818852] yes=7,no=8,missing=7
			7:[f5201<2.45861363] yes=15,no=16,missing=15
				15:leaf=-0.00360072008
				16:leaf=0.00271501089
			8:[f9752<0.146643728] yes=17,no=18,missing=17
				17:leaf=0.00313779642
				18:leaf=-0.00165582041
		4:[f8923<0.5090729] yes=9,no=10,missing=9
			9:[f8540<0.0515370443] yes=19,no=20,missing=19
				19:leaf=0.00684788637
				20:leaf=0.000398801378
			10:[f8155<0.0142444205] yes=21,no=22,missing=21
				21:leaf=-0.00250021624
				22:leaf=0.00320319319
	2:[f5830<2.81991673] yes=5,no=6,missing=5
		5:[f3612<3.36096907] yes=11,no=12,missing=11
			11:[f8126<0.0374725014] yes=23,no=24,missing=23
				23:leaf=-0.000382545841
				24:leaf=0.00146772689
			12:leaf=-0.000809689052
		6:[f4550<0.000465072051] yes=13,no=14,missing=13
			13:leaf=-0.000400836783
			14:[f5376<0.0431459323] yes=25,no=26,missing=25
				25:leaf=-0.000206693439
				26:leaf=0.0125427824
booster[63]:
0:[f7271<1.75079906] yes=1,no=2,missing=1
	1:[f7271<0.933097005] yes=3,no=4,missing=3
		3:[f9253<0.0803818852] yes=7,no=8,missing=7
			7:[f5201<2.45861363] yes=15,no=16,missing=15
				15:leaf=-0.00357241719
				16:leaf=0.00270064594
			8:[f218<0.568138421] yes=17,no=18,missing=17
				17:leaf=0.000244469382
				18:leaf=0.00413577864
		4:[f8923<0.56853199] yes=9,no=10,missing=9
			9:[f5249<0.432175756] yes=19,no=20,missing=19
				19:leaf=0.00077470328
				20:leaf=0.00671828026
			10:[f8155<0.0142444205] yes=21,no=22,missing=21
				21:leaf=-0.00306365639
				22:leaf=0.00270264293
	2:[f5830<2.81991673] yes=5,no=6,missing=5
		5:[f3612<3.36096907] yes=11,no=12,missing=11
			11:[f8126<0.0374725014] yes=23,no=24,missing=23
				23:leaf=-0.000382456317
				24:leaf=0.00146619312
			12:leaf=-0.000809299177
		6:[f4550<0.000465072051] yes=13,no=14,missing=13
			13:leaf=-0.000400693214
			14:[f9268<7.20411301] yes=25,no=26,missing=25
				25:leaf=0.0124858171
				26:leaf=-0.000212635146
booster[64]:
0:[f9273<0.893686235] yes=1,no=2,missing=1
	1:[f204<1.04862463] yes=3,no=4,missing=3
		3:[f9809<1.04368186] yes=7,no=8,missing=7
			7:[f2839<0.372795284] yes=15,no=16,missing=15
				15:leaf=0.00205293135
				16:leaf=-0.00378004811
			8:[f2552<0.0985166579] yes=17,no=18,missing=17
				17:leaf=-0.00128102256
				18:leaf=0.00596954115
		4:[f5229<4.37733078] yes=9,no=10,missing=9
			9:[f2165<0.0441724509] yes=19,no=20,missing=19
				19:leaf=0.00407216279
				20:leaf=-0.000611678406
			10:[f8602<0.00957163516] yes=21,no=22,missing=21
				21:leaf=0.00722948648
				22:leaf=-0.000572495162
	2:[f9279<1.45680249] yes=5,no=6,missing=5
		5:[f430<0.421264589] yes=11,no=12,missing=11
			11:[f4743<0.0349754691] yes=23,no=24,missing=23
				23:leaf=-0.00130056939
				24:leaf=0.00133592158
			12:[f5090<11.0751762] yes=25,no=26,missing=25
				25:leaf=0.00904492568
				26:leaf=-0.000593656674
		6:[f1959<0.914292216] yes=13,no=14,missing=13
			13:[f8079<0.66228497] yes=27,no=28,missing=27
				27:leaf=-0.00045484415
				28:leaf=0.000506872311
			14:[f874<14.5916462] yes=29,no=30,missing=29
				29:leaf=0.0130708227
				30:leaf=-5.10516984e-05
booster[65]:
0:[f7259<1.06271911] yes=1,no=2,missing=1
	1:[f2824<2.57769251] yes=3,no=4,missing=3
		3:[f9261<0.232546419] yes=7,no=8,missing=7
			7:[f415<2.17377186] yes=15,no=16,missing=15
				15:leaf=-0.00344103109
				16:leaf=0.00172709313
			8:[f204<1.09495068] yes=17,no=18,missing=17
				17:leaf=2.90236658e-05
				18:leaf=0.00450656051
		4:[f1975<22.5441933] yes=9,no=10,missing=9
			9:[f6756<0.0352826826] yes=19,no=20,missing=19
				19:leaf=0.00302889035
				20:leaf=-0.00183462165
			10:[f8548<0.0239029657] yes=21,no=22,missing=21
				21:leaf=0.00844077766
				22:leaf=0.00073739764
	2:[f9279<1.45680249] yes=5,no=6,missing=5
		5:[f1400<1.33544469] yes=11,no=12,missing=11
			11:[f469<0.0643215477] yes=23,no=24,missing=23
				23:leaf=0.00057698437
				24:leaf=-0.00133301737
			12:[f4125<0.298783481] yes=25,no=26,missing=25
				25:leaf=0.000167928578
				26:leaf=0.00880385004
		6:[f1959<0.914292216] yes=13,no=14,missing=13
			13:[f8079<0.66228497] yes=27,no=28,missing=27
				27:leaf=-0.000454743684
				28:leaf=0.000506702752
			14:[f874<14.5916462] yes=29,no=30,missing=29
				29:leaf=0.0130186649
				30:leaf=-5.10403406e-05
booster[66]:
0:[f7271<1.75079906] yes=1,no=2,missing=1
	1:[f9273<0.434005082] yes=3,no=4,missing=3
		3:[f3245<3.98573017] yes=7,no=8,missing=7
			7:[f7828<0.227090374] yes=15,no=16,missing=15
				15:leaf=-0.00338567281
				16:leaf=0.00135340961
			8:[f4599<0.0181054957] yes=17,no=18,missing=17
				17:leaf=-0.000792570529
				18:leaf=0.00477814768
		4:[f8923<0.390689075] yes=9,no=10,missing=9
			9:[f3200<2.5426836] yes=19,no=20,missing=19
				19:leaf=0.00114359078
				20:leaf=0.00687017944
			10:[f418<0.0737761334] yes=21,no=22,missing=21
				21:leaf=-0.00164378167
				22:leaf=0.00345486775
	2:[f5830<2.81991673] yes=5,no=6,missing=5
		5:[f3612<3.36096907] yes=11,no=12,missing=11
			11:[f8126<0.0374725014] yes=23,no=24,missing=23
				23:leaf=-0.000385602587
				24:leaf=0.00144711207
			12:leaf=-0.000815988809
		6:[f4550<0.000465072051] yes=13,no=14,missing=13
			13:leaf=-0.000406255422
			14:[f5376<0.0431459323] yes=25,no=26,missing=25
				25:leaf=-0.000221659444
				26:leaf=0.0123234456
booster[67]:
0:[f9273<0.893686235] yes=1,no=2,missing=1
	1:[f204<1.04862463] yes=3,no=4,missing=3
		3:[f9809<1.04368186] yes=7,no=8,missing=7
			7:[f2839<0.372795284] yes=15,no=16,missing=15
				15:leaf=0.00201608031
				16:leaf=-0.00375378202
			8:[f2552<0.0985166579] yes=17,no=18,missing=17
				17:leaf=-0.00129501196
				18:leaf=0.00587874232
		4:[f5229<4.37733078] yes=9,no=10,missing=9
			9:[f2165<0.0441724509] yes=19,no=20,missing=19
				19:leaf=0.00399710378
				20:leaf=-0.000644102169
			10:[f4402<0.443606794] yes=21,no=22,missing=21
				21:leaf=0.00711790891
				22:leaf=-0.000329030474
	2:[f9279<1.45680249] yes=5,no=6,missing=5
		5:[f430<0.421264589] yes=11,no=12,missing=11
			11:[f4743<0.0349754691] yes=23,no=24,missing=23
				23:leaf=-0.00132028467
				24:leaf=0.00132049888
			12:[f5090<11.0751762] yes=25,no=26,missing=25
				25:leaf=0.00887791533
				26:leaf=-0.000612068456
		6:[f1959<0.914292216] yes=13,no=14,missing=13
			13:[f8512<0.00568403304] yes=27,no=28,missing=27
				27:leaf=-0.000457403105
				28:leaf=0.000502459647
			14:[f874<14.5916462] yes=29,no=30,missing=29
				29:leaf=0.0129192062
				30:leaf=-5.37614287e-05
booster[68]:
0:[f7271<1.75079906] yes=1,no=2,missing=1
	1:[f9273<0.434005082] yes=3,no=4,missing=3
		3:[f3245<3.98573017] yes=7,no=8,missing=7
			7:[f9261<0.233237296] yes=15,no=16,missing=15
				15:leaf=-0.0026865378
				16:leaf=0.00189709291
			8:[f4599<0.0181054957] yes=17,no=18,missing=17
				17:leaf=-0.000792863895
				18:leaf=0.00472860364
		4:[f8923<0.390689075] yes=9,no=10,missing=9
			9:[f640<0.0372481346] yes=19,no=20,missing=19
				19:leaf=0.000678023964
				20:leaf=0.00671696104
			10:[f418<0.0737761334] yes=21,no=22,missing=21
				21:leaf=-0.00164773175
				22:leaf=0.00339734647
	2:[f1830<4.06894732] yes=5,no=6,missing=5
		5:[f1398<1.55244875] yes=11,no=12,missing=11
			11:[f8703<0.0569862612] yes=23,no=24,missing=23
				23:leaf=-0.000149088883
				24:leaf=0.00205497467
			12:[f604<0.124123141] yes=25,no=26,missing=25
				25:leaf=0.000457364018
				26:leaf=-0.00156418572
		6:[f5803<0.0515467525] yes=13,no=14,missing=13
			13:[f439<0.134699881] yes=27,no=28,missing=27
				27:leaf=0.000368499139
				28:leaf=-0.000726864615
			14:[f4550<0.000465072051] yes=29,no=30,missing=29
				29:leaf=-0.000342617073
				30:leaf=0.0122343497
booster[69]:
0:[f9273<0.893686235] yes=1,no=2,missing=1
	1:[f204<1.04862463] yes=3,no=4,missing=3
		3:[f9809<1.04368186] yes=7,no=8,missing=7
			7:[f2839<0.372795284] yes=15,no=16,missing=15
				15:leaf=0.00198682072
				16:leaf=-0.00373114157
			8:[f2552<0.0985166579] yes=17,no=18,missing=17
				17:leaf=-0.00130028161
				18:leaf=0.0058134445
		4:[f5229<4.37733078] yes=9,no=10,missing=9
			9:[f2165<0.0441724509] yes=19,no=20,missing=19
				19:leaf=0.00394412968
				20:leaf=-0.000659085868
			10:[f4402<0.443606794] yes=21,no=22,missing=21
				21:leaf=0.00702321855
				22:leaf=-0.000340045051
	2:[f9279<1.45680249] yes=5,no=6,missing=5
		5:[f430<0.421264589] yes=11,no=12,missing=11
			11:[f4743<0.0349754691] yes=23,no=24,missing=23
				23:leaf=-0.00132871012
				24:leaf=0.00131234794
			12:[f5090<11.0751762] yes=25,no=26,missing=25
				25:leaf=0.00876283925
				26:leaf=-0.000622198742
		6:[f1959<0.914292216] yes=13,no=14,missing=13
			13:[f8079<0.66228497] yes=27,no=28,missing=27
				27:leaf=-0.000459991687
				28:leaf=0.000498226902
			14:[f874<14.5916462] yes=29,no=30,missing=29
				29:leaf=0.012822587
				30:leaf=-5.64525762e-05
booster[70]:
0:[f7271<1.75079906] yes=1,no=2,missing=1
	1:[f7271<0.974513113] yes=3,no=4,missing=3
		3:[f9253<0.0795899481] yes=7,no=8,missing=7
			7:[f5277<7.99266434] yes=15,no=16,missing=15
				15:leaf=-0.00316076633
				16:leaf=0.00394166447
			8:[f1826<8.95302963] yes=17,no=18,missing=17
				17:leaf=-0.00124914746
				18:leaf=0.00317577808
		4:[f3247<1.3708775] yes=9,no=10,missing=9
			9:[f5987<1.71514821] yes=19,no=20,missing=19
				19:leaf=0.00289051794
				20:leaf=-0.00233797124
			10:[f430<0.449463308] yes=21,no=22,missing=21
				21:leaf=0.000739790266
				22:leaf=0.00649079913
	2:[f1245<4.33289719] yes=5,no=6,missing=5
		5:[f1133<12.9785938] yes=11,no=12,missing=11
			11:[f9253<0.223963439] yes=23,no=24,missing=23
				23:leaf=-0.000576920283
				24:leaf=0.00476528797
			12:[f1624<31.1425209] yes=25,no=26,missing=25
				25:leaf=-0.00169500208
				26:leaf=0.000609939627
		6:[f5803<0.0515467525] yes=13,no=14,missing=13
			13:[f5653<0.129747018] yes=27,no=28,missing=27
				27:leaf=-0.000783854048
				28:leaf=0.00029221471
			14:[f1058<4.53152943] yes=29,no=30,missing=29
				29:leaf=-0.000266640884
				30:leaf=0.0122290235
booster[71]:
0:[f9273<0.893686235] yes=1,no=2,missing=1
	1:[f204<1.04862463] yes=3,no=4,missing=3
		3:[f9809<1.04368186] yes=7,no=8,missing=7
			7:[f2839<0.372795284] yes=15,no=16,missing=15
				15:leaf=0.00196252181
				16:leaf=-0.00370836887
			8:[f2552<0.0985166579] yes=17,no=18,missing=17
				17:leaf=-0.00130652043
				18:leaf=0.00574932341
		4:[f5229<4.37733078] yes=9,no=10,missing=9
			9:[f2165<0.0441724509] yes=19,no=20,missing=19
				19:leaf=0.00389844645
				20:leaf=-0.000671123271
			10:[f8602<0.00957163516] yes=21,no=22,missing=21
				21:leaf=0.00689488091
				22:leaf=-0.000644537969
	2:[f9279<1.45680249] yes=5,no=6,missing=5
		5:[f430<0.421264589] yes=11,no=12,missing=11
			11:[f4743<0.0349754691] yes=23,no=24,missing=23
				23:leaf=-0.00133147673
				24:leaf=0.00130549446
			12:[f5090<11.0751762] yes=25,no=26,missing=25
				25:leaf=0.00865030196
				26:leaf=-0.000632295501
		6:[f1959<0.914292216] yes=13,no=14,missing=13
			13:[f8512<0.00568403304] yes=27,no=28,missing=27
				27:leaf=-0.000462041527
				28:leaf=0.000494055334
			14:[f874<14.5916462] yes=29,no=30,missing=29
				29:leaf=0.0127284676
				30:leaf=-5.91321259e-05
booster[72]:
0:[f7271<1.75079906] yes=1,no=2,missing=1
	1:[f9273<0.434005082] yes=3,no=4,missing=3
		3:[f3245<3.98573017] yes=7,no=8,missing=7
			7:[f7828<0.227090374] yes=15,no=16,missing=15
				15:leaf=-0.00334412279
				16:leaf=0.00128125201
			8:[f6566<0.105753973] yes=17,no=18,missing=17
				17:leaf=0.004740668
				18:leaf=-0.000577735831
		4:[f8923<0.390689075] yes=9,no=10,missing=9
			9:[f640<0.0372481346] yes=19,no=20,missing=19
				19:leaf=0.000630823488
				20:leaf=0.00655081123
			10:[f418<0.0737761334] yes=21,no=22,missing=21
				21:leaf=-0.00167989812
				22:leaf=0.00327184843
	2:[f1245<4.33289719] yes=5,no=6,missing=5
		5:[f1133<12.9785938] yes=11,no=12,missing=11
			11:[f9253<0.223963439] yes=23,no=24,missing=23
				23:leaf=-0.000583233079
				24:leaf=0.00470935041
			12:[f1624<31.1425209] yes=25,no=26,missing=25
				25:leaf=-0.00169882388
				26:leaf=0.000602894928
		6:[f5803<0.0515467525] yes=13,no=14,missing=13
			13:[f5653<0.129747018] yes=27,no=28,missing=27
				27:leaf=-0.000785934157
				28:leaf=0.000290255935
			14:[f1058<4.53152943] yes=29,no=30,missing=29
				29:leaf=-0.000270299846
				30:leaf=0.0121292304
booster[73]:
0:[f7259<1.06271911] yes=1,no=2,missing=1
	1:[f5247<2.10965109] yes=3,no=4,missing=3
		3:[f9253<0.129661724] yes=7,no=8,missing=7
			7:[f429<0.174402952] yes=15,no=16,missing=15
				15:leaf=-0.0032390093
				16:leaf=0.00132400508
			8:[f9752<0.14643541] yes=17,no=18,missing=17
				17:leaf=0.00358615094
				18:leaf=-0.00172930921
		4:[f3928<5.56737566] yes=9,no=10,missing=9
			9:[f3840<6.33055067] yes=19,no=20,missing=19
				19:leaf=-0.00131482095
				20:leaf=0.00178559881
			10:[f7259<1.05026746] yes=21,no=22,missing=21
				21:leaf=0.00780234253
				22:leaf=-0.000555731298
	2:[f9236<0.720824361] yes=5,no=6,missing=5
		5:[f1400<1.33544469] yes=11,no=12,missing=11
			11:[f6714<0.189611048] yes=23,no=24,missing=23
				23:leaf=0.000305427588
				24:leaf=-0.00162590668
			12:[f4125<0.298783481] yes=25,no=26,missing=25
				25:leaf=3.03743745e-05
				26:leaf=0.00785224698
		6:[f6606<0.00921020191] yes=13,no=14,missing=13
			13:[f581<0.0621632561] yes=27,no=28,missing=27
				27:leaf=-0.00076852506
				28:leaf=0.00043726826
			14:[f6073<0.303146899] yes=29,no=30,missing=29
				29:leaf=-2.55431205e-05
				30:leaf=0.0124380002
booster[74]:
0:[f7271<1.75079906] yes=1,no=2,missing=1
	1:[f9273<0.434005082] yes=3,no=4,missing=3
		3:[f3245<3.98573017] yes=7,no=8,missing=7
			7:[f6073<0.244249463] yes=15,no=16,missing=15
				15:leaf=-0.00312874676
				16:leaf=0.00140773691
			8:[f4599<0.0181054957] yes=17,no=18,missing=17
				17:leaf=-0.000808750512
				18:leaf=0.00460749213
		4:[f8923<0.456439584] yes=9,no=10,missing=9
			9:[f3200<2.5426836] yes=19,no=20,missing=19
				19:leaf=0.000585360161
				20:leaf=0.00635283627
			10:[f8155<0.0142444205] yes=21,no=22,missing=21
				21:leaf=-0.00258536101
				22:leaf=0.00339142373
	2:[f1245<4.33289719] yes=5,no=6,missing=5
		5:[f1133<12.9785938] yes=11,no=12,missing=11
			11:[f9253<0.223963439] yes=23,no=24,missing=23
				23:leaf=-0.000588591385
				24:leaf=0.00465342961
			12:[f1624<31.1425209] yes=25,no=26,missing=25
				25:leaf=-0.00170338177
				26:leaf=0.000595728285
		6:[f7324<0.0431543626] yes=13,no=14,missing=13
			13:[f7537<0.0509245917] yes=27,no=28,missing=27
				27:leaf=-0.000827065669
				28:leaf=0.0023009805
			14:[f9268<7.20411301] yes=29,no=30,missing=29
				29:leaf=0.012081611
				30:leaf=-0.000257499836
